{"learner":{"attributes":{"scikit_learn":"{\"_estimator_type\": \"regressor\"}"},"feature_names":["pm2_5_lag_1","pm2_5_lag_2","pm2_5_lag_3","wind_speed_10m_max","wind_gusts_10m_max","wind_direction_10m_dominant","temperature_2m_max"],"feature_types":["float","float","float","float","float","int","float"],"gradient_booster":{"model":{"cats":{"enc":[],"feature_segments":[],"sorted_idx":[]},"gbtree_model_param":{"num_parallel_tree":"1","num_trees":"500"},"iteration_indptr":[0,1,2,3,4,5,6,7,8,9,10,11,12,13,14,15,16,17,18,19,20,21,22,23,24,25,26,27,28,29,30,31,32,33,34,35,36,37,38,39,40,41,42,43,44,45,46,47,48,49,50,51,52,53,54,55,56,57,58,59,60,61,62,63,64,65,66,67,68,69,70,71,72,73,74,75,76,77,78,79,80,81,82,83,84,85,86,87,88,89,90,91,92,93,94,95,96,97,98,99,100,101,102,103,104,105,106,107,108,109,110,111,112,113,114,115,116,117,118,119,120,121,122,123,124,125,126,127,128,129,130,131,132,133,134,135,136,137,138,139,140,141,142,143,144,145,146,147,148,149,150,151,152,153,154,155,156,157,158,159,160,161,162,163,164,165,166,167,168,169,170,171,172,173,174,175,176,177,178,179,180,181,182,183,184,185,186,187,188,189,190,191,192,193,194,195,196,197,198,199,200,201,202,203,204,205,206,207,208,209,210,211,212,213,214,215,216,217,218,219,220,221,222,223,224,225,226,227,228,229,230,231,232,233,234,235,236,237,238,239,240,241,242,243,244,245,246,247,248,249,250,251,252,253,254,255,256,257,258,259,260,261,262,263,264,265,266,267,268,269,270,271,272,273,274,275,276,277,278,279,280,281,282,283,284,285,286,287,288,289,290,291,292,293,294,295,296,297,298,299,300,301,302,303,304,305,306,307,308,309,310,311,312,313,314,315,316,317,318,319,320,321,322,323,324,325,326,327,328,329,330,331,332,333,334,335,336,337,338,339,340,341,342,343,344,345,346,347,348,349,350,351,352,353,354,355,356,357,358,359,360,361,362,363,364,365,366,367,368,369,370,371,372,373,374,375,376,377,378,379,380,381,382,383,384,385,386,387,388,389,390,391,392,393,394,395,396,397,398,399,400,401,402,403,404,405,406,407,408,409,410,411,412,413,414,415,416,417,418,419,420,421,422,423,424,425,426,427,428,429,430,431,432,433,434,435,436,437,438,439,440,441,442,443,444,445,446,447,448,449,450,451,452,453,454,455,456,457,458,459,460,461,462,463,464,465,466,467,468,469,470,471,472,473,474,475,476,477,478,479,480,481,482,483,484,485,486,487,488,489,490,491,492,493,494,495,496,497,498,499,500],"tree_info":[0,0,0,0,0,0,0,0,0,0,0,0,0,0,0,0,0,0,0,0,0,0,0,0,0,0,0,0,0,0,0,0,0,0,0,0,0,0,0,0,0,0,0,0,0,0,0,0,0,0,0,0,0,0,0,0,0,0,0,0,0,0,0,0,0,0,0,0,0,0,0,0,0,0,0,0,0,0,0,0,0,0,0,0,0,0,0,0,0,0,0,0,0,0,0,0,0,0,0,0,0,0,0,0,0,0,0,0,0,0,0,0,0,0,0,0,0,0,0,0,0,0,0,0,0,0,0,0,0,0,0,0,0,0,0,0,0,0,0,0,0,0,0,0,0,0,0,0,0,0,0,0,0,0,0,0,0,0,0,0,0,0,0,0,0,0,0,0,0,0,0,0,0,0,0,0,0,0,0,0,0,0,0,0,0,0,0,0,0,0,0,0,0,0,0,0,0,0,0,0,0,0,0,0,0,0,0,0,0,0,0,0,0,0,0,0,0,0,0,0,0,0,0,0,0,0,0,0,0,0,0,0,0,0,0,0,0,0,0,0,0,0,0,0,0,0,0,0,0,0,0,0,0,0,0,0,0,0,0,0,0,0,0,0,0,0,0,0,0,0,0,0,0,0,0,0,0,0,0,0,0,0,0,0,0,0,0,0,0,0,0,0,0,0,0,0,0,0,0,0,0,0,0,0,0,0,0,0,0,0,0,0,0,0,0,0,0,0,0,0,0,0,0,0,0,0,0,0,0,0,0,0,0,0,0,0,0,0,0,0,0,0,0,0,0,0,0,0,0,0,0,0,0,0,0,0,0,0,0,0,0,0,0,0,0,0,0,0,0,0,0,0,0,0,0,0,0,0,0,0,0,0,0,0,0,0,0,0,0,0,0,0,0,0,0,0,0,0,0,0,0,0,0,0,0,0,0,0,0,0,0,0,0,0,0,0,0,0,0,0,0,0,0,0,0,0,0,0,0,0,0,0,0,0,0,0,0,0,0,0,0,0,0,0,0,0,0,0,0,0,0,0,0,0,0,0,0,0,0,0,0,0,0,0,0,0,0,0,0,0,0,0,0,0,0,0,0,0,0,0,0,0,0,0,0,0,0,0,0,0,0,0,0,0,0,0,0,0,0,0],"trees":[{"base_weights":[-1.8366969E-1,-3.731306E0,7.1182966E0,-9.821726E0,-2.337802E0,-5.2829275E0,8.252016E0,-1.1339224E1,1.2249317E0,1.1210581E0,-5.9951787E0,-9.095403E0,3.7762315E0,1.09234E1,3.4707534E0,-5.907098E0,-1.3902054E1,-2.5697632E0,7.977717E0,-5.0120246E-1,9.073817E0,-1.5329705E0,-8.293633E0,-3.798397E0,-1.1655452E1,-6.084493E-2,7.462795E0,7.894245E0,2.0932959E1,3.027212E0,2.568663E-1,-3.1414283E-3,-1.0645403E-1,-1.4111304E-1,6.8663023E-3,-4.4640653E-2,8.18663E-2,9.498608E-2,1.8663025E-3,-3.9650496E-2,1.1055243E-2,1.638929E-2,4.1109565E-1,-7.945403E-2,2.4485965E-3,-6.34458E-2,-1.10208124E-1,1.5821736E-2,-5.8556158E-2,-1.4001545E-1,-5.1013917E-2,8.81105E-2,-3.1336974E-3,8.9502655E-2,-4.9078446E-2,7.635934E-2,2.4134023E-1,4.7762435E-2,-1.0925959E-2],"categories":[],"categories_nodes":[],"categories_segments":[],"categories_sizes":[],"default_left":[0,0,0,0,0,0,0,0,0,0,0,0,0,0,0,0,0,0,0,0,0,0,0,0,0,0,0,0,0,0,0,0,0,0,0,0,0,0,0,0,0,0,0,0,0,0,0,0,0,0,0,0,0,0,0,0,0,0,0],"id":0,"left_children":[1,3,5,7,9,11,13,15,17,19,21,23,25,27,29,31,33,35,37,39,41,43,45,47,49,-1,51,53,55,57,-1,-1,-1,-1,-1,-1,-1,-1,-1,-1,-1,-1,-1,-1,-1,-1,-1,-1,-1,-1,-1,-1,-1,-1,-1,-1,-1,-1,-1],"loss_changes":[2.5905375E4,5.6888066E3,4.6410566E3,2.1092988E3,6.951765E3,1.00140533E3,3.7938633E3,1.4492568E3,4.3049698E2,3.655658E3,2.7256875E3,2.2693994E2,3.7257697E2,5.656285E3,9.962909E2,9.771975E2,2.3558887E2,2.606801E2,6.93237E1,1.3178309E3,1.136537E4,1.0507653E3,8.655908E2,9.781671E1,1.2846631E2,0E0,7.615094E1,2.0582979E3,1.6885566E3,7.8343146E2,0E0,0E0,0E0,0E0,0E0,0E0,0E0,0E0,0E0,0E0,0E0,0E0,0E0,0E0,0E0,0E0,0E0,0E0,0E0,0E0,0E0,0E0,0E0,0E0,0E0,0E0,0E0,0E0,0E0],"parents":[2147483647,0,0,1,1,2,2,3,3,4,4,5,5,6,6,7,7,8,8,9,9,10,10,11,11,12,12,13,13,14,14,15,15,16,16,17,17,18,18,19,19,20,20,21,21,22,22,23,23,24,24,26,26,27,27,28,28,29,29],"right_children":[2,4,6,8,10,12,14,16,18,20,22,24,26,28,30,32,34,36,38,40,42,44,46,48,50,-1,52,54,56,58,-1,-1,-1,-1,-1,-1,-1,-1,-1,-1,-1,-1,-1,-1,-1,-1,-1,-1,-1,-1,-1,-1,-1,-1,-1,-1,-1,-1,-1],"split_conditions":[3E1,9.5E1,5.4E1,2E1,2.3E2,8E0,2.26E2,1.44E1,2.42E1,3.1E1,1.75E1,1.49E1,3.2E1,5.1E1,8.4E1,1.7E0,2.9E1,2.3E1,2.8E1,1.6E1,1.67E1,1.5E1,2.68E2,1.7E1,4.2E1,-6.084493E-2,5.6E1,5.3E1,5.4E0,2.8E2,2.568663E-1,-3.1414283E-3,-1.0645403E-1,-1.4111304E-1,6.8663023E-3,-4.4640653E-2,8.18663E-2,9.498608E-2,1.8663025E-3,-3.9650496E-2,1.1055243E-2,1.638929E-2,4.1109565E-1,-7.945403E-2,2.4485965E-3,-6.34458E-2,-1.10208124E-1,1.5821736E-2,-5.8556158E-2,-1.4001545E-1,-5.1013917E-2,8.81105E-2,-3.1336974E-3,8.9502655E-2,-4.9078446E-2,7.635934E-2,2.4134023E-1,4.7762435E-2,-1.0925959E-2],"split_indices":[1,5,5,6,5,6,5,3,6,2,3,3,2,1,2,6,1,2,1,1,6,1,5,2,5,0,1,2,6,5,0,0,0,0,0,0,0,0,0,0,0,0,0,0,0,0,0,0,0,0,0,0,0,0,0,0,0,0,0],"split_type":[0,0,0,0,0,0,0,0,0,0,0,0,0,0,0,0,0,0,0,0,0,0,0,0,0,0,0,0,0,0,0,0,0,0,0,0,0,0,0,0,0,0,0,0,0,0,0,0,0,0,0,0,0,0,0,0,0,0,0],"sum_hessian":[9.98E2,6.72E2,3.26E2,1.24E2,5.48E2,2.7E1,2.99E2,1.09E2,1.5E1,2.82E2,2.66E2,1.9E1,8E0,1.91E2,1.08E2,3.6E1,7.3E1,1E1,5E0,2.35E2,4.7E1,9.1E1,1.75E2,7E0,1.2E1,2E0,6E0,1.48E2,4.3E1,1.07E2,1E0,1.7E1,1.9E1,7.2E1,1E0,9E0,1E0,4E0,1E0,7.4E1,1.61E2,3.9E1,8E0,1.9E1,7.2E1,1.04E2,7.1E1,2E0,5E0,8E0,4E0,5E0,1E0,1.37E2,1.1E1,9E0,3.4E1,7.5E1,3.2E1],"tree_param":{"num_deleted":"0","num_feature":"7","num_nodes":"59","size_leaf_vector":"1"}},{"base_weights":[3.0149516E-1,-6.413662E0,1.1199352E1,-1.0594089E1,-4.026787E0,7.917008E0,2.6397007E1,-1.3751427E1,-9.121585E0,-8.125873E0,-3.0989192E0,1.0263516E1,4.031867E0,2.1512165E1,4.300412E1,-3.7611907E0,-1.4657559E1,7.309109E0,-9.498926E0,-3.7082863E0,-1.0165377E1,-3.215842E-1,-4.992859E0,4.3036237E0,1.771534E1,7.6715703E0,1.4264767E0,2.6111317E1,9.244668E0,5.242759E-1,2.6090994E-1,1.2853723E-2,-6.0368903E-2,-1.6151246E-1,-1.2266966E-1,1.05945736E-1,-1.2736425E-2,-6.455847E-2,-1.1400967E-1,-5.2400935E-2,1.0340691E-4,-7.4609585E-2,-1.1407768E-1,-1.4646897E-2,3.0828377E-2,-5.533275E-2,7.925713E-2,1.3819507E-1,2.620207E-2,2.436993E-1,1.032207E-1,5.5398658E-2,1.4532016E-1,3.142854E-2,-9.186072E-2,8.2758814E-2,2.7966195E-1,1.0231866E-1,-2.7816467E-2],"categories":[],"categories_nodes":[],"categories_segments":[],"categories_sizes":[],"default_left":[0,0,0,0,0,0,0,0,0,0,0,0,0,0,0,0,0,0,0,0,0,0,0,0,0,0,0,0,0,0,0,0,0,0,0,0,0,0,0,0,0,0,0,0,0,0,0,0,0,0,0,0,0,0,0,0,0,0,0],"id":1,"left_children":[1,3,5,7,9,11,13,15,17,19,21,23,25,27,29,31,33,35,37,39,41,43,45,47,49,51,53,55,57,-1,-1,-1,-1,-1,-1,-1,-1,-1,-1,-1,-1,-1,-1,-1,-1,-1,-1,-1,-1,-1,-1,-1,-1,-1,-1,-1,-1,-1,-1],"loss_changes":[7.178905E4,6.01408E3,1.8447605E4,8.973867E2,1.450541E3,2.775623E3,4.429008E3,5.604404E2,1.0180254E3,6.019917E2,1.6711077E3,8.450877E3,1.1080328E3,2.748873E3,8.6343555E2,8.815089E1,2.3262695E1,1.26287E2,7.9460645E2,1.3676349E2,7.616455E1,5.104252E2,1.3633408E3,1.6938634E3,3.9303809E3,6.360923E2,1.3039302E3,1.0256934E3,2.1841895E2,0E0,0E0,0E0,0E0,0E0,0E0,0E0,0E0,0E0,0E0,0E0,0E0,0E0,0E0,0E0,0E0,0E0,0E0,0E0,0E0,0E0,0E0,0E0,0E0,0E0,0E0,0E0,0E0,0E0,0E0],"parents":[2147483647,0,0,1,1,2,2,3,3,4,4,5,5,6,6,7,7,8,8,9,9,10,10,11,11,12,12,13,13,14,14,15,15,16,16,17,17,18,18,19,19,20,20,21,21,22,22,23,23,24,24,25,25,26,26,27,27,28,28],"right_children":[2,4,6,8,10,12,14,16,18,20,22,24,26,28,30,32,34,36,38,40,42,44,46,48,50,52,54,56,58,-1,-1,-1,-1,-1,-1,-1,-1,-1,-1,-1,-1,-1,-1,-1,-1,-1,-1,-1,-1,-1,-1,-1,-1,-1,-1,-1,-1,-1,-1],"split_conditions":[2.8E1,1.5E1,5.2E1,1.06E2,1.01E2,2.23E2,6.7E1,2.12E1,1.09E1,2.84E1,2.15E2,1.58E2,3.85E1,2.13E2,1.63E1,2.8E1,1.2E1,1.1E1,2.23E2,2.3E1,3.46E1,2.5E1,4.7E1,2.23E1,1.94E2,4E1,2.86E2,6.7E1,3.89E1,5.242759E-1,2.6090994E-1,1.2853723E-2,-6.0368903E-2,-1.6151246E-1,-1.2266966E-1,1.05945736E-1,-1.2736425E-2,-6.455847E-2,-1.1400967E-1,-5.2400935E-2,1.0340691E-4,-7.4609585E-2,-1.1407768E-1,-1.4646897E-2,3.0828377E-2,-5.533275E-2,7.925713E-2,1.3819507E-1,2.620207E-2,2.436993E-1,1.032207E-1,5.5398658E-2,1.4532016E-1,3.142854E-2,-9.186072E-2,8.2758814E-2,2.7966195E-1,1.0231866E-1,-2.7816467E-2],"split_indices":[0,0,0,5,5,5,0,4,3,4,5,5,4,5,3,5,0,0,5,0,4,0,2,4,5,0,5,5,3,0,0,0,0,0,0,0,0,0,0,0,0,0,0,0,0,0,0,0,0,0,0,0,0,0,0,0,0,0,0],"split_type":[0,0,0,0,0,0,0,0,0,0,0,0,0,0,0,0,0,0,0,0,0,0,0,0,0,0,0,0,0,0,0,0,0,0,0,0,0,0,0,0,0,0,0,0,0,0,0,0,0,0,0,0,0,0,0,0,0,0,0],"sum_hessian":[9.79E2,6.06E2,3.73E2,2.19E2,3.87E2,3.08E2,6.5E1,6.7E1,1.52E2,7E1,3.17E2,1.91E2,1.17E2,5.2E1,1.3E1,6E0,6.1E1,3E0,1.49E2,2.3E1,4.7E1,1.29E2,1.88E2,1.07E2,8.4E1,4.8E1,6.9E1,3.7E1,1.5E1,7E0,6E0,2E0,4E0,3.4E1,2.7E1,2E0,1E0,5.9E1,9E1,1.6E1,7E0,1.7E1,3E1,9.7E1,3.2E1,1.81E2,7E0,1.5E1,9.2E1,4.3E1,4.1E1,3.8E1,1E1,6E1,9E0,4E0,3.3E1,1.4E1,1E0],"tree_param":{"num_deleted":"0","num_feature":"7","num_nodes":"59","size_leaf_vector":"1"}},{"base_weights":[-6.573877E-2,-5.9211736E0,9.988735E0,-1.0496626E1,-3.6634972E0,7.036116E0,2.2433893E1,-1.07212715E1,3.303647E0,-5.1931677E0,-1.3653516E0,3.8828815E1,5.996505E0,2.3700857E1,5.3917756E0,-1.4407515E1,-9.612836E0,4.9554236E-2,-8.258419E-3,-1.3433999E0,-5.8436337E0,-2.7177867E-1,-6.522169E0,5.8932405E0,1.0273555E2,6.567765E0,-4.6097846E0,2.142284E1,3.4988642E-1,1.0521245E-1,1.9672918E-1,-3.4053802E-2,-1.5422593E-1,-1.028876E-1,-5.8374926E-2,-2.7477242E-2,4.090742E-2,-1.0219485E-1,-5.0618928E-2,-6.2318468E-3,1.5749219E-1,9.577023E-2,-8.0694064E-2,1.10426836E-1,-7.2951317E-3,1.4185923E0,1.2244086E-1,1.01615235E-1,4.7842372E-2,2.4932623E-2,-6.5933175E-2,2.8159168E-1,1.7668189E-1,-8.59066E-3,8.350163E-3],"categories":[],"categories_nodes":[],"categories_segments":[],"categories_sizes":[],"default_left":[0,0,0,0,0,0,0,0,0,0,0,0,0,0,0,0,0,0,0,0,0,0,0,0,0,0,0,0,0,0,0,0,0,0,0,0,0,0,0,0,0,0,0,0,0,0,0,0,0,0,0,0,0,0,0],"id":2,"left_children":[1,3,5,7,9,11,13,15,17,19,21,23,25,27,29,31,33,-1,-1,35,37,39,41,43,45,47,49,51,-1,-1,53,-1,-1,-1,-1,-1,-1,-1,-1,-1,-1,-1,-1,-1,-1,-1,-1,-1,-1,-1,-1,-1,-1,-1,-1],"loss_changes":[5.7107387E4,6.2937695E3,1.2960406E4,6.6165234E2,1.4412568E3,9.352255E3,1.3404492E3,6.746094E2,3.1376373E1,6.1067236E2,9.343605E2,1.83378E4,1.7389014E3,8.7041406E2,1.5781718E2,4.3887402E2,3.380293E2,0E0,0E0,2.9359827E2,6.700552E2,7.8673737E2,7.996498E2,2.4678026E2,8.884143E3,1.6691494E3,2.2777585E2,8.9356836E2,0E0,0E0,3.4129357E0,0E0,0E0,0E0,0E0,0E0,0E0,0E0,0E0,0E0,0E0,0E0,0E0,0E0,0E0,0E0,0E0,0E0,0E0,0E0,0E0,0E0,0E0,0E0,0E0],"parents":[2147483647,0,0,1,1,2,2,3,3,4,4,5,5,6,6,7,7,8,8,9,9,10,10,11,11,12,12,13,13,14,14,15,15,16,16,19,19,20,20,21,21,22,22,23,23,24,24,25,25,26,26,27,27,30,30],"right_children":[2,4,6,8,10,12,14,16,18,20,22,24,26,28,30,32,34,-1,-1,36,38,40,42,44,46,48,50,52,-1,-1,54,-1,-1,-1,-1,-1,-1,-1,-1,-1,-1,-1,-1,-1,-1,-1,-1,-1,-1,-1,-1,-1,-1,-1,-1],"split_conditions":[2.8E1,1.5E1,5.1E1,3.89E1,2.2E1,1.3E1,2.74E2,9E0,1.3E1,1.34E1,2.69E2,3.6E1,5.7E1,7.5E1,5.7E1,1.26E1,3.1E1,4.9554236E-2,-8.258419E-3,2.7E1,8.3E1,5E1,1.12E1,1.1E1,4.2E1,1.58E1,3.3E1,3.7E1,3.4988642E-1,1.0521245E-1,5.8E1,-3.4053802E-2,-1.5422593E-1,-1.028876E-1,-5.8374926E-2,-2.7477242E-2,4.090742E-2,-1.0219485E-1,-5.0618928E-2,-6.2318468E-3,1.5749219E-1,9.577023E-2,-8.0694064E-2,1.10426836E-1,-7.2951317E-3,1.4185923E0,1.2244086E-1,1.01615235E-1,4.7842372E-2,2.4932623E-2,-6.5933175E-2,2.8159168E-1,1.7668189E-1,-8.59066E-3,8.350163E-3],"split_indices":[0,0,0,3,0,1,5,0,0,3,5,0,1,0,0,3,2,0,0,2,5,1,3,1,0,3,0,1,0,0,0,0,0,0,0,0,0,0,0,0,0,0,0,0,0,0,0,0,0,0,0,0,0,0,0],"split_type":[0,0,0,0,0,0,0,0,0,0,0,0,0,0,0,0,0,0,0,0,0,0,0,0,0,0,0,0,0,0,0,0,0,0,0,0,0,0,0,0,0,0,0,0,0,0,0,0,0,0,0,0,0,0,0],"sum_hessian":[9.68E2,6.12E2,3.56E2,2.01E2,4.11E2,2.89E2,6.7E1,1.98E2,3E0,2.46E2,1.65E2,8E0,2.81E2,6.2E1,5E0,4.3E1,1.55E2,2E0,1E0,3.6E1,2.1E2,1.37E2,2.8E1,6E0,2E0,2.67E2,1.4E1,5.4E1,8E0,2E0,3E0,4E0,3.9E1,1.3E2,2.5E1,2.9E1,7E0,3E1,1.8E2,1.35E2,2E0,2E0,2.6E1,3E0,3E0,1E0,1E0,8.7E1,1.8E2,3E0,1.1E1,1.7E1,3.7E1,1E0,2E0],"tree_param":{"num_deleted":"0","num_feature":"7","num_nodes":"55","size_leaf_vector":"1"}},{"base_weights":[-2.2575791E-1,-3.4877157E0,6.643289E0,-4.850877E0,2.0311544E0,-2.4070961E0,8.395242E0,-8.564303E0,-2.632525E0,3.368275E1,-2.2786547E-1,-7.437179E0,1.08315935E1,1.2076348E1,3.4041483E0,2.2225614E0,-9.193876E0,-8.291989E0,-1.3248609E0,8.258091E1,-4.5298147E0,-1.0548888E0,1.0732539E1,-8.712885E0,5.9034667E0,1.8406391E1,7.404028E0,1.0145189E1,2.3915878E1,1.42019E1,2.0216973E0,9.47634E-2,-1.2482916E-2,-1.3379161E-1,-7.585163E-2,-4.7253523E-2,-1.3323022E-1,1.4375271E-2,-5.9869327E-2,1.4114993E0,1.6007929E-1,3.8212521E-3,-7.081316E-2,-6.564238E-2,5.7529885E-4,1.2273565E-1,-7.978354E-3,-1.5077453E-2,-9.826367E-2,1.6563733E-3,1.1558477E-1,5.1531438E-2,2.1106426E-1,9.449939E-2,9.497213E-3,8.8157594E-2,2.7777666E-1,3.2641318E-1,1.4651687E-1,-2.0261334E-2,1.9272922E-1,4.0970437E-2,-2.9975729E-2],"categories":[],"categories_nodes":[],"categories_segments":[],"categories_sizes":[],"default_left":[0,0,0,0,0,0,0,0,0,0,0,0,0,0,0,0,0,0,0,0,0,0,0,0,0,0,0,0,0,0,0,0,0,0,0,0,0,0,0,0,0,0,0,0,0,0,0,0,0,0,0,0,0,0,0,0,0,0,0,0,0,0,0],"id":3,"left_children":[1,3,5,7,9,11,13,15,17,19,21,23,25,27,29,31,33,35,37,39,41,43,45,47,49,51,53,55,57,59,61,-1,-1,-1,-1,-1,-1,-1,-1,-1,-1,-1,-1,-1,-1,-1,-1,-1,-1,-1,-1,-1,-1,-1,-1,-1,-1,-1,-1,-1,-1,-1,-1],"loss_changes":[2.2407303E4,5.1105205E3,5.12579E3,4.458758E3,9.66039E3,3.6099172E3,4.919533E3,1.3990312E3,2.520046E3,1.7190793E4,1.1625144E3,7.1516675E2,2.5316516E2,3.301291E3,1.7028619E3,3.1395084E2,1.1912383E3,1.0854517E3,3.6016946E3,1.3336939E4,7.790288E1,7.296933E2,1.6970972E2,2.7400513E2,1.2787544E2,3.4372437E1,1.494845E2,2.919671E3,1.2192666E3,1.1088552E3,1.0956208E3,0E0,0E0,0E0,0E0,0E0,0E0,0E0,0E0,0E0,0E0,0E0,0E0,0E0,0E0,0E0,0E0,0E0,0E0,0E0,0E0,0E0,0E0,0E0,0E0,0E0,0E0,0E0,0E0,0E0,0E0,0E0,0E0],"parents":[2147483647,0,0,1,1,2,2,3,3,4,4,5,5,6,6,7,7,8,8,9,9,10,10,11,11,12,12,13,13,14,14,15,15,16,16,17,17,18,18,19,19,20,20,21,21,22,22,23,23,24,24,25,25,26,26,27,27,28,28,29,29,30,30],"right_children":[2,4,6,8,10,12,14,16,18,20,22,24,26,28,30,32,34,36,38,40,42,44,46,48,50,52,54,56,58,60,62,-1,-1,-1,-1,-1,-1,-1,-1,-1,-1,-1,-1,-1,-1,-1,-1,-1,-1,-1,-1,-1,-1,-1,-1,-1,-1,-1,-1,-1,-1,-1,-1],"split_conditions":[3E1,1.72E1,8.9E1,1.6E1,1.75E1,1.71E1,2.23E2,2.3E1,1.05E2,1.94E2,2.51E1,5.7E1,2.56E1,5.5E1,1.22E1,1.55E1,9.9E1,3.42E1,2.47E2,1.3E1,1.73E1,1.82E1,2.7E1,1.15E1,6.1E1,3.8E1,5.2E1,2.68E1,1.12E1,1.01E1,2.78E2,9.47634E-2,-1.2482916E-2,-1.3379161E-1,-7.585163E-2,-4.7253523E-2,-1.3323022E-1,1.4375271E-2,-5.9869327E-2,1.4114993E0,1.6007929E-1,3.8212521E-3,-7.081316E-2,-6.564238E-2,5.7529885E-4,1.2273565E-1,-7.978354E-3,-1.5077453E-2,-9.826367E-2,1.6563733E-3,1.1558477E-1,5.1531438E-2,2.1106426E-1,9.449939E-2,9.497213E-3,8.8157594E-2,2.7777666E-1,3.2641318E-1,1.4651687E-1,-2.0261334E-2,1.9272922E-1,4.0970437E-2,-2.9975729E-2],"split_indices":[1,6,5,1,6,6,5,4,5,5,6,1,4,1,3,4,5,4,5,1,3,6,1,3,1,1,1,6,6,3,5,0,0,0,0,0,0,0,0,0,0,0,0,0,0,0,0,0,0,0,0,0,0,0,0,0,0,0,0,0,0,0,0],"split_type":[0,0,0,0,0,0,0,0,0,0,0,0,0,0,0,0,0,0,0,0,0,0,0,0,0,0,0,0,0,0,0,0,0,0,0,0,0,0,0,0,0,0,0,0,0,0,0,0,0,0,0,0,0,0,0,0,0,0,0,0,0,0,0],"sum_hessian":[9.98E2,6.77E2,3.21E2,5.43E2,1.34E2,5.2E1,2.69E2,2.02E2,3.41E2,8E0,1.26E2,3.8E1,1.4E1,1.54E2,1.15E2,1.1E1,1.91E2,6.3E1,2.78E2,3E0,5E0,1.18E2,8E0,3.5E1,3E0,3E0,1.1E1,1.34E2,2E1,1.2E1,1.03E2,3E0,8E0,5.1E1,1.4E2,3.8E1,2.5E1,1.75E2,1.03E2,1E0,2E0,2E0,3E0,1.9E1,9.9E1,7E0,1E0,5E0,3E1,2E0,1E0,1E0,2E0,8E0,3E0,1.26E2,8E0,9E0,1.1E1,3E0,9E0,7.3E1,3E1],"tree_param":{"num_deleted":"0","num_feature":"7","num_nodes":"63","size_leaf_vector":"1"}},{"base_weights":[-3.8201338E-1,-5.3184276E0,9.596684E0,-8.363057E0,-1.5203353E0,6.47694E0,2.3248064E1,-1.036663E1,-6.1672525E0,-3.277534E0,8.071385E-1,5.317543E0,1.1864768E1,2.5845901E1,2.8066573E0,-1.1294506E1,-4.979615E0,-5.1846647E0,-8.467329E0,-5.538117E0,-1.6003674E0,1.5616075E0,-8.327204E0,-9.388332E-1,6.1438293E0,1.2879419E1,5.3084164E0,-3.863536E-2,2.6479355E1,1.0471087E-1,-1.4933338E0,-1.369741E-1,-1.00780286E-1,-6.810247E-2,2.0082112E-2,-7.9883434E-2,-3.4592174E-2,-8.84507E-2,6.5079117E-3,-6.976778E-2,-2.370096E-2,5.97453E-2,-3.0241529E-2,-4.0819645E-2,2.5975512E-2,-1.12176806E-1,-3.19319E-2,-4.3573603E-2,4.4296935E-2,7.784089E-2,1.13297915E-2,2.7643405E-2,1.3339046E-1,9.704036E-2,-5.252295E-2,4.5327563E-2,2.7251127E-1,5.7901917E-3,-5.9275493E-2],"categories":[],"categories_nodes":[],"categories_segments":[],"categories_sizes":[],"default_left":[0,0,0,0,0,0,0,0,0,0,0,0,0,0,0,0,0,0,0,0,0,0,0,0,0,0,0,0,0,0,0,0,0,0,0,0,0,0,0,0,0,0,0,0,0,0,0,0,0,0,0,0,0,0,0,0,0,0,0],"id":4,"left_children":[1,3,5,7,9,11,13,15,17,19,21,23,25,27,29,31,33,35,37,39,41,43,45,47,49,51,53,-1,55,-1,57,-1,-1,-1,-1,-1,-1,-1,-1,-1,-1,-1,-1,-1,-1,-1,-1,-1,-1,-1,-1,-1,-1,-1,-1,-1,-1,-1,-1],"loss_changes":[4.9112984E4,7.70033E3,1.3903734E4,1.5638633E3,1.221416E3,1.623498E3,3.1667695E3,9.034668E2,3.6064453E2,6.3567053E2,9.020174E2,1.1637485E3,2.4429443E2,1.1185586E3,2.7929266E2,3.3841992E2,3.974406E2,5.9157886E2,1.8485913E2,3.116194E2,1.0857859E3,7.1217395E2,1.1257733E2,5.14818E2,1.6185615E3,1.4909229E2,4.2233548E2,0E0,7.741797E2,0E0,5.8567722E1,0E0,0E0,0E0,0E0,0E0,0E0,0E0,0E0,0E0,0E0,0E0,0E0,0E0,0E0,0E0,0E0,0E0,0E0,0E0,0E0,0E0,0E0,0E0,0E0,0E0,0E0,0E0,0E0],"parents":[2147483647,0,0,1,1,2,2,3,3,4,4,5,5,6,6,7,7,8,8,9,9,10,10,11,11,12,12,13,13,14,14,15,15,16,16,17,17,18,18,19,19,20,20,21,21,22,22,23,23,24,24,25,25,26,26,28,28,30,30],"right_children":[2,4,6,8,10,12,14,16,18,20,22,24,26,28,30,32,34,36,38,40,42,44,46,48,50,52,54,-1,56,-1,58,-1,-1,-1,-1,-1,-1,-1,-1,-1,-1,-1,-1,-1,-1,-1,-1,-1,-1,-1,-1,-1,-1,-1,-1,-1,-1,-1,-1],"split_conditions":[3E1,2E1,5.2E1,1.5E1,2.5E1,2.07E1,2.74E2,3.1E1,2.46E2,2.1E1,3.14E2,7.3E1,4.5E1,5.1E1,5.7E1,1E1,1.4E1,1.04E2,1.98E1,1.31E1,1.7E1,8.6E1,1.25E1,6E0,2.55E2,1.8E1,2.31E1,-3.863536E-2,1.7E1,1.0471087E-1,6.1E1,-1.369741E-1,-1.00780286E-1,-6.810247E-2,2.0082112E-2,-7.9883434E-2,-3.4592174E-2,-8.84507E-2,6.5079117E-3,-6.976778E-2,-2.370096E-2,5.97453E-2,-3.0241529E-2,-4.0819645E-2,2.5975512E-2,-1.12176806E-1,-3.19319E-2,-4.3573603E-2,4.4296935E-2,7.784089E-2,1.13297915E-2,2.7643405E-2,1.3339046E-1,9.704036E-2,-5.252295E-2,4.5327563E-2,2.7251127E-1,5.7901917E-3,-5.9275493E-2],"split_indices":[0,0,0,0,0,6,5,2,5,2,5,5,1,5,0,0,6,5,6,6,1,5,6,6,5,1,6,0,2,0,0,0,0,0,0,0,0,0,0,0,0,0,0,0,0,0,0,0,0,0,0,0,0,0,0,0,0,0,0],"split_type":[0,0,0,0,0,0,0,0,0,0,0,0,0,0,0,0,0,0,0,0,0,0,0,0,0,0,0,0,0,0,0,0,0,0,0,0,0,0,0,0,0,0,0,0,0,0,0,0,0,0,0,0,0,0,0,0,0,0,0],"sum_hessian":[9.95E2,6.66E2,3.29E2,3.69E2,2.97E2,2.69E2,6E1,1.91E2,1.78E2,1.69E2,1.28E2,2.23E2,4.6E1,5.3E1,7E0,1.62E2,2.9E1,1.27E2,5.1E1,7.1E1,9.8E1,1.19E2,9E0,2.6E1,1.97E2,3.9E1,7E0,1E0,5.2E1,2E0,5E0,5.1E1,1.11E2,2.3E1,6E0,4.7E1,8E1,4.9E1,2E0,4.8E1,2.3E1,1.5E1,8.3E1,1.8E1,1.01E2,5E0,4E0,1.6E1,1E1,1.48E2,4.9E1,2E0,3.7E1,5E0,2E0,2E0,5E1,4E0,1E0],"tree_param":{"num_deleted":"0","num_feature":"7","num_nodes":"59","size_leaf_vector":"1"}},{"base_weights":[-4.228588E-3,-5.5502977E0,1.2533153E1,-1.0705874E1,-3.5854852E0,1.0032804E1,2.4601542E1,-1.4530975E1,-9.4963455E0,-5.084763E0,-7.624857E-1,7.109473E0,1.5728811E1,3.5669147E1,1.9585342E1,-1.5113087E1,5.2499037E-2,-9.8794565E0,-3.6804008E-1,-2.7466576E0,-6.0083175E0,6.0890784E0,-1.533339E0,8.544946E0,-2.1404451E-1,5.4531876E1,1.2660328E1,2.0477133E-2,3.7924412E-1,2.0433481E1,-5.897912E-2,2.3251867E-2,-1.5583645E-1,-6.1693344E-2,-1.036827E-1,8.791828E-2,-9.435899E-2,-3.121132E-2,9.7776E-2,-6.739145E-2,-9.816059E-3,2.4511315E-2,1.03301205E-1,-4.2863578E-2,-1.9361378E-3,1.4433356E-1,7.2960556E-2,1.7268645E-2,-5.5247888E-2,5.372209E-2,1.019008E0,7.745172E-2,1.587814E-1,2.1775445E-1,3.91842E-2],"categories":[],"categories_nodes":[],"categories_segments":[],"categories_sizes":[],"default_left":[0,0,0,0,0,0,0,0,0,0,0,0,0,0,0,0,0,0,0,0,0,0,0,0,0,0,0,0,0,0,0,0,0,0,0,0,0,0,0,0,0,0,0,0,0,0,0,0,0,0,0,0,0,0,0],"id":5,"left_children":[1,3,5,7,9,11,13,15,17,19,21,23,25,27,29,31,-1,33,35,37,39,41,43,45,47,49,51,-1,-1,53,-1,-1,-1,-1,-1,-1,-1,-1,-1,-1,-1,-1,-1,-1,-1,-1,-1,-1,-1,-1,-1,-1,-1,-1,-1],"loss_changes":[6.960275E4,6.9916543E3,9.016961E3,7.456836E2,2.1292827E3,4.150912E3,2.1883066E3,5.859883E2,5.139424E2,6.939297E2,9.3888947E2,1.799502E3,9.549334E3,1.0597207E3,9.418203E2,3.8908105E2,0E0,1.9356055E2,6.6438153E2,4.7606842E2,8.5669434E2,2.5239587E2,5.8560803E2,9.463115E2,3.08463E2,1.3424412E4,1.1581221E3,0E0,0E0,7.346924E2,0E0,0E0,0E0,0E0,0E0,0E0,0E0,0E0,0E0,0E0,0E0,0E0,0E0,0E0,0E0,0E0,0E0,0E0,0E0,0E0,0E0,0E0,0E0,0E0,0E0],"parents":[2147483647,0,0,1,1,2,2,3,3,4,4,5,5,6,6,7,7,8,8,9,9,10,10,11,11,12,12,13,13,14,14,15,15,17,17,18,18,19,19,20,20,21,21,22,22,23,23,24,24,25,25,26,26,29,29],"right_children":[2,4,6,8,10,12,14,16,18,20,22,24,26,28,30,32,-1,34,36,38,40,42,44,46,48,50,52,-1,-1,54,-1,-1,-1,-1,-1,-1,-1,-1,-1,-1,-1,-1,-1,-1,-1,-1,-1,-1,-1,-1,-1,-1,-1,-1,-1],"split_conditions":[3.1E1,1.5E1,5.5E1,9E0,2.4E1,1.68E1,2.95E1,3.11E1,5E1,3.17E1,2.41E1,1.31E1,1.75E1,5.7E0,8E1,4E0,5.2499037E-2,1E0,5.3E1,5.4E1,1.89E1,2.8E1,2.1E1,2.5E0,1.62E1,3.2E1,2.05E1,2.0477133E-2,3.7924412E-1,5.9E1,-5.897912E-2,2.3251867E-2,-1.5583645E-1,-6.1693344E-2,-1.036827E-1,8.791828E-2,-9.435899E-2,-3.121132E-2,9.7776E-2,-6.739145E-2,-9.816059E-3,2.4511315E-2,1.03301205E-1,-4.2863578E-2,-1.9361378E-3,1.4433356E-1,7.2960556E-2,1.7268645E-2,-5.5247888E-2,5.372209E-2,1.019008E0,7.745172E-2,1.587814E-1,2.1775445E-1,3.91842E-2],"split_indices":[0,0,0,0,0,6,4,3,2,4,4,6,6,6,2,2,0,6,2,2,6,0,2,6,6,2,6,0,0,4,0,0,0,0,0,0,0,0,0,0,0,0,0,0,0,0,0,0,0,0,0,0,0,0,0],"split_type":[0,0,0,0,0,0,0,0,0,0,0,0,0,0,0,0,0,0,0,0,0,0,0,0,0,0,0,0,0,0,0,0,0,0,0,0,0,0,0,0,0,0,0,0,0,0,0,0,0,0,0,0,0,0,0],"sum_hessian":[9.99E2,6.93E2,3.06E2,1.9E2,5.03E2,2.55E2,5.1E1,4.3E1,1.47E2,3.28E2,1.75E2,1.7E2,8.5E1,1.4E1,3.7E1,4.2E1,1E0,1.41E2,6E0,9.4E1,2.34E2,1.7E1,1.58E2,1.42E2,2.8E1,5E0,8E1,1E0,1.3E1,3.6E1,1E0,1E0,4.1E1,1.8E1,1.23E2,3E0,3E0,9.2E1,2E0,2.04E2,3E1,1E1,7E0,5.1E1,1.07E2,2.3E1,1.19E2,2.1E1,7E0,3E0,2E0,3.3E1,4.7E1,3.3E1,3E0],"tree_param":{"num_deleted":"0","num_feature":"7","num_nodes":"55","size_leaf_vector":"1"}},{"base_weights":[-3.5725516E-1,-4.2707386E0,6.118344E0,-7.8208227E0,-2.1921377E0,-3.394461E0,7.866486E0,-1.14486885E1,-6.127313E0,-6.2573034E-1,-4.716823E0,-7.110504E0,9.323289E0,1.2258993E1,2.718734E0,-8.325336E0,-1.5190316E1,-2.9503706E0,-1.0013391E1,-4.9979205E0,3.0116463E0,-5.249223E0,7.1374044E0,-1.0648665E1,-3.5709753E0,1.4014994E0,1.0526796E1,9.980816E0,2.6781776E1,1.6448038E1,1.6205834E0,3.784704E-4,-8.969628E-2,-1.0162476E-1,-1.6715884E-1,-1.6642552E-2,-8.794638E-2,1.2815225E-1,-1.0515416E-1,-6.286578E-2,1.3086656E-2,6.59954E-2,7.8126835E-3,-6.024853E-2,1.9779783E-2,1.7725708E-1,-5.2352488E-2,-1.1317921E-1,2.0374745E-2,1.3200835E-3,-8.295864E-2,1.9598084E-2,1.4244079E-3,1.1050207E-1,2.3846349E-2,8.913893E-2,2.5942582E-1,1.2975626E-2,2.788117E-1,-9.184284E-3,1.8276528E-1,3.970648E-2,-5.822872E-2],"categories":[],"categories_nodes":[],"categories_segments":[],"categories_sizes":[],"default_left":[0,0,0,0,0,0,0,0,0,0,0,0,0,0,0,0,0,0,0,0,0,0,0,0,0,0,0,0,0,0,0,0,0,0,0,0,0,0,0,0,0,0,0,0,0,0,0,0,0,0,0,0,0,0,0,0,0,0,0,0,0,0,0],"id":6,"left_children":[1,3,5,7,9,11,13,15,17,19,21,23,25,27,29,31,33,35,37,39,41,43,45,47,49,51,53,55,57,59,61,-1,-1,-1,-1,-1,-1,-1,-1,-1,-1,-1,-1,-1,-1,-1,-1,-1,-1,-1,-1,-1,-1,-1,-1,-1,-1,-1,-1,-1,-1,-1,-1],"loss_changes":[2.5697727E4,4.6465156E3,6.3792617E3,1.3613613E3,1.5789229E3,2.901876E3,7.2701953E3,7.2664453E2,1.9581382E3,3.9590708E3,1.00307764E3,5.5057495E2,1.1872168E2,5.4895703E3,2.234871E3,2.2664917E2,7.557568E1,6.6183966E2,9.599175E2,9.2658154E2,1.0831649E3,8.3594556E2,1.0098363E3,2.1833594E2,4.3849988E2,1.8296747E0,2.4789673E1,2.3573037E3,6.082168E2,3.6608423E2,2.472085E3,0E0,0E0,0E0,0E0,0E0,0E0,0E0,0E0,0E0,0E0,0E0,0E0,0E0,0E0,0E0,0E0,0E0,0E0,0E0,0E0,0E0,0E0,0E0,0E0,0E0,0E0,0E0,0E0,0E0,0E0,0E0,0E0],"parents":[2147483647,0,0,1,1,2,2,3,3,4,4,5,5,6,6,7,7,8,8,9,9,10,10,11,11,12,12,13,13,14,14,15,15,16,16,17,17,18,18,19,19,20,20,21,21,22,22,23,23,24,24,25,25,26,26,27,27,28,28,29,29,30,30],"right_children":[2,4,6,8,10,12,14,16,18,20,22,24,26,28,30,32,34,36,38,40,42,44,46,48,50,52,54,56,58,60,62,-1,-1,-1,-1,-1,-1,-1,-1,-1,-1,-1,-1,-1,-1,-1,-1,-1,-1,-1,-1,-1,-1,-1,-1,-1,-1,-1,-1,-1,-1,-1,-1],"split_conditions":[2.8E1,1.6E1,9.1E1,9.4E1,2.32E2,1.72E1,2.19E2,1.84E1,2.36E2,1.55E2,3.53E2,4.5E1,3.4E1,5.5E1,1.22E1,9.8E0,1.1E0,2.74E1,5E-1,2E1,8E0,1.95E1,2E1,6.6E1,4.1E1,3.3E1,2.63E1,2.63E1,9.1E0,8E0,2.8E2,3.784704E-4,-8.969628E-2,-1.0162476E-1,-1.6715884E-1,-1.6642552E-2,-8.794638E-2,1.2815225E-1,-1.0515416E-1,-6.286578E-2,1.3086656E-2,6.59954E-2,7.8126835E-3,-6.024853E-2,1.9779783E-2,1.7725708E-1,-5.2352488E-2,-1.1317921E-1,2.0374745E-2,1.3200835E-3,-8.295864E-2,1.9598084E-2,1.4244079E-3,1.1050207E-1,2.3846349E-2,8.913893E-2,2.5942582E-1,1.2975626E-2,2.788117E-1,-9.184284E-3,1.8276528E-1,3.970648E-2,-5.822872E-2],"split_indices":[1,1,5,5,5,6,5,3,5,5,5,5,5,1,3,3,6,3,6,6,6,6,2,1,2,1,6,6,3,3,5,0,0,0,0,0,0,0,0,0,0,0,0,0,0,0,0,0,0,0,0,0,0,0,0,0,0,0,0,0,0,0,0],"split_type":[0,0,0,0,0,0,0,0,0,0,0,0,0,0,0,0,0,0,0,0,0,0,0,0,0,0,0,0,0,0,0,0,0,0,0,0,0,0,0,0,0,0,0,0,0,0,0,0,0,0,0,0,0,0,0,0,0,0,0,0,0,0,0],"sum_hessian":[1.012E3,6.31E2,3.81E2,2.32E2,3.99E2,5.9E1,3.22E2,7.2E1,1.6E2,2.47E2,1.52E2,4.6E1,1.3E1,1.73E2,1.49E2,4.1E1,3.1E1,8.9E1,7.1E1,1.12E2,1.35E2,1.46E2,6E0,2.2E1,2.4E1,2E0,1.1E1,1.51E2,2.2E1,1E1,1.39E2,3E0,3.8E1,9E0,2.2E1,7.4E1,1.5E1,1E0,7E1,9.3E1,1.9E1,5.1E1,8.4E1,1.32E2,1.4E1,3E0,3E0,2.1E1,1E0,1.4E1,1E1,1E0,1E0,1E1,1E0,1.43E2,8E0,1E0,2.1E1,1E0,9E0,1.06E2,3.3E1],"tree_param":{"num_deleted":"0","num_feature":"7","num_nodes":"63","size_leaf_vector":"1"}},{"base_weights":[5.77488E-1,-4.9222503E0,1.1104782E1,-1.0123434E1,-2.9198346E0,7.3897114E0,2.5023785E1,-1.1106979E1,-4.619216E0,-4.5483737E0,3.2480234E-1,8.024428E0,-4.744374E0,2.925197E1,1.3563723E1,-1.3873048E1,-9.20299E0,-1.268412E0,-9.260488E0,-1.1610814E1,-3.8949995E0,1.8386523E0,-6.7694526E0,1.0222128E1,5.1972747E0,-1.1865669E-1,5.303097E-1,7.327983E0,3.0961927E1,1.8616087E1,7.278292E0,-7.0086285E-4,-1.4857721E-1,-7.6384306E-2,-1.0771739E-1,-7.2150975E-2,2.306189E-2,-1.08284146E-1,-9.472332E-3,-5.2862156E-2,-1.2520458E-1,-4.7258582E-2,-6.589726E-3,9.140215E-3,6.1406564E-2,-3.1725477E-2,-1.0675684E-1,8.398454E-2,1.4007053E-1,-1.9336857E-2,6.2972546E-2,-6.402482E-2,2.1972189E-2,-4.8655536E-2,1.1592755E-1,1.7265686E-1,3.4196976E-1,9.354506E-3,2.5129393E-1,1.0389879E-1,-7.644548E-3],"categories":[],"categories_nodes":[],"categories_segments":[],"categories_sizes":[],"default_left":[0,0,0,0,0,0,0,0,0,0,0,0,0,0,0,0,0,0,0,0,0,0,0,0,0,0,0,0,0,0,0,0,0,0,0,0,0,0,0,0,0,0,0,0,0,0,0,0,0,0,0,0,0,0,0,0,0,0,0,0,0],"id":7,"left_children":[1,3,5,7,9,11,13,15,17,19,21,23,25,27,29,31,33,35,37,39,41,43,45,47,49,-1,51,53,55,57,59,-1,-1,-1,-1,-1,-1,-1,-1,-1,-1,-1,-1,-1,-1,-1,-1,-1,-1,-1,-1,-1,-1,-1,-1,-1,-1,-1,-1,-1,-1],"loss_changes":[5.719936E4,6.7297344E3,1.7344797E4,9.231504E2,2.4849658E3,2.109829E3,3.0435586E3,6.7284375E2,4.3926166E2,1.3990889E3,1.7093093E3,1.5374609E3,5.321686E2,1.6850469E3,5.313887E2,8.1444434E2,1.4597998E2,3.9926596E2,1.4615784E2,8.339551E1,7.712261E2,5.154746E2,3.5954065E2,8.6941504E2,9.0638354E2,0E0,1.1807466E2,3.1641852E2,1.4920469E3,1.2432466E3,2.8322534E2,0E0,0E0,0E0,0E0,0E0,0E0,0E0,0E0,0E0,0E0,0E0,0E0,0E0,0E0,0E0,0E0,0E0,0E0,0E0,0E0,0E0,0E0,0E0,0E0,0E0,0E0,0E0,0E0,0E0,0E0],"parents":[2147483647,0,0,1,1,2,2,3,3,4,4,5,5,6,6,7,7,8,8,9,9,10,10,11,11,12,12,13,13,14,14,15,15,16,16,17,17,18,18,19,19,20,20,21,21,22,22,23,23,24,24,26,26,27,27,28,28,29,29,30,30],"right_children":[2,4,6,8,10,12,14,16,18,20,22,24,26,28,30,32,34,36,38,40,42,44,46,48,50,-1,52,54,56,58,60,-1,-1,-1,-1,-1,-1,-1,-1,-1,-1,-1,-1,-1,-1,-1,-1,-1,-1,-1,-1,-1,-1,-1,-1,-1,-1,-1,-1,-1,-1],"split_conditions":[3E1,1.5E1,5.2E1,3.1E1,2.4E1,5.7E1,2.13E2,1.1E1,1.3E1,4.2E1,2.77E2,1.91E1,4E1,7.7E1,2.67E1,1.15E1,1.6E1,1.8E1,2.96E1,1.14E1,3.1E1,4E1,1.81E1,4.1E1,1.58E2,-1.1865669E-1,5.9E1,5.3E1,2.2E1,1.75E1,6E1,-7.0086285E-4,-1.4857721E-1,-7.6384306E-2,-1.0771739E-1,-7.2150975E-2,2.306189E-2,-1.08284146E-1,-9.472332E-3,-5.2862156E-2,-1.2520458E-1,-4.7258582E-2,-6.589726E-3,9.140215E-3,6.1406564E-2,-3.1725477E-2,-1.0675684E-1,8.398454E-2,1.4007053E-1,-1.9336857E-2,6.2972546E-2,-6.402482E-2,2.1972189E-2,-4.8655536E-2,1.1592755E-1,1.7265686E-1,3.4196976E-1,9.354506E-3,2.5129393E-1,1.0389879E-1,-7.644548E-3],"split_indices":[0,0,0,2,0,1,5,0,0,5,5,3,0,5,3,3,1,1,3,3,2,2,3,0,5,0,1,0,2,3,0,0,0,0,0,0,0,0,0,0,0,0,0,0,0,0,0,0,0,0,0,0,0,0,0,0,0,0,0,0,0],"split_type":[0,0,0,0,0,0,0,0,0,0,0,0,0,0,0,0,0,0,0,0,0,0,0,0,0,0,0,0,0,0,0,0,0,0,0,0,0,0,0,0,0,0,0,0,0,0,0,0,0,0,0,0,0,0,0,0,0,0,0,0,0],"sum_hessian":[9.86E2,6.48E2,3.38E2,1.79E2,4.69E2,2.68E2,7E1,1.51E2,2.8E1,3.12E2,1.57E2,2.55E2,1.3E1,5E1,2E1,5.9E1,9.2E1,1.7E1,1.1E1,2.5E1,2.87E2,1.3E2,2.7E1,1.42E2,1.13E2,5E0,8E0,4E0,4.6E1,1E1,1E1,4E0,5.5E1,4.9E1,4.3E1,6E0,1.1E1,9E0,2E0,4E0,2.1E1,2.28E2,5.9E1,1.08E2,2.2E1,1.5E1,1.2E1,9.8E1,4.4E1,1.5E1,9.8E1,1E0,7E0,1E0,3E0,1E1,3.6E1,3E0,7E0,7E0,3E0],"tree_param":{"num_deleted":"0","num_feature":"7","num_nodes":"61","size_leaf_vector":"1"}},{"base_weights":[-3.6212662E-1,-4.364684E0,6.368443E0,-8.562975E0,-3.1357815E0,-2.5960903E0,7.9045086E0,-4.768248E0,-1.2513084E1,-5.3807753E-1,-6.0688906E0,-4.9989643E0,8.476451E0,1.2233461E1,2.9917078E0,-5.338879E0,1.01358905E-1,-1.3896073E1,-6.7923174E0,-3.2976296E0,9.0275544E-1,1.0652709E0,-7.540044E0,-6.3730288E0,7.268158E0,1.11801535E-1,-1.5589052E0,9.860159E0,2.1789368E1,4.9522443E0,-2.3765333E0,-1.8470496E-2,-8.403294E-2,-1.0154608E-1,-1.5530124E-1,-8.1108496E-2,1.1854261E-2,1.4536268E-2,-5.0278254E-2,4.6327803E-2,-1.287474E-2,1.2230683E-1,-9.364274E-3,-9.843537E-2,-4.773888E-2,2.2946429E-2,-8.882519E-2,1.15058094E-1,-4.8412256E-2,-2.7755518E-2,4.3719388E-3,1.0813573E-1,-4.5832057E-2,1.1760272E-1,2.4642387E-1,3.957842E-2,2.4645364E-1,5.909132E-2,-5.3353928E-2],"categories":[],"categories_nodes":[],"categories_segments":[],"categories_sizes":[],"default_left":[0,0,0,0,0,0,0,0,0,0,0,0,0,0,0,0,0,0,0,0,0,0,0,0,0,0,0,0,0,0,0,0,0,0,0,0,0,0,0,0,0,0,0,0,0,0,0,0,0,0,0,0,0,0,0,0,0,0,0],"id":8,"left_children":[1,3,5,7,9,11,13,15,17,19,21,23,25,27,29,31,-1,33,35,37,39,41,43,45,47,-1,49,51,53,55,57,-1,-1,-1,-1,-1,-1,-1,-1,-1,-1,-1,-1,-1,-1,-1,-1,-1,-1,-1,-1,-1,-1,-1,-1,-1,-1,-1,-1],"loss_changes":[2.6293803E4,3.1306348E3,5.032841E3,2.0088975E3,3.6159243E3,1.4790931E3,6.5775254E3,6.664574E2,4.3570117E2,1.0089185E3,2.3485166E3,8.0483203E2,2.8875494E2,3.5271973E3,1.5588904E3,7.3350745E2,0E0,1.6632617E2,1.673985E2,7.2250116E2,1.3702896E3,8.8309485E2,1.1317949E3,9.1219116E2,3.1227902E2,0E0,8.499094E0,1.8948086E3,6.258203E2,2.0174089E3,1.01217224E3,0E0,0E0,0E0,0E0,0E0,0E0,0E0,0E0,0E0,0E0,0E0,0E0,0E0,0E0,0E0,0E0,0E0,0E0,0E0,0E0,0E0,0E0,0E0,0E0,0E0,0E0,0E0,0E0],"parents":[2147483647,0,0,1,1,2,2,3,3,4,4,5,5,6,6,7,7,8,8,9,9,10,10,11,11,12,12,13,13,14,14,15,15,17,17,18,18,19,19,20,20,21,21,22,22,23,23,24,24,26,26,27,27,28,28,29,29,30,30],"right_children":[2,4,6,8,10,12,14,16,18,20,22,24,26,28,30,32,-1,34,36,38,40,42,44,46,48,-1,50,52,54,56,58,-1,-1,-1,-1,-1,-1,-1,-1,-1,-1,-1,-1,-1,-1,-1,-1,-1,-1,-1,-1,-1,-1,-1,-1,-1,-1,-1,-1],"split_conditions":[2.8E1,9.9E1,8.4E1,1.71E1,2.32E2,1.71E1,2.21E2,2.51E1,1.38E1,1.71E2,2.99E1,6.5E1,1.68E1,5.1E1,2.8E2,4.4E0,1.01358905E-1,1.1E0,6.9E1,3.02E1,1.94E2,1.87E1,2E1,2.45E1,6.4E1,1.11801535E-1,3.9E1,5.69E1,5.9E0,6.6E1,1.35E1,-1.8470496E-2,-8.403294E-2,-1.0154608E-1,-1.5530124E-1,-8.1108496E-2,1.1854261E-2,1.4536268E-2,-5.0278254E-2,4.6327803E-2,-1.287474E-2,1.2230683E-1,-9.364274E-3,-9.843537E-2,-4.773888E-2,2.2946429E-2,-8.882519E-2,1.15058094E-1,-4.8412256E-2,-2.7755518E-2,4.3719388E-3,1.0813573E-1,-4.5832057E-2,1.1760272E-1,2.4642387E-1,3.957842E-2,2.4645364E-1,5.909132E-2,-5.3353928E-2],"split_indices":[1,5,5,3,5,6,5,6,6,5,4,1,3,1,5,6,0,6,5,4,5,4,1,4,5,0,1,4,6,1,3,0,0,0,0,0,0,0,0,0,0,0,0,0,0,0,0,0,0,0,0,0,0,0,0,0,0,0,0],"split_type":[0,0,0,0,0,0,0,0,0,0,0,0,0,0,0,0,0,0,0,0,0,0,0,0,0,0,0,0,0,0,0,0,0,0,0,0,0,0,0,0,0,0,0,0,0,0,0,0,0,0,0,0,0,0,0,0,0,0,0],"sum_hessian":[9.74E2,6.11E2,3.63E2,1.37E2,4.74E2,5.3E1,3.1E2,7.1E1,6.6E1,2.52E2,2.22E2,4.4E1,9E0,1.64E2,1.46E2,6.9E1,2E0,5.2E1,1.4E1,8.6E1,1.66E2,3.8E1,1.84E2,4E1,4E0,7E0,2E0,1.33E2,3.1E1,1.07E2,3.9E1,3.3E1,3.6E1,1.8E1,3.4E1,1.2E1,2E0,2.3E1,6.3E1,6.1E1,1.05E2,5E0,3.3E1,9.9E1,8.5E1,9E0,3.1E1,3E0,1E0,1E0,1E0,1.25E2,8E0,8E0,2.3E1,1.03E2,4E0,1E1,2.9E1],"tree_param":{"num_deleted":"0","num_feature":"7","num_nodes":"59","size_leaf_vector":"1"}},{"base_weights":[5.2429706E-1,-3.3990822E0,6.2746305E0,-4.650268E0,1.8350459E0,-2.8370535E0,7.841931E0,-7.6453333E0,-2.4227283E0,6.856044E1,-6.0801435E-1,-6.596179E0,8.629459E0,1.0555358E1,2.6031601E0,-7.304239E-1,-8.367172E0,1.4507263E0,-3.484283E0,1.3984942E0,-1.8190295E0,-3.9292555E0,2.784668E0,6.0265684E0,-7.6412935E0,1.0831627E1,2.0587993E0,9.298417E0,1.9335432E1,1.4678975E0,2.02333E1,6.312E-2,-5.951373E-2,-1.2306514E-1,-7.304256E-2,-6.718828E-3,8.32139E-2,-9.08336E-2,-2.5167655E-2,-4.070095E-2,1.3415508E-2,-5.0050924E-3,-6.133135E-2,1.2774515E-2,1.03462785E-1,2.6575157E-2,8.066863E-2,-8.65884E-2,4.19011E-2,1.8521165E-2,1.1544367E-1,-6.399822E-3,6.4269625E-2,8.72314E-2,2.9644427E-1,2.34872E-1,4.117925E-2,7.3936163E-3,1.6764985E-1,2.1609063E-1,5.989355E-2],"categories":[],"categories_nodes":[],"categories_segments":[],"categories_sizes":[],"default_left":[0,0,0,0,0,0,0,0,0,0,0,0,0,0,0,0,0,0,0,0,0,0,0,0,0,0,0,0,0,0,0,0,0,0,0,0,0,0,0,0,0,0,0,0,0,0,0,0,0,0,0,0,0,0,0,0,0,0,0,0,0],"id":9,"left_children":[1,3,5,7,9,11,13,15,17,19,21,23,25,27,29,31,33,35,37,-1,39,41,43,45,47,49,51,53,55,57,59,-1,-1,-1,-1,-1,-1,-1,-1,-1,-1,-1,-1,-1,-1,-1,-1,-1,-1,-1,-1,-1,-1,-1,-1,-1,-1,-1,-1,-1,-1],"loss_changes":[2.208573E4,3.8199746E3,5.691701E3,3.1171416E3,1.8462285E4,2.600061E3,4.791418E3,9.921787E2,1.1193749E3,2.0323512E4,1.2504125E3,6.3970056E2,1.9474524E2,2.281246E3,2.3120354E3,7.7292773E2,6.679912E2,8.660313E2,1.1310034E3,0E0,2.680426E1,4.200968E2,6.136173E2,6.057617E0,5.419197E2,4.9019043E1,6.3056732E1,2.0472109E3,1.6091289E3,1.2246418E3,7.749756E0,0E0,0E0,0E0,0E0,0E0,0E0,0E0,0E0,0E0,0E0,0E0,0E0,0E0,0E0,0E0,0E0,0E0,0E0,0E0,0E0,0E0,0E0,0E0,0E0,0E0,0E0,0E0,0E0,0E0,0E0],"parents":[2147483647,0,0,1,1,2,2,3,3,4,4,5,5,6,6,7,7,8,8,9,9,10,10,11,11,12,12,13,13,14,14,15,15,16,16,17,17,18,18,20,20,21,21,22,22,23,23,24,24,25,25,26,26,27,27,28,28,29,29,30,30],"right_children":[2,4,6,8,10,12,14,16,18,20,22,24,26,28,30,32,34,36,38,-1,40,42,44,46,48,50,52,54,56,58,60,-1,-1,-1,-1,-1,-1,-1,-1,-1,-1,-1,-1,-1,-1,-1,-1,-1,-1,-1,-1,-1,-1,-1,-1,-1,-1,-1,-1,-1,-1],"split_conditions":[2.8E1,1.74E1,8.9E1,1.7E1,1.75E1,1.71E1,2.38E2,2.45E1,1.46E1,1.3E1,1.96E1,9.4E0,1.76E1,5.5E1,7.56E1,1.6E0,8.3E1,1.38E1,1.19E2,1.3984942E0,2.1E1,1.63E1,2.47E1,4.1E1,6.6E1,3E0,2.03E1,2.68E1,2.18E2,2.23E1,2.76E2,6.312E-2,-5.951373E-2,-1.2306514E-1,-7.304256E-2,-6.718828E-3,8.32139E-2,-9.08336E-2,-2.5167655E-2,-4.070095E-2,1.3415508E-2,-5.0050924E-3,-6.133135E-2,1.2774515E-2,1.03462785E-1,2.6575157E-2,8.066863E-2,-8.65884E-2,4.19011E-2,1.8521165E-2,1.1544367E-1,-6.399822E-3,6.4269625E-2,8.72314E-2,2.9644427E-1,2.34872E-1,4.117925E-2,7.3936163E-3,1.6764985E-1,2.1609063E-1,5.989355E-2],"split_indices":[1,6,5,1,6,6,5,4,3,1,6,3,3,1,4,6,5,3,5,0,1,3,6,1,1,5,3,6,5,6,5,0,0,0,0,0,0,0,0,0,0,0,0,0,0,0,0,0,0,0,0,0,0,0,0,0,0,0,0,0,0],"split_type":[0,0,0,0,0,0,0,0,0,0,0,0,0,0,0,0,0,0,0,0,0,0,0,0,0,0,0,0,0,0,0,0,0,0,0,0,0,0,0,0,0,0,0,0,0,0,0,0,0,0,0,0,0,0,0,0,0,0,0,0,0],"sum_hessian":[9.77E2,5.81E2,3.96E2,4.69E2,1.12E2,5.8E1,3.38E2,1.99E2,2.7E2,3E0,1.09E2,4.4E1,1.4E1,2.22E2,1.16E2,1.9E1,1.8E2,5.8E1,2.12E2,1E0,2E0,5.5E1,5.4E1,3E0,4.1E1,1E1,4E0,1.96E2,2.6E1,1.1E2,6E0,8E0,1.1E1,3.6E1,1.44E2,4.5E1,1.3E1,3E1,1.82E2,1E0,1E0,2.2E1,3.3E1,4.6E1,8E0,2E0,1E0,3.8E1,3E0,1E0,9E0,3E0,1E0,1.92E2,4E0,2E1,6E0,1.06E2,4E0,5E0,1E0],"tree_param":{"num_deleted":"0","num_feature":"7","num_nodes":"61","size_leaf_vector":"1"}},{"base_weights":[-5.165413E-1,-6.020594E0,9.442405E0,-9.87492E0,-4.186559E0,6.9404244E0,2.1962057E1,-1.3958218E1,-8.697653E0,-5.2945223E0,-8.547548E-1,6.376728E0,2.4082281E1,2.3595692E1,-7.359962E-2,2.4305314E-2,-1.4395876E1,-3.403263E0,-9.218287E0,-5.8768325E0,-6.188516E-1,2.0835398E-1,-7.5307937E0,1.454905E1,5.640591E0,9.7997E-2,2.676306E-1,1.796617E1,2.9407288E1,2.8789873E0,-5.9419736E-2,-1.4639778E-1,-2.0759705E-2,4.7382478E-2,-4.2619135E-2,-9.6611716E-2,-3.4676373E-2,-1.827396E-2,-6.503742E-2,-2.2385892E-2,3.978299E-2,-3.148387E-3,1.2189697E-1,-9.7351186E-2,-2.6017858E-2,5.4488678E-2,2.0009962E-1,5.699133E-3,6.7935824E-2,2.026139E-1,9.121641E-2,1.8908443E-2,3.047502E-1,5.031513E-2,4.843076E-3],"categories":[],"categories_nodes":[],"categories_segments":[],"categories_sizes":[],"default_left":[0,0,0,0,0,0,0,0,0,0,0,0,0,0,0,0,0,0,0,0,0,0,0,0,0,0,0,0,0,0,0,0,0,0,0,0,0,0,0,0,0,0,0,0,0,0,0,0,0,0,0,0,0,0,0],"id":10,"left_children":[1,3,5,7,9,11,13,15,17,19,21,23,25,27,29,-1,31,33,35,37,39,41,43,45,47,-1,-1,49,51,53,-1,-1,-1,-1,-1,-1,-1,-1,-1,-1,-1,-1,-1,-1,-1,-1,-1,-1,-1,-1,-1,-1,-1,-1,-1],"loss_changes":[5.4049195E4,4.447455E3,1.084227E4,8.5925E2,1.5902095E3,2.6872969E3,2.0896348E3,3.505879E2,4.1241406E2,8.785137E2,7.751808E2,1.6384951E3,8.232666E1,1.2383535E3,1.0374129E2,0E0,9.881641E1,1.3204541E2,3.3834277E2,7.192412E2,2.8441437E2,5.993502E2,1.3764838E2,1.0339604E3,1.5395928E3,0E0,0E0,4.2418652E2,6.7688086E2,1.8181644E1,0E0,0E0,0E0,0E0,0E0,0E0,0E0,0E0,0E0,0E0,0E0,0E0,0E0,0E0,0E0,0E0,0E0,0E0,0E0,0E0,0E0,0E0,0E0,0E0,0E0],"parents":[2147483647,0,0,1,1,2,2,3,3,4,4,5,5,6,6,7,7,8,8,9,9,10,10,11,11,12,12,13,13,14,14,16,16,17,17,18,18,19,19,20,20,21,21,22,22,23,23,24,24,27,27,28,28,29,29],"right_children":[2,4,6,8,10,12,14,16,18,20,22,24,26,28,30,-1,32,34,36,38,40,42,44,46,48,-1,-1,50,52,54,-1,-1,-1,-1,-1,-1,-1,-1,-1,-1,-1,-1,-1,-1,-1,-1,-1,-1,-1,-1,-1,-1,-1,-1,-1],"split_conditions":[2.8E1,1.5E1,5.2E1,9E0,2.4E1,2.63E1,2.74E2,1.84E1,2.52E1,1.98E1,2.75E2,2.2E1,2.5E1,6E1,6.1E1,2.4305314E-2,3.49E2,1.4E1,3E1,2.74E1,4.57E1,5.2E1,1E1,3.6E1,1.13E2,9.7997E-2,2.676306E-1,4.75E1,3E1,5.7E1,-5.9419736E-2,-1.4639778E-1,-2.0759705E-2,4.7382478E-2,-4.2619135E-2,-9.6611716E-2,-3.4676373E-2,-1.827396E-2,-6.503742E-2,-2.2385892E-2,3.978299E-2,-3.148387E-3,1.2189697E-1,-9.7351186E-2,-2.6017858E-2,5.4488678E-2,2.0009962E-1,5.699133E-3,6.7935824E-2,2.026139E-1,9.121641E-2,1.8908443E-2,3.047502E-1,5.031513E-2,4.843076E-3],"split_indices":[0,0,0,0,0,6,5,4,4,6,5,4,1,0,0,0,5,4,1,4,4,1,6,0,5,0,0,4,5,0,0,0,0,0,0,0,0,0,0,0,0,0,0,0,0,0,0,0,0,0,0,0,0,0,0],"split_type":[0,0,0,0,0,0,0,0,0,0,0,0,0,0,0,0,0,0,0,0,0,0,0,0,0,0,0,0,0,0,0,0,0,0,0,0,0,0,0,0,0,0,0,0,0,0,0,0,0,0,0,0,0,0,0],"sum_hessian":[9.84E2,6.34E2,3.5E2,2.03E2,4.31E2,2.93E2,5.7E1,4.3E1,1.6E2,3.23E2,1.08E2,2.85E2,8E0,5.3E1,4E0,1E0,4.2E1,1.5E1,1.45E2,2.87E2,3.6E1,9.4E1,1.4E1,2.2E1,2.63E2,2E0,6E0,2.9E1,2.4E1,3E0,1E0,4.1E1,1E0,1E0,1.4E1,1.34E2,1.1E1,3.9E1,2.48E2,2.7E1,9E0,9.1E1,3E0,9E0,5E0,9E0,1.3E1,4.9E1,2.14E2,2.2E1,7E0,1E0,2.3E1,1E0,2E0],"tree_param":{"num_deleted":"0","num_feature":"7","num_nodes":"55","size_leaf_vector":"1"}},{"base_weights":[-1.5812068E-1,-5.353678E0,1.1003194E1,-1.015504E1,-3.2863863E0,8.029238E0,2.2959436E1,-1.2981196E1,-9.009829E0,-4.8647847E0,-9.100741E-1,6.868027E0,1.4463101E1,3.3732586E1,1.6913652E1,-1.4740317E1,-6.399651E0,-3.6662729E0,-9.400701E0,-6.023674E0,-2.793971E0,-4.3320578E-1,-8.89075E0,7.458974E0,-1.8237021E0,1.57654085E1,-8.734422E-1,2.5771877E1,4.2367843E-1,1.8157217E1,-5.71962E-2,-1.5318832E-1,5.357164E-2,1.1450067E-1,-8.6534806E-2,-6.9706673E-3,-6.5193005E-2,-9.5654674E-2,-1.3660326E-2,2.3662081E-2,-6.267166E-2,-3.2367457E-2,9.416664E-2,-1.1205458E-2,4.038086E-2,-9.795142E-2,-3.2139894E-2,5.775959E-2,1.0515331E-1,-9.1007754E-2,2.724912E-2,1.4099982E-1,3.7027663E-1,6.66809E-2,-5.609983E-2,1.1091423E-1,2.7294335E-1,7.950417E-2,2.039067E-1],"categories":[],"categories_nodes":[],"categories_segments":[],"categories_sizes":[],"default_left":[0,0,0,0,0,0,0,0,0,0,0,0,0,0,0,0,0,0,0,0,0,0,0,0,0,0,0,0,0,0,0,0,0,0,0,0,0,0,0,0,0,0,0,0,0,0,0,0,0,0,0,0,0,0,0,0,0,0,0],"id":11,"left_children":[1,3,5,7,9,11,13,15,17,19,21,23,25,27,29,31,33,35,37,39,41,43,45,47,49,51,53,55,-1,57,-1,-1,-1,-1,-1,-1,-1,-1,-1,-1,-1,-1,-1,-1,-1,-1,-1,-1,-1,-1,-1,-1,-1,-1,-1,-1,-1,-1,-1],"loss_changes":[5.9149957E4,6.874996E3,1.1336234E4,5.5948047E2,1.8259473E3,1.8506152E3,3.597914E3,5.771748E2,2.830078E2,6.863247E2,7.420719E2,1.1590098E3,7.927129E2,4.204414E2,1.3141279E3,6.052666E2,6.6230615E2,9.711035E1,1.7359668E2,3.9684668E2,6.0898126E2,5.761583E2,2.4992737E1,1.0143379E3,5.2130774E2,7.5269727E2,1.8029095E2,1.0171875E1,0E0,7.7253906E2,0E0,0E0,0E0,0E0,0E0,0E0,0E0,0E0,0E0,0E0,0E0,0E0,0E0,0E0,0E0,0E0,0E0,0E0,0E0,0E0,0E0,0E0,0E0,0E0,0E0,0E0,0E0,0E0,0E0],"parents":[2147483647,0,0,1,1,2,2,3,3,4,4,5,5,6,6,7,7,8,8,9,9,10,10,11,11,12,12,13,13,14,14,15,15,16,16,17,17,18,18,19,19,20,20,21,21,22,22,23,23,24,24,25,25,26,26,27,27,29,29],"right_children":[2,4,6,8,10,12,14,16,18,20,22,24,26,28,30,32,34,36,38,40,42,44,46,48,50,52,54,56,-1,58,-1,-1,-1,-1,-1,-1,-1,-1,-1,-1,-1,-1,-1,-1,-1,-1,-1,-1,-1,-1,-1,-1,-1,-1,-1,-1,-1,-1,-1],"split_conditions":[3E1,1.5E1,5.2E1,9E0,2.3E1,2.19E1,1.64E1,2.1E1,1.19E1,2.5E1,3.49E1,5.7E1,1.79E1,6.7E1,8.1E1,4.59E1,1.06E1,3.9E0,3.76E1,9E0,4.7E1,3.9E1,1.57E1,4.1E1,4E1,1.78E1,3.1E1,1.2E1,4.2367843E-1,2.1E1,-5.71962E-2,-1.5318832E-1,5.357164E-2,1.1450067E-1,-8.6534806E-2,-6.9706673E-3,-6.5193005E-2,-9.5654674E-2,-1.3660326E-2,2.3662081E-2,-6.267166E-2,-3.2367457E-2,9.416664E-2,-1.1205458E-2,4.038086E-2,-9.795142E-2,-3.2139894E-2,5.775959E-2,1.0515331E-1,-9.1007754E-2,2.724912E-2,1.4099982E-1,3.7027663E-1,6.66809E-2,-5.609983E-2,1.1091423E-1,2.7294335E-1,7.950417E-2,2.039067E-1],"split_indices":[0,0,0,0,0,6,3,2,3,2,3,1,3,0,1,3,3,6,3,1,1,1,6,0,0,3,0,3,0,2,0,0,0,0,0,0,0,0,0,0,0,0,0,0,0,0,0,0,0,0,0,0,0,0,0,0,0,0,0],"split_type":[0,0,0,0,0,0,0,0,0,0,0,0,0,0,0,0,0,0,0,0,0,0,0,0,0,0,0,0,0,0,0,0,0,0,0,0,0,0,0,0,0,0,0,0,0,0,0,0,0,0,0,0,0,0,0,0,0,0,0],"sum_hessian":[1.018E3,6.95E2,3.23E2,2.08E2,4.87E2,2.6E2,6.3E1,5.7E1,1.51E2,2.92E2,1.95E2,2.22E2,3.8E1,2.1E1,4.2E1,4.4E1,1.3E1,1.1E1,1.4E2,1.86E2,1.06E2,1.85E2,1E1,2.08E2,1.4E1,3.5E1,3E0,1.3E1,8E0,4E1,2E0,4.3E1,1E0,1E0,1.2E1,6E0,5E0,1.37E2,3E0,5E0,1.81E2,1.03E2,3E0,1.61E2,2.4E1,8E0,2E0,1.36E2,7.2E1,5E0,9E0,3.4E1,1E0,1E0,2E0,2E0,1.1E1,8E0,3.2E1],"tree_param":{"num_deleted":"0","num_feature":"7","num_nodes":"59","size_leaf_vector":"1"}},{"base_weights":[-2.680683E-1,-5.1565223E0,1.0771768E1,-7.2138195E0,-3.3888716E-2,8.047121E0,2.3337763E1,-1.00657E1,-5.329771E0,1.0646352E0,-5.8000803E0,6.411372E-1,9.646295E0,2.7725845E1,7.3656735E0,-1.1860791E1,-8.241755E0,-5.950997E0,-1.6910528E0,-2.898549E0,2.018462E0,4.6756434E-1,-7.5737233E0,-3.972782E0,6.323078E0,1.3462263E1,6.621722E0,7.88248E0,3.019434E1,4.3251586E0,1.6059005E-1,-4.2237807E-2,-1.2901509E-1,-5.329216E-2,-9.193061E-2,-1.1592595E-2,-6.633402E-2,-2.8856844E-2,5.2063316E-2,5.7303905E-2,-5.4421246E-2,3.585985E-2,-8.378743E-3,-6.418913E-2,5.8832332E-2,-1.1034135E-1,-4.0666755E-2,3.7733726E-3,-9.0793654E-2,8.5283875E-2,6.9411765E-3,1.0274058E-1,5.691616E-1,3.036805E-2,8.286598E-2,-1.6222814E-2,1.3040431E-1,4.0766722E-1,2.534012E-1,1.0538313E-1,6.7793606E-3],"categories":[],"categories_nodes":[],"categories_segments":[],"categories_sizes":[],"default_left":[0,0,0,0,0,0,0,0,0,0,0,0,0,0,0,0,0,0,0,0,0,0,0,0,0,0,0,0,0,0,0,0,0,0,0,0,0,0,0,0,0,0,0,0,0,0,0,0,0,0,0,0,0,0,0,0,0,0,0,0,0],"id":12,"left_children":[1,3,5,7,9,11,13,15,17,19,21,23,25,27,29,31,33,35,37,39,41,43,45,47,49,51,53,55,57,59,-1,-1,-1,-1,-1,-1,-1,-1,-1,-1,-1,-1,-1,-1,-1,-1,-1,-1,-1,-1,-1,-1,-1,-1,-1,-1,-1,-1,-1,-1,-1],"loss_changes":[5.38074E4,7.2820527E3,1.0288996E4,2.5952812E3,1.2667006E3,2.990209E3,3.5804707E3,5.407051E2,6.658154E2,6.409227E2,3.5927136E2,1.231057E3,2.3115234E3,1.819291E3,2.7416095E2,7.085127E2,2.2808057E2,8.2613477E2,3.8581635E2,7.554815E2,6.119273E2,3.3612308E2,2.585232E2,5.809964E2,2.5476593E2,1.2022375E4,6.791113E2,3.1530582E2,8.658281E2,2.4212402E2,0E0,0E0,0E0,0E0,0E0,0E0,0E0,0E0,0E0,0E0,0E0,0E0,0E0,0E0,0E0,0E0,0E0,0E0,0E0,0E0,0E0,0E0,0E0,0E0,0E0,0E0,0E0,0E0,0E0,0E0,0E0],"parents":[2147483647,0,0,1,1,2,2,3,3,4,4,5,5,6,6,7,7,8,8,9,9,10,10,11,11,12,12,13,13,14,14,15,15,16,16,17,17,18,18,19,19,20,20,21,21,22,22,23,23,24,24,25,25,26,26,27,27,28,28,29,29],"right_children":[2,4,6,8,10,12,14,16,18,20,22,24,26,28,30,32,34,36,38,40,42,44,46,48,50,52,54,56,58,60,-1,-1,-1,-1,-1,-1,-1,-1,-1,-1,-1,-1,-1,-1,-1,-1,-1,-1,-1,-1,-1,-1,-1,-1,-1,-1,-1,-1,-1,-1,-1],"split_conditions":[3.1E1,2.3E1,5.3E1,1.5E1,2.77E2,9.9E1,2.23E2,1.2E1,1.86E1,1.04E2,3.13E1,1.03E1,1.95E2,6.7E1,1.52E1,2.52E1,1.3E1,1.31E1,2.26E1,1.17E1,2.29E2,2.5E1,1.25E1,1.51E1,6.7E1,1.9E2,3.6E1,1.83E1,1.52E1,6.7E0,1.6059005E-1,-4.2237807E-2,-1.2901509E-1,-5.329216E-2,-9.193061E-2,-1.1592595E-2,-6.633402E-2,-2.8856844E-2,5.2063316E-2,5.7303905E-2,-5.4421246E-2,3.585985E-2,-8.378743E-3,-6.418913E-2,5.8832332E-2,-1.1034135E-1,-4.0666755E-2,3.7733726E-3,-9.0793654E-2,8.5283875E-2,6.9411765E-3,1.0274058E-1,5.691616E-1,3.036805E-2,8.286598E-2,-1.6222814E-2,1.3040431E-1,4.0766722E-1,2.534012E-1,1.0538313E-1,6.7793606E-3],"split_indices":[0,0,0,0,5,5,5,0,6,5,4,6,5,5,6,4,0,3,3,3,5,0,6,3,5,5,0,3,3,6,0,0,0,0,0,0,0,0,0,0,0,0,0,0,0,0,0,0,0,0,0,0,0,0,0,0,0,0,0,0,0],"split_type":[0,0,0,0,0,0,0,0,0,0,0,0,0,0,0,0,0,0,0,0,0,0,0,0,0,0,0,0,0,0,0,0,0,0,0,0,0,0,0,0,0,0,0,0,0,0,0,0,0,0,0,0,0,0,0,0,0,0,0,0,0],"sum_hessian":[9.95E2,6.9E2,3.05E2,4.92E2,1.98E2,2.52E2,5.3E1,1.94E2,2.98E2,1.67E2,3.1E1,4.5E1,2.07E2,4.1E1,1.2E1,9.5E1,9.9E1,2.54E2,4.4E1,3.2E1,1.35E2,7E0,2.4E1,2.5E1,2E1,9E1,1.17E2,5E0,3.6E1,1E1,2E0,1.2E1,8.3E1,2.6E1,7.3E1,3.2E1,2.22E2,3.8E1,6E0,7E0,2.5E1,8.7E1,4.8E1,3E0,4E0,1.1E1,1.3E1,1.4E1,1.1E1,1.4E1,6E0,8.5E1,5E0,3.8E1,7.9E1,2E0,3E0,9E0,2.7E1,3E0,7E0],"tree_param":{"num_deleted":"0","num_feature":"7","num_nodes":"61","size_leaf_vector":"1"}},{"base_weights":[2.5037858E-1,-2.320386E0,5.7490697E0,-2.8637552E0,1.1373991E1,9.456604E0,2.3845239E0,-7.992424E0,-1.7015297E0,7.907409E0,2.8463343E1,7.561885E0,9.977719E1,5.2071137E0,-9.8223186E-1,6.4585423E0,-9.510031E0,1.9658648E0,-5.321522E0,9.313555E0,-1.1001735E0,4.135272E-2,3.5194275E-1,-1.0398254E0,1.0039244E1,1.3877904E0,1.0886732E-1,-2.9604585E0,8.884137E0,-1.6424035E0,2.4595405E-1,1.4596338E-2,1.3165087E-1,1.234107E-3,-1.0172359E-1,-7.6370398E-3,3.4957044E-2,1.11265935E-1,-5.80529E-2,3.912932E-2,1.13486126E-1,-1.6766815E-2,-3.4911027E-3,-5.6846194E-2,4.540856E-2,1.270067E-1,4.0854085E-2,-5.9787957E-3,-1.4181261E-1,1.8833245E-1,6.651603E-2,-2.6947534E-2,1.3839917E-1],"categories":[],"categories_nodes":[],"categories_segments":[],"categories_sizes":[],"default_left":[0,0,0,0,0,0,0,0,0,0,0,0,0,0,0,0,0,0,0,0,0,0,0,0,0,0,0,0,0,0,0,0,0,0,0,0,0,0,0,0,0,0,0,0,0,0,0,0,0,0,0,0,0],"id":13,"left_children":[1,3,5,7,9,11,13,15,17,19,21,23,25,27,29,31,33,35,37,39,41,-1,-1,43,45,-1,-1,47,49,51,-1,-1,-1,-1,-1,-1,-1,-1,-1,-1,-1,-1,-1,-1,-1,-1,-1,-1,-1,-1,-1,-1,-1],"loss_changes":[1.4021958E4,5.06276E3,3.919288E3,3.8667964E3,1.3152112E3,2.491531E4,1.5921106E3,2.693127E3,7.0732617E3,3.0156396E2,5.0946436E2,3.164248E3,8.88983E3,2.7592456E3,1.3405891E3,3.8308856E2,6.9673047E2,1.1092573E3,2.197088E3,1.7540527E2,1.1466293E0,0E0,0E0,9.07131E2,1.7703672E3,0E0,0E0,7.6031226E2,1.2740674E3,1.2755494E3,0E0,0E0,0E0,0E0,0E0,0E0,0E0,0E0,0E0,0E0,0E0,0E0,0E0,0E0,0E0,0E0,0E0,0E0,0E0,0E0,0E0,0E0,0E0],"parents":[2147483647,0,0,1,1,2,2,3,3,4,4,5,5,6,6,7,7,8,8,9,9,10,10,11,11,12,12,13,13,14,14,15,15,16,16,17,17,18,18,19,19,20,20,23,23,24,24,27,27,28,28,29,29],"right_children":[2,4,6,8,10,12,14,16,18,20,22,24,26,28,30,32,34,36,38,40,42,-1,-1,44,46,-1,-1,48,50,52,-1,-1,-1,-1,-1,-1,-1,-1,-1,-1,-1,-1,-1,-1,-1,-1,-1,-1,-1,-1,-1,-1,-1],"split_conditions":[3.1E1,2.38E1,3.78E1,8.9E1,2.73E1,3.71E1,2.26E2,1.84E1,2.31E2,1.75E1,2.5E1,9.2E1,3.3E1,1.48E2,8.9E1,5.4E1,-3.5E0,1.7E1,2.02E1,1.59E2,1.3E1,4.135272E-2,3.5194275E-1,6E0,2.32E2,1.3877904E0,1.0886732E-1,5.33E1,1.76E2,7.16E1,2.4595405E-1,1.4596338E-2,1.3165087E-1,1.234107E-3,-1.0172359E-1,-7.6370398E-3,3.4957044E-2,1.11265935E-1,-5.80529E-2,3.912932E-2,1.13486126E-1,-1.6766815E-2,-3.4911027E-3,-5.6846194E-2,4.540856E-2,1.270067E-1,4.0854085E-2,-5.9787957E-3,-1.4181261E-1,1.8833245E-1,6.651603E-2,-2.6947534E-2,1.3839917E-1],"split_indices":[2,6,4,5,6,4,5,4,5,3,2,5,2,5,2,5,6,2,4,5,2,0,0,6,5,0,0,4,5,4,0,0,0,0,0,0,0,0,0,0,0,0,0,0,0,0,0,0,0,0,0,0,0],"split_type":[0,0,0,0,0,0,0,0,0,0,0,0,0,0,0,0,0,0,0,0,0,0,0,0,0,0,0,0,0,0,0,0,0,0,0,0,0,0,0,0,0,0,0,0,0,0,0,0,0,0,0,0,0],"sum_hessian":[9.9E2,6.75E2,3.15E2,6.5E2,2.5E1,1.49E2,1.66E2,1.19E2,5.31E2,2.2E1,3E0,1.47E2,2E0,9E1,7.6E1,1.1E1,1.08E2,2.64E2,2.67E2,1.9E1,3E0,1E0,2E0,3.3E1,1.14E2,1E0,1E0,2.8E1,6.2E1,7.5E1,1E0,7E0,4E0,7E0,1.01E2,9.5E1,1.69E2,7E0,2.6E2,6E0,1.3E1,1E0,2E0,1.8E1,1.5E1,7.8E1,3.6E1,2.4E1,4E0,1E1,5.2E1,7.1E1,4E0],"tree_param":{"num_deleted":"0","num_feature":"7","num_nodes":"53","size_leaf_vector":"1"}},{"base_weights":[6.169645E-2,-5.534675E0,9.308365E0,-9.4475565E0,-3.686686E0,6.518368E0,2.2342531E1,-9.943798E0,-1.9769548E-1,-4.722567E0,-1.6297495E-1,5.7142415E0,1.280696E1,1.8279228E1,3.364394E1,-1.2908035E1,-8.962188E0,-3.642424E0,1.02023885E-1,-1.3007004E0,-5.900543E0,-1.9243822E0,5.511247E0,6.1032844E0,-4.142256E0,1.1745896E0,1.3894784E1,2.3943571E1,1.4909433E1,3.6670017E-1,-5.8735818E-2,3.7244465E-2,-1.4215887E-1,-1.2437591E-2,-9.062848E-2,-8.849784E-3,-8.8623226E-2,5.3163826E-2,-2.4773862E-2,-6.3730754E-2,2.8141742E-3,-2.5905544E-2,1.4705214E-1,3.9885458E-2,1.950534E-1,7.622581E-2,3.8728844E-2,-8.88254E-2,1.28840385E-2,-2.82244E-2,6.582839E-2,1.1586189E-1,1.908372E-1,4.4805616E-2,2.7794176E-1,3.447717E-2,1.830351E-1],"categories":[],"categories_nodes":[],"categories_segments":[],"categories_sizes":[],"default_left":[0,0,0,0,0,0,0,0,0,0,0,0,0,0,0,0,0,0,0,0,0,0,0,0,0,0,0,0,0,0,0,0,0,0,0,0,0,0,0,0,0,0,0,0,0,0,0,0,0,0,0,0,0,0,0,0,0],"id":14,"left_children":[1,3,5,7,9,11,13,15,17,19,21,23,25,27,29,31,33,35,-1,37,39,41,43,45,47,49,51,53,55,-1,-1,-1,-1,-1,-1,-1,-1,-1,-1,-1,-1,-1,-1,-1,-1,-1,-1,-1,-1,-1,-1,-1,-1,-1,-1,-1,-1],"loss_changes":[5.0919598E4,4.39775E3,1.3345887E4,8.9770703E2,1.5249912E3,1.4792617E3,2.3698828E3,4.2552344E2,4.3124155E2,1.2942988E3,9.700889E2,1.0759609E3,4.1391406E2,5.9739844E2,2.128711E3,1.0100698E3,9.98291E1,1.2169931E2,0E0,6.67214E2,7.02876E2,8.5787976E2,4.1230505E2,8.650801E2,2.9461584E2,1.0504739E2,1.502461E2,1.1495205E3,1.2595605E3,0E0,0E0,0E0,0E0,0E0,0E0,0E0,0E0,0E0,0E0,0E0,0E0,0E0,0E0,0E0,0E0,0E0,0E0,0E0,0E0,0E0,0E0,0E0,0E0,0E0,0E0,0E0,0E0],"parents":[2147483647,0,0,1,1,2,2,3,3,4,4,5,5,6,6,7,7,8,8,9,9,10,10,11,11,12,12,13,13,14,14,15,15,16,16,17,17,19,19,20,20,21,21,22,22,23,23,24,24,25,25,26,26,27,27,28,28],"right_children":[2,4,6,8,10,12,14,16,18,20,22,24,26,28,30,32,34,36,-1,38,40,42,44,46,48,50,52,54,56,-1,-1,-1,-1,-1,-1,-1,-1,-1,-1,-1,-1,-1,-1,-1,-1,-1,-1,-1,-1,-1,-1,-1,-1,-1,-1,-1,-1],"split_conditions":[2.8E1,1.5E1,5.2E1,4.4E1,2.4E1,2.19E1,6.7E1,9E0,1.59E1,1.53E1,1.79E1,6E1,2.1E1,3.7E1,7.5E1,1.12E1,9.6E0,5.9E1,1.02023885E-1,1E0,1.98E1,4.9E1,2.51E1,1.15E1,7.1E1,3.4E1,4.4E1,2.7E1,3.3E1,3.6670017E-1,-5.8735818E-2,3.7244465E-2,-1.4215887E-1,-1.2437591E-2,-9.062848E-2,-8.849784E-3,-8.8623226E-2,5.3163826E-2,-2.4773862E-2,-6.3730754E-2,2.8141742E-3,-2.5905544E-2,1.4705214E-1,3.9885458E-2,1.950534E-1,7.622581E-2,3.8728844E-2,-8.88254E-2,1.28840385E-2,-2.82244E-2,6.582839E-2,1.1586189E-1,1.908372E-1,4.4805616E-2,2.7794176E-1,3.447717E-2,1.830351E-1],"split_indices":[0,0,0,2,0,6,0,0,6,3,6,2,2,1,2,3,3,2,0,6,6,1,3,6,2,0,0,1,2,0,0,0,0,0,0,0,0,0,0,0,0,0,0,0,0,0,0,0,0,0,0,0,0,0,0,0,0],"split_type":[0,0,0,0,0,0,0,0,0,0,0,0,0,0,0,0,0,0,0,0,0,0,0,0,0,0,0,0,0,0,0,0,0,0,0,0,0,0,0,0,0,0,0,0,0,0,0,0,0,0,0,0,0,0,0,0,0],"sum_hessian":[9.82E2,6.12E2,3.7E2,1.95E2,4.17E2,3.06E2,6.4E1,1.85E2,1E1,3.22E2,9.5E1,2.73E2,3.3E1,4.9E1,1.5E1,4.3E1,1.42E2,8E0,2E0,8.3E1,2.39E2,7.3E1,2.2E1,2.63E2,1E1,3E0,3E1,1.6E1,3.3E1,1.4E1,1E0,3E0,4E1,2E0,1.4E2,6E0,2E0,1.2E1,7.1E1,2.22E2,1.7E1,7.1E1,2E0,2.1E1,1E0,1.55E2,1.08E2,5E0,5E0,2E0,1E0,2.3E1,7E0,3E0,1.3E1,8E0,2.5E1],"tree_param":{"num_deleted":"0","num_feature":"7","num_nodes":"57","size_leaf_vector":"1"}},{"base_weights":[3.03979E-2,-5.2061925E0,1.0960258E1,-8.078583E0,-1.5715786E0,7.481502E0,2.355685E1,-9.03844E0,-2.904693E0,-3.1374998E0,-4.153132E-1,4.3453316E1,6.281275E0,3.1161785E1,1.7926018E1,-1.2210755E1,-7.774395E0,3.3965883E0,-4.388584E0,-3.3733404E0,7.656418E0,1.5162027E-1,-5.2741675E0,1.0213561E1,1.3806579E0,5.324648E0,1.6277292E1,4.249667E-1,2.5359838E1,1.9250528E1,-5.709478E-2,-1.2476361E-1,5.4484863E-2,-6.687431E-2,-9.252753E-2,-4.9747135E-2,5.5683203E-2,3.3280656E-2,-5.542723E-2,-2.4842113E-2,-5.851955E-2,1.0511004E-1,9.736223E-3,-1.8834948E-3,1.7439537E-1,2.19582E-2,-1.0227416E-1,1.2417926E-1,-1.5063133E-2,6.636349E-2,4.7635037E-4,1.9092567E-1,3.449902E-2,3.2951E-1,1.6920553E-1,1.3482796E-1,2.491577E-1],"categories":[],"categories_nodes":[],"categories_segments":[],"categories_sizes":[],"default_left":[0,0,0,0,0,0,0,0,0,0,0,0,0,0,0,0,0,0,0,0,0,0,0,0,0,0,0,0,0,0,0,0,0,0,0,0,0,0,0,0,0,0,0,0,0,0,0,0,0,0,0,0,0,0,0,0,0],"id":15,"left_children":[1,3,5,7,9,11,13,15,17,19,21,23,25,27,29,31,33,35,37,39,41,43,45,47,-1,49,51,-1,53,55,-1,-1,-1,-1,-1,-1,-1,-1,-1,-1,-1,-1,-1,-1,-1,-1,-1,-1,-1,-1,-1,-1,-1,-1,-1,-1,-1],"loss_changes":[5.6719906E4,6.982127E3,1.3890129E4,1.8311016E3,5.364512E2,1.0650171E4,2.396121E3,1.1682012E3,5.759312E2,3.4657898E2,4.7459903E2,2.3749023E4,2.2656953E3,7.636953E2,1.4247412E3,4.807334E2,3.0450098E2,2.4586345E2,4.5484467E2,2.5873486E2,4.699611E1,9.142769E2,6.884703E2,1.9954944E2,0E0,1.5640254E3,6.924971E2,0E0,7.8779395E2,9.7108887E2,0E0,0E0,0E0,0E0,0E0,0E0,0E0,0E0,0E0,0E0,0E0,0E0,0E0,0E0,0E0,0E0,0E0,0E0,0E0,0E0,0E0,0E0,0E0,0E0,0E0,0E0,0E0],"parents":[2147483647,0,0,1,1,2,2,3,3,4,4,5,5,6,6,7,7,8,8,9,9,10,10,11,11,12,12,13,13,14,14,15,15,16,16,17,17,18,18,19,19,20,20,21,21,22,22,23,23,25,25,26,26,28,28,29,29],"right_children":[2,4,6,8,10,12,14,16,18,20,22,24,26,28,30,32,34,36,38,40,42,44,46,48,-1,50,52,-1,54,56,-1,-1,-1,-1,-1,-1,-1,-1,-1,-1,-1,-1,-1,-1,-1,-1,-1,-1,-1,-1,-1,-1,-1,-1,-1,-1,-1],"split_conditions":[3.1E1,2E1,5.2E1,3.2E1,2.4E1,1.3E1,3.53E1,1.2E1,3.4E1,5.1E1,5.44E1,2E1,2.38E1,3.2E1,8.1E1,8.78E1,1.22E1,5E-1,1.4E0,2.7E1,2.1E1,5.36E1,2.7E1,4.4E1,1.3806579E0,4.5E1,3.6E1,4.249667E-1,1.05E1,8.6E0,-5.709478E-2,-1.2476361E-1,5.4484863E-2,-6.687431E-2,-9.252753E-2,-4.9747135E-2,5.5683203E-2,3.3280656E-2,-5.542723E-2,-2.4842113E-2,-5.851955E-2,1.0511004E-1,9.736223E-3,-1.8834948E-3,1.7439537E-1,2.19582E-2,-1.0227416E-1,1.2417926E-1,-1.5063133E-2,6.636349E-2,4.7635037E-4,1.9092567E-1,3.449902E-2,3.2951E-1,1.6920553E-1,1.3482796E-1,2.491577E-1],"split_indices":[0,0,0,2,0,1,4,0,2,1,4,2,6,2,1,4,6,6,6,1,0,4,0,0,0,1,4,0,6,6,0,0,0,0,0,0,0,0,0,0,0,0,0,0,0,0,0,0,0,0,0,0,0,0,0,0,0],"split_type":[0,0,0,0,0,0,0,0,0,0,0,0,0,0,0,0,0,0,0,0,0,0,0,0,0,0,0,0,0,0,0,0,0,0,0,0,0,0,0,0,0,0,0,0,0,0,0,0,0,0,0,0,0,0,0,0,0],"sum_hessian":[9.89E2,6.69E2,3.2E2,3.73E2,2.96E2,2.52E2,6.8E1,3.14E2,5.9E1,1.25E2,1.71E2,7E0,2.45E2,2.7E1,4.1E1,8.7E1,2.27E2,1.1E1,4.8E1,1.23E2,2E0,1.54E2,1.7E1,6E0,1E0,2.25E2,2E1,7E0,2E1,3.9E1,2E0,8.6E1,1E0,1.34E2,9.3E1,2E0,9E0,6E0,4.2E1,9.2E1,3.1E1,1E0,1E0,1.52E2,2E0,7E0,1E1,5E0,1E0,1.8E2,4.5E1,1.6E1,4E0,9E0,1.1E1,2.1E1,1.8E1],"tree_param":{"num_deleted":"0","num_feature":"7","num_nodes":"57","size_leaf_vector":"1"}},{"base_weights":[-5.5941784E-1,-5.8470616E0,8.088106E0,-1.001212E1,-3.8416986E0,5.1448474E0,2.1083977E1,-1.3354788E1,-8.837777E0,-5.2040386E0,-1.1771576E0,4.1768627E0,1.0077322E1,1.6969978E1,3.242774E1,-1.3858897E1,5.4212436E-2,-1.1532835E1,-7.8355255E0,-2.4085913E0,-6.425387E0,-4.976349E0,-1.3974418E-1,1.3361669E0,5.5644784E0,1.0532953E1,-5.8964938E-2,1.9619862E1,7.5111074E0,3.5927303E1,4.120667E0,2.552553E-2,-1.4262386E-1,-1.3103259E-1,1.4526164E-2,-6.1819468E-2,-1.11087605E-1,-5.861486E-2,-3.8176994E-3,-5.8687635E-2,-1.2042292E-1,-3.643093E-3,-8.030801E-2,1.863287E-2,-4.5424197E-2,-6.367418E-3,5.837642E-2,1.4440274E-1,4.3600015E-2,6.28321E-2,1.3605598E-1,6.432987E-2,2.3240793E-1,1.1501783E-1,9.383555E-3,2.0324035E-1,3.975358E-1,8.051401E-2,-1.8704005E-2],"categories":[],"categories_nodes":[],"categories_segments":[],"categories_sizes":[],"default_left":[0,0,0,0,0,0,0,0,0,0,0,0,0,0,0,0,0,0,0,0,0,0,0,0,0,0,0,0,0,0,0,0,0,0,0,0,0,0,0,0,0,0,0,0,0,0,0,0,0,0,0,0,0,0,0,0,0,0,0],"id":16,"left_children":[1,3,5,7,9,11,13,15,17,19,21,23,25,27,29,31,-1,33,35,37,39,41,43,45,47,49,-1,51,53,55,57,-1,-1,-1,-1,-1,-1,-1,-1,-1,-1,-1,-1,-1,-1,-1,-1,-1,-1,-1,-1,-1,-1,-1,-1,-1,-1,-1,-1],"loss_changes":[4.458346E4,5.0147734E3,1.4044104E4,6.513594E2,1.4821782E3,1.4045996E3,2.6231406E3,5.389258E2,3.094004E2,9.0977637E2,5.510911E2,9.9772266E2,4.187378E2,1.1560078E3,1.5360176E3,3.542539E2,0E0,7.9395557E2,5.3211914E2,5.856279E2,5.171089E2,4.1969208E2,9.873392E2,7.58602E2,1.765148E3,5.412949E2,0E0,1.7604443E3,3.301936E2,8.7583984E1,8.5707214E1,0E0,0E0,0E0,0E0,0E0,0E0,0E0,0E0,0E0,0E0,0E0,0E0,0E0,0E0,0E0,0E0,0E0,0E0,0E0,0E0,0E0,0E0,0E0,0E0,0E0,0E0,0E0,0E0],"parents":[2147483647,0,0,1,1,2,2,3,3,4,4,5,5,6,6,7,7,8,8,9,9,10,10,11,11,12,12,13,13,14,14,15,15,17,17,18,18,19,19,20,20,21,21,22,22,23,23,24,24,25,25,27,27,28,28,29,29,30,30],"right_children":[2,4,6,8,10,12,14,16,18,20,22,24,26,28,30,32,-1,34,36,38,40,42,44,46,48,50,-1,52,54,56,58,-1,-1,-1,-1,-1,-1,-1,-1,-1,-1,-1,-1,-1,-1,-1,-1,-1,-1,-1,-1,-1,-1,-1,-1,-1,-1,-1,-1],"split_conditions":[2.8E1,1.5E1,5.2E1,9E0,2.3E1,2.1E1,6.6E1,8.78E1,9.4E1,3.2E1,1.35E2,1.56E2,4.8E1,2.36E2,2.18E2,1.84E1,5.4212436E-2,1.87E1,1.52E1,8.9E1,2.92E2,2.1E1,2.61E2,1.05E1,1.84E2,3.7E1,-5.8964938E-2,9.4E1,5.2E1,7.8E0,6.7E1,2.552553E-2,-1.4262386E-1,-1.3103259E-1,1.4526164E-2,-6.1819468E-2,-1.11087605E-1,-5.861486E-2,-3.8176994E-3,-5.8687635E-2,-1.2042292E-1,-3.643093E-3,-8.030801E-2,1.863287E-2,-4.5424197E-2,-6.367418E-3,5.837642E-2,1.4440274E-1,4.3600015E-2,6.28321E-2,1.3605598E-1,6.432987E-2,2.3240793E-1,1.1501783E-1,9.383555E-3,2.0324035E-1,3.975358E-1,8.051401E-2,-1.8704005E-2],"split_indices":[0,0,0,0,0,6,0,4,5,4,5,5,1,5,5,4,0,6,6,5,5,1,5,6,5,0,0,5,1,6,0,0,0,0,0,0,0,0,0,0,0,0,0,0,0,0,0,0,0,0,0,0,0,0,0,0,0,0,0],"split_type":[0,0,0,0,0,0,0,0,0,0,0,0,0,0,0,0,0,0,0,0,0,0,0,0,0,0,0,0,0,0,0,0,0,0,0,0,0,0,0,0,0,0,0,0,0,0,0,0,0,0,0,0,0,0,0,0,0,0,0],"sum_hessian":[9.73E2,6.04E2,3.69E2,1.95E2,4.09E2,3.02E2,6.7E1,4.8E1,1.47E2,2.7E2,1.39E2,2.54E2,4.8E1,5.1E1,1.6E1,4.7E1,1E0,3.7E1,1.1E2,8.3E1,1.87E2,2.9E1,1.1E2,8.4E1,1.7E2,4.7E1,1E0,3.9E1,1.2E1,1.4E1,2E0,1E0,4.6E1,3.3E1,4E0,7.5E1,3.5E1,3E1,5.3E1,1.72E2,1.5E1,1.2E1,1.7E1,7.6E1,3.4E1,5.9E1,2.5E1,1.9E1,1.51E2,2.1E1,2.6E1,9E0,3E1,7E0,5E0,4E0,1E1,1E0,1E0],"tree_param":{"num_deleted":"0","num_feature":"7","num_nodes":"59","size_leaf_vector":"1"}},{"base_weights":[1.663122E-1,-5.2175636E0,1.0422341E1,-9.362369E0,-3.0644271E0,7.3085833E0,2.3096888E1,-1.3218608E1,-8.289096E0,-7.0798383E0,-2.1952264E0,4.834639E0,1.27879505E1,2.5245409E1,6.684532E0,-1.4984185E1,-6.9674554E0,6.3138746E-2,-8.495606E0,-8.476363E0,9.5828056E-1,-1.0505329E0,-6.841724E0,-3.3854203E0,6.468862E0,6.2304565E1,9.533313E0,1.28318405E1,2.7877695E1,1.1354712E1,2.4569905E0,-1.5452935E-1,-4.8332117E-2,-9.923898E-2,5.2098382E-2,-8.7766424E-2,-3.0651616E-2,-2.7332155E-2,-9.248005E-2,5.235231E-2,-4.1912083E-2,1.2957858E-2,-3.3080872E-2,-1.3866836E-1,-5.270292E-2,-6.748705E-2,3.9965915E-3,4.409959E-2,1.0039725E-1,7.340675E-2,9.6500266E-1,1.11740805E-1,2.2718586E-2,2.400568E-2,1.6042201E-1,2.911171E-1,7.4899674E-4,3.0569848E-2,1.3101625E-1,-2.7205033E-2,8.541319E-2],"categories":[],"categories_nodes":[],"categories_segments":[],"categories_sizes":[],"default_left":[0,0,0,0,0,0,0,0,0,0,0,0,0,0,0,0,0,0,0,0,0,0,0,0,0,0,0,0,0,0,0,0,0,0,0,0,0,0,0,0,0,0,0,0,0,0,0,0,0,0,0,0,0,0,0,0,0,0,0,0,0],"id":17,"left_children":[1,3,5,7,9,11,13,15,17,19,21,23,25,27,29,31,33,-1,35,37,39,41,43,45,47,49,51,53,55,57,59,-1,-1,-1,-1,-1,-1,-1,-1,-1,-1,-1,-1,-1,-1,-1,-1,-1,-1,-1,-1,-1,-1,-1,-1,-1,-1,-1,-1,-1,-1],"loss_changes":[5.4056793E4,5.7007305E3,1.3131059E4,7.968242E2,1.464302E3,3.6253115E3,2.1585586E3,4.032964E2,5.783662E2,8.5003E2,1.8543978E3,2.560815E3,1.2943358E4,1.5374922E3,1.4979202E2,9.185156E1,4.8371954E2,0E0,2.355957E2,2.5834912E2,2.8623123E2,1.4980242E3,6.8864233E2,4.1006686E2,1.1173506E3,8.689268E3,9.277632E2,3.6334778E2,1.6103438E3,1.7930176E1,2.1224612E2,0E0,0E0,0E0,0E0,0E0,0E0,0E0,0E0,0E0,0E0,0E0,0E0,0E0,0E0,0E0,0E0,0E0,0E0,0E0,0E0,0E0,0E0,0E0,0E0,0E0,0E0,0E0,0E0,0E0,0E0],"parents":[2147483647,0,0,1,1,2,2,3,3,4,4,5,5,6,6,7,7,8,8,9,9,10,10,11,11,12,12,13,13,14,14,15,15,16,16,18,18,19,19,20,20,21,21,22,22,23,23,24,24,25,25,26,26,27,27,28,28,29,29,30,30],"right_children":[2,4,6,8,10,12,14,16,18,20,22,24,26,28,30,32,34,-1,36,38,40,42,44,46,48,50,52,54,56,58,60,-1,-1,-1,-1,-1,-1,-1,-1,-1,-1,-1,-1,-1,-1,-1,-1,-1,-1,-1,-1,-1,-1,-1,-1,-1,-1,-1,-1,-1,-1],"split_conditions":[3E1,1.6E1,5.2E1,9E0,1.01E2,1.71E1,5.76E1,2.3E1,1.51E1,2.7E1,5.44E1,8.9E1,1.75E1,1.04E2,2.23E2,1.51E1,1.14E1,6.3138746E-2,4.8E1,-2.5E0,3.42E1,2.21E2,5.2E0,4.8E1,4.1E1,2.8E1,3.85E1,2.8E1,2.72E2,5.3E1,2.43E2,-1.5452935E-1,-4.8332117E-2,-9.923898E-2,5.2098382E-2,-8.7766424E-2,-3.0651616E-2,-2.7332155E-2,-9.248005E-2,5.235231E-2,-4.1912083E-2,1.2957858E-2,-3.3080872E-2,-1.3866836E-1,-5.270292E-2,-6.748705E-2,3.9965915E-3,4.409959E-2,1.0039725E-1,7.340675E-2,9.6500266E-1,1.11740805E-1,2.2718586E-2,2.400568E-2,1.6042201E-1,2.911171E-1,7.4899674E-4,3.0569848E-2,1.3101625E-1,-2.7205033E-2,8.541319E-2],"split_indices":[0,0,0,0,5,6,4,2,4,0,4,5,6,5,5,6,6,0,2,6,4,5,6,5,0,2,4,2,5,0,5,0,0,0,0,0,0,0,0,0,0,0,0,0,0,0,0,0,0,0,0,0,0,0,0,0,0,0,0,0,0],"split_type":[0,0,0,0,0,0,0,0,0,0,0,0,0,0,0,0,0,0,0,0,0,0,0,0,0,0,0,0,0,0,0,0,0,0,0,0,0,0,0,0,0,0,0,0,0,0,0,0,0,0,0,0,0,0,0,0,0,0,0,0,0],"sum_hessian":[9.77E2,6.41E2,3.36E2,2.18E2,4.23E2,2.71E2,6.5E1,4.5E1,1.73E2,7.4E1,3.49E2,1.88E2,8.3E1,5.7E1,8E0,3.4E1,1.1E1,2E0,1.71E2,6.3E1,1.1E1,2.81E2,6.8E1,3.1E1,1.57E2,4E0,7.9E1,1.1E1,4.6E1,3E0,5E0,3.2E1,2E0,9E0,2E0,1.62E2,9E0,8E0,5.5E1,6E0,5E0,1.38E2,1.43E2,1.1E1,5.7E1,1.6E1,1.5E1,1.01E2,5.6E1,2E0,2E0,6.4E1,1.5E1,3E0,8E0,4.4E1,2E0,1E0,2E0,3E0,2E0],"tree_param":{"num_deleted":"0","num_feature":"7","num_nodes":"61","size_leaf_vector":"1"}},{"base_weights":[-1.9983591E-1,-4.789794E0,1.0057203E1,-7.6156607E0,-1.4569255E0,7.802596E0,2.4096926E1,-1.3928105E1,-6.7456512E0,-8.827872E-1,-7.33082E0,3.737329E1,6.7408175E0,1.5007241E1,2.765412E1,-3.1415615E0,-1.4366951E1,-7.027274E0,-8.147991E-1,-2.0302193E0,1.8047014E0,-1.2711884E1,-4.5428004E0,5.536294E0,9.920186E1,7.4129252E0,-3.2233543E0,2.0450377E1,4.341333E0,2.9234512E1,1.0468041E1,-7.329397E-2,2.6170548E-2,-2.0158643E-2,-1.4619029E-1,-7.82353E-2,-4.9674E-2,-2.4023347E-2,6.8653E-2,8.029842E-3,-3.8417198E-2,4.900833E-2,3.2976163E-3,-3.365754E-2,-1.345943E-1,-7.629665E-2,-1.3235786E-2,9.9104956E-2,-3.599473E-2,1.3687117E0,1.1931612E-1,6.485804E-2,1.4865704E-1,-4.8654445E-2,6.061548E-2,2.2653471E-1,1.4128055E-2,9.91441E-3,5.7684183E-2,4.2475662E-1,2.5660637E-1,1.4200696E-1,-3.6496161E-3],"categories":[],"categories_nodes":[],"categories_segments":[],"categories_sizes":[],"default_left":[0,0,0,0,0,0,0,0,0,0,0,0,0,0,0,0,0,0,0,0,0,0,0,0,0,0,0,0,0,0,0,0,0,0,0,0,0,0,0,0,0,0,0,0,0,0,0,0,0,0,0,0,0,0,0,0,0,0,0,0,0,0,0],"id":18,"left_children":[1,3,5,7,9,11,13,15,17,19,21,23,25,27,29,31,33,35,37,39,41,43,45,47,49,51,53,55,57,59,61,-1,-1,-1,-1,-1,-1,-1,-1,-1,-1,-1,-1,-1,-1,-1,-1,-1,-1,-1,-1,-1,-1,-1,-1,-1,-1,-1,-1,-1,-1,-1,-1],"loss_changes":[4.6750918E4,6.4498184E3,9.529777E3,1.9435352E3,1.0592158E3,8.0998174E3,9.430078E2,1.6314551E2,5.421221E2,8.948563E2,3.6232263E2,1.716671E4,1.7517188E3,7.240017E2,4.816328E2,9.1529854E1,1.01293945E2,4.7451562E2,2.1157167E2,1.0449519E3,3.956788E2,1.757898E1,1.8864752E2,3.1540445E2,8.229137E3,1.5757139E3,2.8868515E2,3.4546973E2,2.2964455E1,1.4042578E2,1.6692618E2,0E0,0E0,0E0,0E0,0E0,0E0,0E0,0E0,0E0,0E0,0E0,0E0,0E0,0E0,0E0,0E0,0E0,0E0,0E0,0E0,0E0,0E0,0E0,0E0,0E0,0E0,0E0,0E0,0E0,0E0,0E0,0E0],"parents":[2147483647,0,0,1,1,2,2,3,3,4,4,5,5,6,6,7,7,8,8,9,9,10,10,11,11,12,12,13,13,14,14,15,15,16,16,17,17,18,18,19,19,20,20,21,21,22,22,23,23,24,24,25,25,26,26,27,27,28,28,29,29,30,30],"right_children":[2,4,6,8,10,12,14,16,18,20,22,24,26,28,30,32,34,36,38,40,42,44,46,48,50,52,54,56,58,60,62,-1,-1,-1,-1,-1,-1,-1,-1,-1,-1,-1,-1,-1,-1,-1,-1,-1,-1,-1,-1,-1,-1,-1,-1,-1,-1,-1,-1,-1,-1,-1,-1],"split_conditions":[3.1E1,2E1,5.3E1,9E0,3.16E1,1.3E1,7.6E0,4E0,2.02E1,2.7E1,5.1E0,3.8E1,5.8E1,6.1E0,2.76E1,8E0,-8E-1,2.6E1,2.3E1,2E1,1.54E1,1E1,2.2E1,2E1,4.2E1,4.8E1,7.5E1,5.3E1,5.5E1,3.2E1,5.6E1,-7.329397E-2,2.6170548E-2,-2.0158643E-2,-1.4619029E-1,-7.82353E-2,-4.9674E-2,-2.4023347E-2,6.8653E-2,8.029842E-3,-3.8417198E-2,4.900833E-2,3.2976163E-3,-3.365754E-2,-1.345943E-1,-7.629665E-2,-1.3235786E-2,9.9104956E-2,-3.599473E-2,1.3687117E0,1.1931612E-1,6.485804E-2,1.4865704E-1,-4.8654445E-2,6.061548E-2,2.2653471E-1,1.4128055E-2,9.91441E-3,5.7684183E-2,4.2475662E-1,2.5660637E-1,1.4200696E-1,-3.6496161E-3],"split_indices":[0,0,0,0,3,1,6,2,6,0,6,0,1,6,3,0,6,2,1,1,3,1,2,2,0,0,1,1,0,1,1,0,0,0,0,0,0,0,0,0,0,0,0,0,0,0,0,0,0,0,0,0,0,0,0,0,0,0,0,0,0,0,0],"split_type":[0,0,0,0,0,0,0,0,0,0,0,0,0,0,0,0,0,0,0,0,0,0,0,0,0,0,0,0,0,0,0,0,0,0,0,0,0,0,0,0,0,0,0,0,0,0,0,0,0,0,0,0,0,0,0,0,0,0,0,0,0,0,0],"sum_hessian":[9.91E2,6.85E2,3.06E2,3.7E2,3.15E2,2.65E2,4.1E1,4.3E1,3.27E2,2.88E2,2.7E1,8E0,2.57E2,1.3E1,2.8E1,2E0,4.1E1,3.12E2,1.5E1,2.02E2,8.6E1,8E0,1.9E1,6E0,2E0,2.41E2,1.6E1,8E0,5E0,2.5E1,3E0,1E0,1E0,1E0,4E1,2.23E2,8.9E1,1.3E1,2E0,7.9E1,1.23E2,2.7E1,5.9E1,1E0,7E0,9E0,1E1,4E0,2E0,1E0,1E0,2.16E2,2.5E1,1.4E1,2E0,7E0,1E0,2E0,3E0,3E0,2.2E1,2E0,1E0],"tree_param":{"num_deleted":"0","num_feature":"7","num_nodes":"63","size_leaf_vector":"1"}},{"base_weights":[-5.8328664E-1,-5.4554024E0,9.521418E0,-9.514658E0,-3.5674193E0,5.0332554E1,8.72893E0,-1.386817E1,-8.757253E0,-4.7899704E0,-1.5830542E0,5.9243407E0,1.3618681E0,6.27174E0,2.0244713E1,1.1424618E0,-1.498116E-1,-9.016433E0,2.3765233E0,-1.5455103E0,-5.4053855E0,1.4556581E0,-3.5199974E0,8.220646E-2,-1.6304387E-2,5.253313E0,1.54705515E1,2.9927805E1,1.5972173E1,-9.844882E-2,1.15585744E-1,-1.07975565E-1,-7.949856E-2,5.5444974E-2,1.9840526E-3,-5.2432116E-2,2.5409266E-2,-9.242153E-2,-4.8132658E-2,-3.1693313E-2,4.4334266E-2,-2.531375E-3,-5.127584E-2,-4.076396E-3,7.132124E-2,1.6565797E-1,-5.9553098E-2,3.3018196E-1,5.5300448E-2,1.7127793E-1,-4.3749426E-2],"categories":[],"categories_nodes":[],"categories_segments":[],"categories_sizes":[],"default_left":[0,0,0,0,0,0,0,0,0,0,0,0,0,0,0,0,0,0,0,0,0,0,0,0,0,0,0,0,0,0,0,0,0,0,0,0,0,0,0,0,0,0,0,0,0,0,0,0,0,0,0],"id":19,"left_children":[1,3,5,7,9,11,13,15,17,19,21,23,-1,25,27,29,-1,31,33,35,37,39,41,-1,-1,43,45,47,49,-1,-1,-1,-1,-1,-1,-1,-1,-1,-1,-1,-1,-1,-1,-1,-1,-1,-1,-1,-1,-1,-1],"loss_changes":[4.9332465E4,5.146791E3,1.0104236E4,5.8418945E2,1.1156489E3,2.2068988E4,8.956197E3,5.183159E2,5.5527344E2,5.626992E2,1.0527986E3,1.00143616E2,0E0,2.4107002E3,1.8387871E3,4.5712903E2,0E0,2.580088E2,3.3401054E1,7.2351263E2,5.0075293E2,9.7810144E2,5.711437E2,0E0,0E0,2.56615E3,7.087866E2,1.02378613E3,1.0389873E3,0E0,0E0,0E0,0E0,0E0,0E0,0E0,0E0,0E0,0E0,0E0,0E0,0E0,0E0,0E0,0E0,0E0,0E0,0E0,0E0,0E0,0E0],"parents":[2147483647,0,0,1,1,2,2,3,3,4,4,5,5,6,6,7,7,8,8,9,9,10,10,11,11,13,13,14,14,15,15,17,17,18,18,19,19,20,20,21,21,22,22,25,25,26,26,27,27,28,28],"right_children":[2,4,6,8,10,12,14,16,18,20,22,24,-1,26,28,30,-1,32,34,36,38,40,42,-1,-1,44,46,48,50,-1,-1,-1,-1,-1,-1,-1,-1,-1,-1,-1,-1,-1,-1,-1,-1,-1,-1,-1,-1,-1,-1],"split_conditions":[3E1,1.5E1,1.3E1,8E0,2.3E1,1.23E1,5.2E1,1.06E1,3.81E1,2.9E0,1.94E2,3.4E1,1.3618681E0,2.38E1,1.64E1,7E0,-1.498116E-1,1.17E2,9E0,9.1E1,9.1E1,8.6E1,1.67E1,8.220646E-2,-1.6304387E-2,1.27E2,4.6E1,2.4E2,2.72E2,-9.844882E-2,1.15585744E-1,-1.07975565E-1,-7.949856E-2,5.5444974E-2,1.9840526E-3,-5.2432116E-2,2.5409266E-2,-9.242153E-2,-4.8132658E-2,-3.1693313E-2,4.4334266E-2,-2.531375E-3,-5.127584E-2,-4.076396E-3,7.132124E-2,1.6565797E-1,-5.9553098E-2,3.3018196E-1,5.5300448E-2,1.7127793E-1,-4.3749426E-2],"split_indices":[0,0,1,0,0,6,0,3,3,6,5,0,0,6,3,0,0,5,0,5,5,5,3,0,0,5,1,5,5,0,0,0,0,0,0,0,0,0,0,0,0,0,0,0,0,0,0,0,0,0,0],"split_type":[0,0,0,0,0,0,0,0,0,0,0,0,0,0,0,0,0,0,0,0,0,0,0,0,0,0,0,0,0,0,0,0,0,0,0,0,0,0,0,0,0,0,0,0,0,0,0,0,0,0,0],"sum_hessian":[1E3,6.75E2,3.25E2,2.13E2,4.62E2,5E0,3.2E2,2.9E1,1.84E2,2.85E2,1.77E2,4E0,1E0,2.65E2,5.5E1,2E0,2.7E1,1.8E2,4E0,4.6E1,2.39E2,6.9E1,1.08E2,3E0,1E0,2.4E2,2.5E1,1.5E1,4E1,1E0,1E0,6.4E1,1.16E2,1E0,3E0,2.4E1,2.2E1,3E1,2.09E2,2.7E1,4.2E1,3.6E1,7.2E1,6E1,1.8E2,2.4E1,1E0,1.3E1,2E0,3.8E1,2E0],"tree_param":{"num_deleted":"0","num_feature":"7","num_nodes":"51","size_leaf_vector":"1"}},{"base_weights":[8.156734E-2,-2.9955268E0,7.075615E0,-4.027652E0,3.1446095E0,4.9560246E0,1.4222683E1,-7.0322776E0,-2.3080168E0,3.6079357E1,6.5856856E-1,2.9800246E0,1.0453508E1,1.7357687E1,5.674041E0,-2.7605324E0,-7.8194532E0,4.913988E0,-2.9673715E0,1.3550587E0,-3.0760405E0,-2.183929E0,3.5475328E0,5.141465E0,-1.9584153E0,1.4426341E1,4.76923E0,2.1748693E1,1.1257429E1,-7.526811E0,8.446357E0,8.570104E-2,-3.7069377E-2,-8.4101416E-2,-1.7265837E-3,-5.6162137E-3,7.808908E-2,-3.876795E-2,9.633056E-3,2.0132255E-2,-6.1239798E-2,-3.479977E-2,4.731308E-2,2.0502916E-2,1.57143E-1,2.758344E-2,1.2048099E-1,1.0352447E-2,-5.472471E-2,-1.9831338E-3,1.5292448E-1,1.2029493E-1,2.122036E-2,1.1673847E-1,2.8575215E-1,6.471014E-2,2.1273376E-1,-8.938914E-2,-1.6452512E-2,-5.4844704E-2,1.1823282E-1],"categories":[],"categories_nodes":[],"categories_segments":[],"categories_sizes":[],"default_left":[0,0,0,0,0,0,0,0,0,0,0,0,0,0,0,0,0,0,0,0,0,0,0,0,0,0,0,0,0,0,0,0,0,0,0,0,0,0,0,0,0,0,0,0,0,0,0,0,0,0,0,0,0,0,0,0,0,0,0,0,0],"id":20,"left_children":[1,3,5,7,9,11,13,15,17,19,21,23,25,27,29,31,33,35,37,-1,39,41,43,45,47,49,51,53,55,57,59,-1,-1,-1,-1,-1,-1,-1,-1,-1,-1,-1,-1,-1,-1,-1,-1,-1,-1,-1,-1,-1,-1,-1,-1,-1,-1,-1,-1,-1,-1],"loss_changes":[2.141341E4,4.3918003E3,4.5347646E3,3.0425508E3,8.1639526E3,2.5325225E3,1.7507139E3,7.01376E2,1.814566E3,2.7668416E4,7.796637E2,1.8780444E3,1.3313247E3,1.0944795E3,7.9551263E2,4.07087E2,8.1610156E2,5.1163214E2,1.2441372E3,0E0,1.053996E2,4.4666382E2,8.2396063E2,1.9748069E3,5.7373926E2,4.5902734E2,4.9339478E2,1.5921494E3,9.649707E2,1.8514694E1,8.6458154E2,0E0,0E0,0E0,0E0,0E0,0E0,0E0,0E0,0E0,0E0,0E0,0E0,0E0,0E0,0E0,0E0,0E0,0E0,0E0,0E0,0E0,0E0,0E0,0E0,0E0,0E0,0E0,0E0,0E0,0E0],"parents":[2147483647,0,0,1,1,2,2,3,3,4,4,5,5,6,6,7,7,8,8,9,9,10,10,11,11,12,12,13,13,14,14,15,15,16,16,17,17,18,18,20,20,21,21,22,22,23,23,24,24,25,25,26,26,27,27,28,28,29,29,30,30],"right_children":[2,4,6,8,10,12,14,16,18,20,22,24,26,28,30,32,34,36,38,-1,40,42,44,46,48,50,52,54,56,58,60,-1,-1,-1,-1,-1,-1,-1,-1,-1,-1,-1,-1,-1,-1,-1,-1,-1,-1,-1,-1,-1,-1,-1,-1,-1,-1,-1,-1,-1,-1],"split_conditions":[3.1E1,3.1E1,5.1E1,1.6E1,1.3E1,1.79E1,4.9E1,1.34E1,2.23E1,3.3E1,7.9E0,1.12E1,3.6E1,1.12E1,2.52E1,5E-1,1.85E1,1.9E1,1.82E1,1.3550587E0,1E1,2.9E1,5.7E1,7.6E0,3.8E1,1.87E1,3.6E1,6.7E0,2.1E1,4.1E1,2.9E1,8.570104E-2,-3.7069377E-2,-8.4101416E-2,-1.7265837E-3,-5.6162137E-3,7.808908E-2,-3.876795E-2,9.633056E-3,2.0132255E-2,-6.1239798E-2,-3.479977E-2,4.731308E-2,2.0502916E-2,1.57143E-1,2.758344E-2,1.2048099E-1,1.0352447E-2,-5.472471E-2,-1.9831338E-3,1.5292448E-1,1.2029493E-1,2.122036E-2,1.1673847E-1,2.8575215E-1,6.471014E-2,2.1273376E-1,-8.938914E-2,-1.6452512E-2,-5.4844704E-2,1.1823282E-1],"split_indices":[1,2,1,1,1,6,4,3,4,2,6,6,2,6,3,6,6,2,6,0,1,1,2,6,1,4,1,6,6,2,2,0,0,0,0,0,0,0,0,0,0,0,0,0,0,0,0,0,0,0,0,0,0,0,0,0,0,0,0,0,0],"split_type":[0,0,0,0,0,0,0,0,0,0,0,0,0,0,0,0,0,0,0,0,0,0,0,0,0,0,0,0,0,0,0,0,0,0,0,0,0,0,0,0,0,0,0,0,0,0,0,0,0,0,0,0,0,0,0,0,0,0,0,0,0],"sum_hessian":[9.93E2,6.9E2,3.03E2,5.91E2,9.9E1,2.35E2,6.8E1,2.14E2,3.77E2,6E0,9.3E1,1.74E2,6.1E1,4.9E1,1.9E1,3.4E1,1.8E2,3.1E1,3.46E2,1E0,5E0,4.7E1,4.6E1,1.21E2,5.3E1,3.5E1,2.6E1,2.7E1,2.2E1,3E0,1.6E1,2E0,3.2E1,1.67E2,1.3E1,1.1E1,2E1,2.81E2,6.5E1,2E0,3E0,4E1,7E0,4.2E1,4E0,9.1E1,3E1,2.9E1,2.4E1,2E0,3.3E1,6E0,2E1,1.2E1,1.5E1,1.6E1,6E0,2E0,1E0,3E0,1.3E1],"tree_param":{"num_deleted":"0","num_feature":"7","num_nodes":"61","size_leaf_vector":"1"}},{"base_weights":[-3.258523E-1,-4.7608824E0,8.937323E0,-7.5218554E0,-1.3368767E0,5.8901997E0,2.0501465E1,-1.1140398E1,-6.094529E0,-6.5777194E-1,-5.7267327E0,4.835098E0,1.1772188E1,2.3599276E1,2.3037872E0,-5.8434496E0,-1.201715E1,-4.651538E0,-8.372758E0,-5.2798615E0,1.0873749E-1,2.4009287E0,-8.426008E0,2.8303783E0,8.118736E0,1.3034371E1,2.6577823E0,1.9453411E0,2.5605394E1,-4.6348897E-1,1.4988275E-1,-9.062084E-2,-1.0897247E-2,-1.22079715E-1,2.4829816E-2,-7.5980455E-2,-2.2453677E-2,-6.71486E-2,-1.0275804E-1,-3.0876455E-4,-7.701282E-2,8.599808E-3,-5.571351E-2,-5.6868866E-2,3.7783988E-2,-9.695484E-2,-3.5643302E-2,-5.0931476E-2,3.4790583E-2,1.9091655E-1,6.54743E-2,1.1077858E-1,2.9559058E-1,5.563796E-2,-5.936144E-2,8.93299E-2,-1.2387867E-2,2.2303875E-1,3.6183575E-1,4.0138602E-2,-2.0845586E-2],"categories":[],"categories_nodes":[],"categories_segments":[],"categories_sizes":[],"default_left":[0,0,0,0,0,0,0,0,0,0,0,0,0,0,0,0,0,0,0,0,0,0,0,0,0,0,0,0,0,0,0,0,0,0,0,0,0,0,0,0,0,0,0,0,0,0,0,0,0,0,0,0,0,0,0,0,0,0,0,0,0],"id":21,"left_children":[1,3,5,7,9,11,13,15,17,19,21,23,25,27,29,31,33,35,37,39,41,43,45,47,49,51,53,55,57,59,-1,-1,-1,-1,-1,-1,-1,-1,-1,-1,-1,-1,-1,-1,-1,-1,-1,-1,-1,-1,-1,-1,-1,-1,-1,-1,-1,-1,-1,-1,-1],"loss_changes":[4.1617996E4,6.4656504E3,1.1437096E4,1.8895781E3,9.1145294E2,1.5628711E3,3.7789922E3,4.2205566E2,8.6181934E2,9.465217E2,9.197208E2,1.4449795E3,4.140161E2,2.4697344E3,3.9306317E2,2.502334E2,2.7933594E2,1.1882053E3,2.6228076E2,4.827423E2,9.86231E2,1.440353E2,1.5676733E2,7.37296E2,1.3233115E3,7.717949E2,1.8287192E2,1.4456346E2,1.0439414E3,8.0948074E1,0E0,0E0,0E0,0E0,0E0,0E0,0E0,0E0,0E0,0E0,0E0,0E0,0E0,0E0,0E0,0E0,0E0,0E0,0E0,0E0,0E0,0E0,0E0,0E0,0E0,0E0,0E0,0E0,0E0,0E0,0E0],"parents":[2147483647,0,0,1,1,2,2,3,3,4,4,5,5,6,6,7,7,8,8,9,9,10,10,11,11,12,12,13,13,14,14,15,15,16,16,17,17,18,18,19,19,20,20,21,21,22,22,23,23,24,24,25,25,26,26,27,27,28,28,29,29],"right_children":[2,4,6,8,10,12,14,16,18,20,22,24,26,28,30,32,34,36,38,40,42,44,46,48,50,52,54,56,58,60,-1,-1,-1,-1,-1,-1,-1,-1,-1,-1,-1,-1,-1,-1,-1,-1,-1,-1,-1,-1,-1,-1,-1,-1,-1,-1,-1,-1,-1,-1,-1],"split_conditions":[3E1,2E1,5.2E1,1.2E1,2.82E2,2.19E1,2.42E2,3.02E1,2.31E2,7.4E1,1.48E1,4E1,1.79E1,7.7E1,1.9E1,1.17E2,1.85E1,1.19E2,1.26E1,1.27E1,3.06E1,9.8E0,1.53E1,5.4E1,3.1E0,1.78E1,4.4E1,5.4E0,6.7E1,5.7E1,1.4988275E-1,-9.062084E-2,-1.0897247E-2,-1.22079715E-1,2.4829816E-2,-7.5980455E-2,-2.2453677E-2,-6.71486E-2,-1.0275804E-1,-3.0876455E-4,-7.701282E-2,8.599808E-3,-5.571351E-2,-5.6868866E-2,3.7783988E-2,-9.695484E-2,-3.5643302E-2,-5.0931476E-2,3.4790583E-2,1.9091655E-1,6.54743E-2,1.1077858E-1,2.9559058E-1,5.563796E-2,-5.936144E-2,8.93299E-2,-1.2387867E-2,2.2303875E-1,3.6183575E-1,4.0138602E-2,-2.0845586E-2],"split_indices":[0,0,0,0,5,6,5,4,5,5,3,0,3,5,6,5,6,5,6,3,3,3,6,5,6,3,0,6,0,0,0,0,0,0,0,0,0,0,0,0,0,0,0,0,0,0,0,0,0,0,0,0,0,0,0,0,0,0,0,0,0],"split_type":[0,0,0,0,0,0,0,0,0,0,0,0,0,0,0,0,0,0,0,0,0,0,0,0,0,0,0,0,0,0,0,0,0,0,0,0,0,0,0,0,0,0,0,0,0,0,0,0,0,0,0,0,0,0,0,0,0,0,0,0,0],"sum_hessian":[1.011E3,6.84E2,3.27E2,3.78E2,3.06E2,2.6E2,6.7E1,1.05E2,2.73E2,2.66E2,4E1,2.22E2,3.8E1,5.7E1,1E1,1.6E1,8.9E1,1.69E2,1.04E2,3.7E1,2.29E2,1E1,3E1,1.39E2,8.3E1,3.3E1,5E0,5E0,5.2E1,9E0,1E0,9E0,7E0,8.8E1,1E0,7.5E1,9.4E1,5.8E1,4.6E1,1.2E1,2.5E1,2.03E2,2.6E1,1E0,9E0,2.3E1,7E0,1E1,1.29E2,9E0,7.4E1,3.1E1,2E0,4E0,1E0,1E0,4E0,4.2E1,1E1,2E0,7E0],"tree_param":{"num_deleted":"0","num_feature":"7","num_nodes":"61","size_leaf_vector":"1"}},{"base_weights":[1.1592409E-1,-4.87142E0,1.010551E1,-7.2658057E0,-2.0658436E0,4.5409462E1,9.30416E0,-1.3136203E1,-6.71963E0,-1.3128359E0,-6.3539133E0,5.191342E0,9.730317E1,6.790315E0,1.9907593E1,-3.9179082E0,-1.4454412E-1,-9.367315E0,-5.742877E0,-5.0145817E0,-4.032576E-1,-1.3139547E1,-4.039745E0,7.3074214E-2,-1.636489E-2,1.3479561E0,1.1159147E-1,1.17007576E-1,7.8232746E0,1.6517904E1,3.237233E1,-1.0659767E-1,1.15247644E-1,-2.8776096E-2,-1.0183361E-1,-2.1668753E-2,-7.836236E-2,-6.2342193E-2,2.3202498E-2,5.859664E-3,-4.597378E-2,-3.291723E-2,-1.3795157E-1,-6.1144233E-3,-7.2436176E-2,-6.921831E-2,6.779222E-2,9.1489315E-2,1.7978033E-2,1.9107485E-1,5.3416467E-3,3.387785E-1,7.90579E-2],"categories":[],"categories_nodes":[],"categories_segments":[],"categories_sizes":[],"default_left":[0,0,0,0,0,0,0,0,0,0,0,0,0,0,0,0,0,0,0,0,0,0,0,0,0,0,0,0,0,0,0,0,0,0,0,0,0,0,0,0,0,0,0,0,0,0,0,0,0,0,0,0,0],"id":22,"left_children":[1,3,5,7,9,11,13,15,17,19,21,23,25,27,29,31,-1,33,35,37,39,41,43,-1,-1,-1,-1,45,47,49,51,-1,-1,-1,-1,-1,-1,-1,-1,-1,-1,-1,-1,-1,-1,-1,-1,-1,-1,-1,-1,-1,-1],"loss_changes":[4.892412E4,4.385039E3,8.828598E3,1.043541E3,9.7003E2,1.4104337E4,8.421197E3,2.957671E2,7.866992E2,8.700381E2,6.535592E2,8.419968E1,8.185045E3,1.7982246E3,2.042625E3,6.4341296E2,0E0,4.2614307E2,1.779625E3,4.7070264E2,8.6981915E2,2.5609741E1,3.8000543E2,0E0,0E0,0E0,0E0,1.7351178E3,1.7887744E3,2.0593525E3,1.741875E2,0E0,0E0,0E0,0E0,0E0,0E0,0E0,0E0,0E0,0E0,0E0,0E0,0E0,0E0,0E0,0E0,0E0,0E0,0E0,0E0,0E0,0E0],"parents":[2147483647,0,0,1,1,2,2,3,3,4,4,5,5,6,6,7,7,8,8,9,9,10,10,11,11,12,12,13,13,14,14,15,15,17,17,18,18,19,19,20,20,21,21,22,22,27,27,28,28,29,29,30,30],"right_children":[2,4,6,8,10,12,14,16,18,20,22,24,26,28,30,32,-1,34,36,38,40,42,44,-1,-1,-1,-1,46,48,50,52,-1,-1,-1,-1,-1,-1,-1,-1,-1,-1,-1,-1,-1,-1,-1,-1,-1,-1,-1,-1,-1,-1],"split_conditions":[3E1,2E1,1.3E1,8E0,5.83E1,1.23E1,5.2E1,2.52E1,1.01E2,1.1E2,5.2E0,3.7E1,4.2E1,7.3E1,6.7E1,2.41E1,-1.4454412E-1,2.12E1,2.14E2,2.7E1,2.73E2,1E1,6.88E1,7.3074214E-2,-1.636489E-2,1.3479561E0,1.1159147E-1,7.8E0,2.58E2,2.42E2,1.25E2,-1.0659767E-1,1.15247644E-1,-2.8776096E-2,-1.0183361E-1,-2.1668753E-2,-7.836236E-2,-6.2342193E-2,2.3202498E-2,5.859664E-3,-4.597378E-2,-3.291723E-2,-1.3795157E-1,-6.1144233E-3,-7.2436176E-2,-6.921831E-2,6.779222E-2,9.1489315E-2,1.7978033E-2,1.9107485E-1,5.3416467E-3,3.387785E-1,7.90579E-2],"split_indices":[0,0,1,0,4,6,0,4,5,5,6,0,0,5,0,4,0,4,5,0,5,1,4,0,0,0,0,6,5,5,0,0,0,0,0,0,0,0,0,0,0,0,0,0,0,0,0,0,0,0,0,0,0],"split_type":[0,0,0,0,0,0,0,0,0,0,0,0,0,0,0,0,0,0,0,0,0,0,0,0,0,0,0,0,0,0,0,0,0,0,0,0,0,0,0,0,0,0,0,0,0,0,0,0,0,0,0,0,0],"sum_hessian":[9.8E2,6.54E2,3.26E2,3.52E2,3.02E2,6E0,3.2E2,2.8E1,3.24E2,2.58E2,4.4E1,4E0,2E0,2.6E2,6E1,4E0,2.4E1,8.5E1,2.39E2,5E1,2.08E2,1E1,3.4E1,3E0,1E0,1E0,1E0,3.5E1,2.25E2,4.9E1,1.1E1,3E0,1E0,1E1,7.5E1,8.9E1,1.5E2,4.3E1,7E0,1.69E2,3.9E1,1E0,9E0,1.7E1,1.7E1,1.7E1,1.8E1,1.84E2,4.1E1,4.2E1,7E0,1E1,1E0],"tree_param":{"num_deleted":"0","num_feature":"7","num_nodes":"53","size_leaf_vector":"1"}},{"base_weights":[2.623966E-1,-4.7978253E0,1.0321269E1,-9.188393E0,-2.836009E0,7.277881E0,2.2522884E1,-1.245506E1,-8.018098E0,-4.457089E0,-3.2154846E-1,4.8461156E0,1.2931953E1,2.6090128E1,5.9725666E0,-1.1207403E0,-1.3636993E1,2.142488E0,-8.235593E0,-4.915421E-1,-5.197483E0,5.649372E-1,-5.628095E0,-4.587551E0,5.288419E0,1.3412162E0,9.700165E0,2.7336006E1,3.6826549E0,1.8620635E0,1.9053556E1,-8.782776E-2,9.468887E-2,-2.4589062E-2,-1.382654E-1,4.917717E-2,-4.218273E-3,-8.428313E-2,-9.610397E-3,-1.5703708E-2,1.5135516E-1,-8.993799E-2,-4.2510193E-2,-9.606953E-3,3.0219607E-2,-2.0413885E-2,-1.1162686E-1,4.840005E-3,-1.10479906E-1,3.829905E-2,7.546493E-2,1.1724275E-1,-1.4779581E-2,2.2639929E-1,3.6193678E-1,1.04516104E-1,-2.0575339E-2,1.17897935E-1,-1.654076E-2,2.3725227E-1,4.8551064E-2],"categories":[],"categories_nodes":[],"categories_segments":[],"categories_sizes":[],"default_left":[0,0,0,0,0,0,0,0,0,0,0,0,0,0,0,0,0,0,0,0,0,0,0,0,0,0,0,0,0,0,0,0,0,0,0,0,0,0,0,0,0,0,0,0,0,0,0,0,0,0,0,0,0,0,0,0,0,0,0,0,0],"id":23,"left_children":[1,3,5,7,9,11,13,15,17,19,21,23,25,27,29,31,33,35,37,39,41,43,45,47,49,-1,51,53,55,57,59,-1,-1,-1,-1,-1,-1,-1,-1,-1,-1,-1,-1,-1,-1,-1,-1,-1,-1,-1,-1,-1,-1,-1,-1,-1,-1,-1,-1,-1,-1],"loss_changes":[5.0644242E4,5.6760684E3,1.2201785E4,6.8001953E2,1.8695159E3,3.622164E3,3.74075E3,6.813296E2,3.5575586E2,8.166079E2,8.546356E2,8.128711E2,3.0031752E4,1.4068477E3,6.6352386E2,5.699917E2,6.558496E1,3.0540676E1,2.0219336E2,7.824197E2,8.0613916E2,5.8767145E2,4.9333734E2,3.002273E2,5.67209E2,0E0,1.8047627E3,1.3019883E3,1.7692487E2,4.034814E2,8.38031E1,0E0,0E0,0E0,0E0,0E0,0E0,0E0,0E0,0E0,0E0,0E0,0E0,0E0,0E0,0E0,0E0,0E0,0E0,0E0,0E0,0E0,0E0,0E0,0E0,0E0,0E0,0E0,0E0,0E0,0E0],"parents":[2147483647,0,0,1,1,2,2,3,3,4,4,5,5,6,6,7,7,8,8,9,9,10,10,11,11,12,12,13,13,14,14,15,15,16,16,17,17,18,18,19,19,20,20,21,21,22,22,23,23,24,24,26,26,27,27,28,28,29,29,30,30],"right_children":[2,4,6,8,10,12,14,16,18,20,22,24,26,28,30,32,34,36,38,40,42,44,46,48,50,-1,52,54,56,58,60,-1,-1,-1,-1,-1,-1,-1,-1,-1,-1,-1,-1,-1,-1,-1,-1,-1,-1,-1,-1,-1,-1,-1,-1,-1,-1,-1,-1,-1,-1],"split_conditions":[3E1,1.5E1,5.2E1,9E0,2.3E1,1.74E1,2.37E2,2.52E1,1.76E1,2.74E1,2.77E2,4.8E1,1.75E1,5.9E1,7.9E1,6.8E0,-8E-1,1.1E1,3.81E1,2.7E1,9.2E1,2.7E1,1.81E1,1.24E1,4E1,1.3412162E0,4E1,6.5E1,1.87E2,6E0,8.4E1,-8.782776E-2,9.468887E-2,-2.4589062E-2,-1.382654E-1,4.917717E-2,-4.218273E-3,-8.428313E-2,-9.610397E-3,-1.5703708E-2,1.5135516E-1,-8.993799E-2,-4.2510193E-2,-9.606953E-3,3.0219607E-2,-2.0413885E-2,-1.1162686E-1,4.840005E-3,-1.10479906E-1,3.829905E-2,7.546493E-2,1.1724275E-1,-1.4779581E-2,2.2639929E-1,3.6193678E-1,1.04516104E-1,-2.0575339E-2,1.17897935E-1,-1.654076E-2,2.3725227E-1,4.8551064E-2],"split_indices":[0,0,0,0,0,6,5,4,4,4,5,5,6,4,0,6,6,0,3,4,5,0,3,3,0,0,4,0,5,6,0,0,0,0,0,0,0,0,0,0,0,0,0,0,0,0,0,0,0,0,0,0,0,0,0,0,0,0,0,0,0],"split_type":[0,0,0,0,0,0,0,0,0,0,0,0,0,0,0,0,0,0,0,0,0,0,0,0,0,0,0,0,0,0,0,0,0,0,0,0,0,0,0,0,0,0,0,0,0,0,0,0,0,0,0,0,0,0,0,0,0,0,0,0,0],"sum_hessian":[9.93E2,6.61E2,3.32E2,2.03E2,4.58E2,2.67E2,6.5E1,5.1E1,1.52E2,2.78E2,1.8E2,1.88E2,7.9E1,5.3E1,1.2E1,5E0,4.6E1,3E0,1.49E2,4.4E1,2.34E2,1.55E2,2.5E1,8E0,1.8E2,1E0,7.8E1,5E1,3E0,1E1,2E0,3E0,2E0,1E0,4.5E1,1E0,2E0,1.45E2,4E0,4.2E1,2E0,4.5E1,1.89E2,9.6E1,5.9E1,1.6E1,9E0,5E0,3E0,1.11E2,6.9E1,6.6E1,1.2E1,3.5E1,1.5E1,1E0,2E0,2E0,8E0,1E0,1E0],"tree_param":{"num_deleted":"0","num_feature":"7","num_nodes":"61","size_leaf_vector":"1"}},{"base_weights":[-3.29361E-1,-3.224806E0,4.5339932E0,-4.205354E0,3.617521E0,3.4380896E0,1.194563E1,-5.055662E0,8.31326E-1,2.2198187E1,-7.9384637E-1,4.3136806E0,-5.909676E0,1.2636261E1,3.6170812E0,-9.193478E0,-3.8163767E0,-4.9629135E0,1.5540982E0,1.3345102E0,4.7193413E0,8.7706175E0,-2.7274623E0,-3.321839E0,5.7741294E0,-5.2258205E-1,-1.0543653E1,1.0581033E1,1.836041E1,6.5906696E0,-5.622012E-3,-6.317763E-2,-1.2536679E-1,-7.4264077E-3,-6.885964E-2,-6.5706395E-2,-1.310596E-2,3.6434848E-2,-1.1062005E-2,1.05773725E-1,-4.8542626E-2,1.7907707E-2,1.2503277E-1,-4.7564134E-2,9.533559E-2,7.1114436E-2,-4.700394E-2,9.968565E-2,2.1313371E-2,-2.3964075E-2,4.7610834E-2,-2.2487154E-2,-1.09755255E-1,1.3079547E-2,1.08224E-1,1.9977818E-1,1.901862E-2,4.9699685E-3,9.389007E-2],"categories":[],"categories_nodes":[],"categories_segments":[],"categories_sizes":[],"default_left":[0,0,0,0,0,0,0,0,0,0,0,0,0,0,0,0,0,0,0,0,0,0,0,0,0,0,0,0,0,0,0,0,0,0,0,0,0,0,0,0,0,0,0,0,0,0,0,0,0,0,0,0,0,0,0,0,0,0,0],"id":24,"left_children":[1,3,5,7,9,11,13,15,17,19,21,23,25,27,29,31,33,35,37,-1,39,41,43,45,47,49,51,53,55,57,-1,-1,-1,-1,-1,-1,-1,-1,-1,-1,-1,-1,-1,-1,-1,-1,-1,-1,-1,-1,-1,-1,-1,-1,-1,-1,-1,-1,-1],"loss_changes":[1.3884972E4,4.1615195E3,2.9479873E3,2.3211582E3,6.410982E3,2.6610046E3,2.2463574E2,2.3391475E3,3.385582E2,2.8538764E4,1.2075375E3,3.30881E3,6.934727E2,3.1159863E2,6.584261E1,9.398906E2,3.3726519E3,4.4235855E1,3.9867627E2,0E0,8.365E2,2.6419684E2,1.3887041E3,7.238035E2,3.7680576E3,1.5001884E2,2.9054565E1,6.194409E1,2.2820703E2,4.6490173E1,0E0,0E0,0E0,0E0,0E0,0E0,0E0,0E0,0E0,0E0,0E0,0E0,0E0,0E0,0E0,0E0,0E0,0E0,0E0,0E0,0E0,0E0,0E0,0E0,0E0,0E0,0E0,0E0,0E0],"parents":[2147483647,0,0,1,1,2,2,3,3,4,4,5,5,6,6,7,7,8,8,9,9,10,10,11,11,12,12,13,13,14,14,15,15,16,16,17,17,18,18,20,20,21,21,22,22,23,23,24,24,25,25,26,26,27,27,28,28,29,29],"right_children":[2,4,6,8,10,12,14,16,18,20,22,24,26,28,30,32,34,36,38,-1,40,42,44,46,48,50,52,54,56,58,-1,-1,-1,-1,-1,-1,-1,-1,-1,-1,-1,-1,-1,-1,-1,-1,-1,-1,-1,-1,-1,-1,-1,-1,-1,-1,-1,-1,-1],"split_conditions":[2.8E1,3.1E1,2.03E1,1.85E1,3.3E1,2.92E2,2.18E1,1.06E2,1E1,1.3E1,1.31E1,8.9E1,1.65E1,4.8E1,3.6E1,1.88E1,2.31E2,1.9E1,2.1E1,1.3345102E0,2.26E2,1.09E1,5.1E1,1.01E1,2.13E2,3.4E2,2.1E1,3E0,2.59E2,2.9E1,-5.622012E-3,-6.317763E-2,-1.2536679E-1,-7.4264077E-3,-6.885964E-2,-6.5706395E-2,-1.310596E-2,3.6434848E-2,-1.1062005E-2,1.05773725E-1,-4.8542626E-2,1.7907707E-2,1.2503277E-1,-4.7564134E-2,9.533559E-2,7.1114436E-2,-4.700394E-2,9.968565E-2,2.1313371E-2,-2.3964075E-2,4.7610834E-2,-2.2487154E-2,-1.09755255E-1,1.3079547E-2,1.08224E-1,1.9977818E-1,1.901862E-2,4.9699685E-3,9.389007E-2],"split_indices":[1,2,6,6,2,5,3,5,2,1,3,5,3,1,2,3,5,1,2,0,5,3,2,3,5,5,2,5,5,1,0,0,0,0,0,0,0,0,0,0,0,0,0,0,0,0,0,0,0,0,0,0,0,0,0,0,0,0,0],"split_type":[0,0,0,0,0,0,0,0,0,0,0,0,0,0,0,0,0,0,0,0,0,0,0,0,0,0,0,0,0,0,0,0,0,0,0,0,0,0,0,0,0,0,0,0,0,0,0,0,0,0,0,0,0,0,0,0,0,0,0],"sum_hessian":[9.84E2,6.17E2,3.67E2,5.4E2,7.7E1,3.21E2,4.6E1,4.62E2,7.8E1,1.4E1,6.3E1,2.94E2,2.7E1,4.2E1,4E0,1.05E2,3.57E2,8E0,7E1,1E0,1.3E1,1E1,5.3E1,4.7E1,2.47E2,1.3E1,1.4E1,3.3E1,9E0,2E0,2E0,5.8E1,4.7E1,1.79E2,1.78E2,5E0,3E0,3.9E1,3.1E1,8E0,5E0,4E0,6E0,4.6E1,7E0,5E0,4.2E1,1.14E2,1.33E2,1E1,3E0,1E0,1.3E1,1E0,3.2E1,8E0,1E0,1E0,1E0],"tree_param":{"num_deleted":"0","num_feature":"7","num_nodes":"59","size_leaf_vector":"1"}},{"base_weights":[-3.046836E-1,-5.323807E0,8.331794E0,-9.474946E0,-3.5150592E0,5.862201E0,1.7802721E1,-3.9114945E0,-1.0106461E1,-7.0556564E0,-2.7064147E0,6.932606E0,1.143144E0,2.1596844E1,8.840341E0,-5.7831163E0,5.4886775E0,-1.3144784E1,-9.006817E0,-5.0628333E0,-9.406051E0,-1.0596558E0,-5.157758E0,1.4372724E0,8.213089E0,6.4417086E0,-4.5902452E0,4.860198E0,2.327393E1,5.140696E0,2.605339E-1,-3.0073166E-4,-6.93172E-2,1.142351E-1,-2.9743703E-3,-1.3749309E-1,-5.013345E-3,-1.12565845E-1,-8.1396386E-2,-5.7203658E-2,6.268589E-2,-1.1719065E-1,-7.195847E-2,2.141198E-3,-3.9578445E-2,3.5684653E-2,-5.697304E-2,3.8912628E-2,-5.0914157E-2,7.1308546E-2,1.3032565E-1,4.6941176E-2,2.002279E-1,-1.06409155E-2,-1.15243204E-1,-4.8263453E-2,7.7627756E-2,1.5698585E-1,2.6677376E-1,1.0800444E-1,-9.863886E-3],"categories":[],"categories_nodes":[],"categories_segments":[],"categories_sizes":[],"default_left":[0,0,0,0,0,0,0,0,0,0,0,0,0,0,0,0,0,0,0,0,0,0,0,0,0,0,0,0,0,0,0,0,0,0,0,0,0,0,0,0,0,0,0,0,0,0,0,0,0,0,0,0,0,0,0,0,0,0,0,0,0],"id":25,"left_children":[1,3,5,7,9,11,13,15,17,19,21,23,25,27,29,31,33,35,37,39,41,43,45,47,49,51,53,55,57,59,-1,-1,-1,-1,-1,-1,-1,-1,-1,-1,-1,-1,-1,-1,-1,-1,-1,-1,-1,-1,-1,-1,-1,-1,-1,-1,-1,-1,-1,-1,-1],"loss_changes":[4.304512E4,4.6819473E3,8.432738E3,6.280137E2,1.2377988E3,1.4620039E3,2.3594043E3,4.0120657E2,4.4958984E2,3.3177637E2,1.4437356E3,1.6558896E3,1.7003994E3,1.346459E3,1.3944393E3,1.18734985E2,1.4075629E2,3.2176855E2,1.5809766E2,3.7859448E2,9.9711914E1,7.982422E2,6.983113E2,7.5679364E2,9.085E2,5.9430176E2,6.479037E2,2.0616151E2,7.9297266E2,7.388864E2,0E0,0E0,0E0,0E0,0E0,0E0,0E0,0E0,0E0,0E0,0E0,0E0,0E0,0E0,0E0,0E0,0E0,0E0,0E0,0E0,0E0,0E0,0E0,0E0,0E0,0E0,0E0,0E0,0E0,0E0,0E0],"parents":[2147483647,0,0,1,1,2,2,3,3,4,4,5,5,6,6,7,7,8,8,9,9,10,10,11,11,12,12,13,13,14,14,15,15,16,16,17,17,18,18,19,19,20,20,21,21,22,22,23,23,24,24,25,25,26,26,27,27,28,28,29,29],"right_children":[2,4,6,8,10,12,14,16,18,20,22,24,26,28,30,32,34,36,38,40,42,44,46,48,50,52,54,56,58,60,-1,-1,-1,-1,-1,-1,-1,-1,-1,-1,-1,-1,-1,-1,-1,-1,-1,-1,-1,-1,-1,-1,-1,-1,-1,-1,-1,-1,-1,-1,-1],"split_conditions":[2.8E1,1.5E1,5.1E1,2.52E1,9.5E1,2.6E2,2.13E2,2.41E1,9E0,3.53E1,2.5E2,9.9E1,3.85E1,5.1E1,7.9E1,9E0,8E0,4.1E1,1.11E2,3.38E1,2.1E1,4.82E1,2.48E1,4.2E1,4.4E1,3.49E2,2.92E2,4.1E1,5.5E1,2.42E2,2.605339E-1,-3.0073166E-4,-6.93172E-2,1.142351E-1,-2.9743703E-3,-1.3749309E-1,-5.013345E-3,-1.12565845E-1,-8.1396386E-2,-5.7203658E-2,6.268589E-2,-1.1719065E-1,-7.195847E-2,2.141198E-3,-3.9578445E-2,3.5684653E-2,-5.697304E-2,3.8912628E-2,-5.0914157E-2,7.1308546E-2,1.3032565E-1,4.6941176E-2,2.002279E-1,-1.06409155E-2,-1.15243204E-1,-4.8263453E-2,7.7627756E-2,1.5698585E-1,2.6677376E-1,1.0800444E-1,-9.863886E-3],"split_indices":[0,0,0,4,5,5,5,4,0,4,5,5,4,5,0,1,0,2,5,4,2,4,4,1,0,5,5,1,0,5,0,0,0,0,0,0,0,0,0,0,0,0,0,0,0,0,0,0,0,0,0,0,0,0,0,0,0,0,0,0,0],"split_type":[0,0,0,0,0,0,0,0,0,0,0,0,0,0,0,0,0,0,0,0,0,0,0,0,0,0,0,0,0,0,0,0,0,0,0,0,0,0,0,0,0,0,0,0,0,0,0,0,0,0,0,0,0,0,0,0,0,0,0,0,0],"sum_hessian":[9.91E2,6.27E2,3.64E2,1.89E2,4.38E2,2.9E2,7.4E1,2E1,1.69E2,8E1,3.58E2,2.36E2,5.4E1,5.1E1,2.3E1,1.7E1,3E0,4.2E1,1.27E2,4.5E1,3.5E1,2.15E2,1.43E2,4.5E1,1.91E2,2.8E1,2.6E1,5E0,4.6E1,2E1,3E0,3E0,1.4E1,1E0,2E0,4E1,2E0,3.2E1,9.5E1,4.3E1,2E0,1.5E1,2E1,1.5E2,6.5E1,8E0,1.35E2,3.3E1,1.2E1,1.58E2,3.3E1,2.6E1,2E0,1.8E1,8E0,1E0,4E0,1.6E1,3E1,1E1,1E1],"tree_param":{"num_deleted":"0","num_feature":"7","num_nodes":"61","size_leaf_vector":"1"}},{"base_weights":[1.8833974E-1,-2.8172803E0,6.5926857E0,-5.5545106E0,-1.4019322E0,5.1034455E0,1.3802102E1,-6.079937E0,1.876502E-1,1.6377419E0,-3.6049693E0,3.724313E0,8.474036E0,1.5275383E1,-3.396469E0,-8.780203E0,-4.9517765E0,-5.159629E0,4.182472E0,9.3729514E-1,1.0176281E1,9.652342E0,-3.8537056E0,6.069142E0,-3.736426E-1,1.1050593E1,3.1931932E0,-9.94698E-2,1.6008078E1,7.6678626E-2,-8.079517E0,-1.123558E-3,-9.397328E-2,-4.060062E-2,-8.501629E-2,6.26071E-3,-5.9611004E-2,-4.687008E-2,6.4250685E-2,-1.8104888E-4,5.147592E-2,2.0105228E-2,1.2220531E-1,-6.447176E-2,1.5289015E-1,-5.6266204E-2,-2.5279827E-2,5.0113533E-2,1.5083474E-1,1.839499E-2,-7.251458E-2,8.1946574E-2,1.3578744E-1,9.9518694E-2,-2.4266273E-2,2.0011808E-1,9.4022624E-2,-9.104699E-2,-2.5019875E-2],"categories":[],"categories_nodes":[],"categories_segments":[],"categories_sizes":[],"default_left":[0,0,0,0,0,0,0,0,0,0,0,0,0,0,0,0,0,0,0,0,0,0,0,0,0,0,0,0,0,0,0,0,0,0,0,0,0,0,0,0,0,0,0,0,0,0,0,0,0,0,0,0,0,0,0,0,0,0,0],"id":26,"left_children":[1,3,5,7,9,11,13,15,17,19,21,23,25,27,29,31,33,35,37,39,41,43,45,47,49,51,53,-1,55,-1,57,-1,-1,-1,-1,-1,-1,-1,-1,-1,-1,-1,-1,-1,-1,-1,-1,-1,-1,-1,-1,-1,-1,-1,-1,-1,-1,-1,-1],"loss_changes":[1.8863375E4,2.5762603E3,3.2901025E3,6.8601855E2,2.959067E3,1.1816963E3,1.3948125E3,5.9015967E2,4.4880856E2,1.1028893E3,8.813767E2,1.7991511E3,9.851929E2,1.0647666E3,3.2102664E2,3.1989307E2,4.37136E2,4.546573E1,2.6880237E2,6.9598883E2,2.0913013E2,5.523096E2,5.780752E2,1.0591069E3,1.0636279E3,2.4973877E2,1.0116957E3,0E0,1.0813428E3,0E0,9.207153E-2,0E0,0E0,0E0,0E0,0E0,0E0,0E0,0E0,0E0,0E0,0E0,0E0,0E0,0E0,0E0,0E0,0E0,0E0,0E0,0E0,0E0,0E0,0E0,0E0,0E0,0E0,0E0,0E0],"parents":[2147483647,0,0,1,1,2,2,3,3,4,4,5,5,6,6,7,7,8,8,9,9,10,10,11,11,12,12,13,13,14,14,15,15,16,16,17,17,18,18,19,19,20,20,21,21,22,22,23,23,24,24,25,25,26,26,28,28,30,30],"right_children":[2,4,6,8,10,12,14,16,18,20,22,24,26,28,30,32,34,36,38,40,42,44,46,48,50,52,54,-1,56,-1,58,-1,-1,-1,-1,-1,-1,-1,-1,-1,-1,-1,-1,-1,-1,-1,-1,-1,-1,-1,-1,-1,-1,-1,-1,-1,-1,-1,-1],"split_conditions":[3.1E1,1.6E1,5.4E1,1.9E1,1.76E1,1.79E1,6.66E1,1E1,3.6E1,2.38E1,9E0,1.05E1,3.9E1,4.6E0,5.8E1,2.09E1,2.67E1,1.2E1,1.79E1,3.1E1,2.1E1,1.8E1,2.1E1,5E1,2.45E1,3.06E1,1.69E1,-9.94698E-2,1.12E1,7.6678626E-2,7.4E0,-1.123558E-3,-9.397328E-2,-4.060062E-2,-8.501629E-2,6.26071E-3,-5.9611004E-2,-4.687008E-2,6.4250685E-2,-1.8104888E-4,5.147592E-2,2.0105228E-2,1.2220531E-1,-6.447176E-2,1.5289015E-1,-5.6266204E-2,-2.5279827E-2,5.0113533E-2,1.5083474E-1,1.839499E-2,-7.251458E-2,8.1946574E-2,1.3578744E-1,9.9518694E-2,-2.4266273E-2,2.0011808E-1,9.4022624E-2,-9.104699E-2,-2.5019875E-2],"split_indices":[1,1,1,6,3,6,4,1,4,6,2,6,2,6,1,4,3,2,3,2,1,1,2,1,3,4,3,0,6,0,6,0,0,0,0,0,0,0,0,0,0,0,0,0,0,0,0,0,0,0,0,0,0,0,0,0,0,0,0],"split_type":[0,0,0,0,0,0,0,0,0,0,0,0,0,0,0,0,0,0,0,0,0,0,0,0,0,0,0,0,0,0,0,0,0,0,0,0,0,0,0,0,0,0,0,0,0,0,0,0,0,0,0,0,0,0,0,0,0,0,0],"sum_hessian":[9.78E2,6.66E2,3.12E2,2.26E2,4.4E2,2.6E2,5.2E1,2.07E2,1.9E1,1.85E2,2.55E2,1.86E2,7.4E1,4.8E1,4E0,5.9E1,1.48E2,8E0,1.1E1,1.72E2,1.3E1,4E0,2.51E2,1.18E2,6.8E1,4.9E1,2.5E1,1E0,4.7E1,1E0,3E0,4E0,5.5E1,1.2E2,2.8E1,1E0,7E0,2E0,9E0,1.41E2,3.1E1,3E0,1E1,1E0,3E0,1.06E2,1.45E2,1.07E2,1.1E1,5.2E1,1.6E1,2.5E1,2.4E1,1.1E1,1.4E1,2.8E1,1.9E1,2E0,1E0],"tree_param":{"num_deleted":"0","num_feature":"7","num_nodes":"59","size_leaf_vector":"1"}},{"base_weights":[-5.984821E-1,-3.7595348E0,4.3871346E0,-6.551997E0,-2.0321224E0,-4.37598E0,5.3354564E0,-7.120776E0,9.533417E-1,-2.3792703E0,1.1570996E1,-9.485148E0,3.8805957E0,8.334836E0,1.2180072E0,-9.6858015E0,-5.648942E0,9.955212E0,-2.3297076E0,-7.0344696E0,-1.2894332E0,1.2093807E-1,3.4328487E-2,-4.624215E0,-1.2974153E1,-1.8738785E-1,9.137629E-2,4.8690624E0,1.12974615E1,1.2558878E1,1.7850143E-1,1.21060945E-2,-9.976984E-2,-6.166933E-3,-6.489427E-2,1.7218089E-1,-6.2607066E-3,-3.506916E-2,6.487E-2,-2.4752855E-2,-1.07339144E-1,1.48423845E-2,-4.9305934E-2,2.950817E-2,-5.5811103E-2,-1.4105144E-1,8.643684E-3,-2.2650987E-2,5.4156374E-2,3.5668038E-2,1.6102485E-1,1.4888301E-1,6.9514476E-2,-1.4964841E-2,1.5250441E-1,1.8335108E-2,-4.612431E-2],"categories":[],"categories_nodes":[],"categories_segments":[],"categories_sizes":[],"default_left":[0,0,0,0,0,0,0,0,0,0,0,0,0,0,0,0,0,0,0,0,0,0,0,0,0,0,0,0,0,0,0,0,0,0,0,0,0,0,0,0,0,0,0,0,0,0,0,0,0,0,0,0,0,0,0,0,0],"id":27,"left_children":[1,3,5,7,9,11,13,15,17,19,21,23,25,27,29,31,33,35,37,39,41,-1,-1,43,45,47,-1,49,51,53,55,-1,-1,-1,-1,-1,-1,-1,-1,-1,-1,-1,-1,-1,-1,-1,-1,-1,-1,-1,-1,-1,-1,-1,-1,-1,-1],"loss_changes":[1.6406682E4,3.0594043E3,3.38069E3,1.044126E3,1.8928364E3,1.7241775E3,4.4975225E3,7.98501E2,5.551572E2,1.9492654E3,1.0307617E0,3.6400024E2,3.4388074E2,2.111496E3,1.8250376E3,2.690791E2,6.135088E2,3.950326E2,1.680568E2,1.2046809E3,3.1785247E3,0E0,0E0,1.0345099E2,2.3130981E2,1.2868164E2,0E0,1.3908191E3,1.6599648E3,5.14624E2,1.1423093E3,0E0,0E0,0E0,0E0,0E0,0E0,0E0,0E0,0E0,0E0,0E0,0E0,0E0,0E0,0E0,0E0,0E0,0E0,0E0,0E0,0E0,0E0,0E0,0E0,0E0,0E0],"parents":[2147483647,0,0,1,1,2,2,3,3,4,4,5,5,6,6,7,7,8,8,9,9,10,10,11,11,12,12,13,13,14,14,15,15,16,16,17,17,18,18,19,19,20,20,23,23,24,24,25,25,27,27,28,28,29,29,30,30],"right_children":[2,4,6,8,10,12,14,16,18,20,22,24,26,28,30,32,34,36,38,40,42,-1,-1,44,46,48,-1,50,52,54,56,-1,-1,-1,-1,-1,-1,-1,-1,-1,-1,-1,-1,-1,-1,-1,-1,-1,-1,-1,-1,-1,-1,-1,-1,-1,-1],"split_conditions":[2.8E1,1.6E1,6.3E1,1.98E1,2.42E1,1.17E1,2.19E2,1.3E1,2E1,1.15E2,2.7E1,2.6E1,1.82E1,1.51E2,2.66E1,2.05E1,2.81E1,1.3E1,2.28E1,3.17E1,2.42E2,1.2093807E-1,3.4328487E-2,2.9E1,6.6E1,6.6E1,9.137629E-2,2.51E1,1.9E2,2.29E2,2.8E2,1.21060945E-2,-9.976984E-2,-6.166933E-3,-6.489427E-2,1.7218089E-1,-6.2607066E-3,-3.506916E-2,6.487E-2,-2.4752855E-2,-1.07339144E-1,1.48423845E-2,-4.9305934E-2,2.950817E-2,-5.5811103E-2,-1.4105144E-1,8.643684E-3,-2.2650987E-2,5.4156374E-2,3.5668038E-2,1.6102485E-1,1.4888301E-1,6.9514476E-2,-1.4964841E-2,1.5250441E-1,1.8335108E-2,-4.612431E-2],"split_indices":[1,1,5,6,6,6,5,2,6,5,1,2,6,5,4,4,4,1,6,4,5,0,0,1,1,2,0,6,5,5,5,0,0,0,0,0,0,0,0,0,0,0,0,0,0,0,0,0,0,0,0,0,0,0,0,0,0],"split_type":[0,0,0,0,0,0,0,0,0,0,0,0,0,0,0,0,0,0,0,0,0,0,0,0,0,0,0,0,0,0,0,0,0,0,0,0,0,0,0,0,0,0,0,0,0,0,0,0,0,0,0,0,0,0,0,0,0],"sum_hessian":[1.039E3,6.36E2,4.03E2,2.42E2,3.94E2,3.9E1,3.64E2,2.25E2,1.7E1,3.85E2,9E0,2.4E1,1.5E1,2.1E2,1.54E2,8E1,1.45E2,4E0,1.3E1,7.2E1,3.13E2,8E0,1E0,1.1E1,1.3E1,9E0,6E0,9.8E1,1.12E2,1.2E1,1.42E2,2E0,7.8E1,2.1E1,1.24E2,2E0,2E0,1.2E1,1E0,3.3E1,3.9E1,1.78E2,1.35E2,1E0,1E1,1.2E1,1E0,7E0,2E0,8.9E1,9E0,6E1,5.2E1,2E0,1E1,1.06E2,3.6E1],"tree_param":{"num_deleted":"0","num_feature":"7","num_nodes":"57","size_leaf_vector":"1"}},{"base_weights":[6.070512E-2,-3.8885386E0,4.5358295E0,3.9878267E-1,-4.983894E0,3.5997963E0,1.690719E1,-1.0547093E0,1.2356859E-1,-5.602257E0,6.685123E-1,2.3444376E0,9.694688E0,1.8893768E1,-2.218945E0,8.364223E-1,-4.8623185E0,-7.5669436E0,-3.8583446E0,-2.1088114E0,5.4870467E0,-1.2122014E0,3.891309E0,1.2441468E1,1.5189697E0,1.3244553E1,2.7447454E1,4.626188E-3,-3.267006E-2,3.545519E-3,1.0998141E-1,-7.8255475E-2,-2.5449423E-2,-1.0216175E-1,-6.608191E-2,1.4451073E-1,-4.0181518E-2,1.6077785E-1,-3.3778626E-2,-4.4710524E-2,8.128997E-2,7.5328974E-3,-6.609654E-2,1.6271757E-2,5.8460876E-2,6.092268E-2,2.0070785E-1,-1.0980455E-1,3.51782E-2,3.7542615E-2,1.5382484E-1,3.5826892E-1,1.449344E-1],"categories":[],"categories_nodes":[],"categories_segments":[],"categories_sizes":[],"default_left":[0,0,0,0,0,0,0,0,0,0,0,0,0,0,0,0,0,0,0,0,0,0,0,0,0,0,0,0,0,0,0,0,0,0,0,0,0,0,0,0,0,0,0,0,0,0,0,0,0,0,0,0,0],"id":28,"left_children":[1,3,5,7,9,11,13,15,-1,17,19,21,23,25,27,29,31,33,35,37,39,41,43,45,47,49,51,-1,-1,-1,-1,-1,-1,-1,-1,-1,-1,-1,-1,-1,-1,-1,-1,-1,-1,-1,-1,-1,-1,-1,-1,-1,-1],"loss_changes":[1.7832383E4,2.5191191E3,5.4164814E3,1.9249395E3,1.49621E3,3.351484E3,1.2957783E3,7.169353E2,0E0,1.2899072E3,5.870242E2,2.0238276E3,1.6653691E3,1.0861191E3,1.2753149E1,3.2417493E2,2.0669269E2,3.8968262E2,6.608179E2,7.0054083E2,4.5728595E2,1.1931472E3,1.1235127E3,2.5903662E3,5.383169E2,3.48042E2,6.747656E2,0E0,0E0,0E0,0E0,0E0,0E0,0E0,0E0,0E0,0E0,0E0,0E0,0E0,0E0,0E0,0E0,0E0,0E0,0E0,0E0,0E0,0E0,0E0,0E0,0E0,0E0],"parents":[2147483647,0,0,1,1,2,2,3,3,4,4,5,5,6,6,7,7,9,9,10,10,11,11,12,12,13,13,14,14,15,15,16,16,17,17,18,18,19,19,20,20,21,21,22,22,23,23,24,24,25,25,26,26],"right_children":[2,4,6,8,10,12,14,16,-1,18,20,22,24,26,28,30,32,34,36,38,40,42,44,46,48,50,52,-1,-1,-1,-1,-1,-1,-1,-1,-1,-1,-1,-1,-1,-1,-1,-1,-1,-1,-1,-1,-1,-1,-1,-1,-1,-1],"split_conditions":[2.5E1,2.88E1,2.38E1,3.6E1,1.86E1,5.1E1,1.95E1,1.23E1,1.2356859E-1,1.6E1,2E1,5.8E0,1.45E1,1.62E1,2.22E1,1.52E1,1.4E1,9E0,5E0,1.87E1,1.93E1,4.4E0,3.2E1,7.8E0,2.7E1,2.9E1,3.24E1,4.626188E-3,-3.267006E-2,3.545519E-3,1.0998141E-1,-7.8255475E-2,-2.5449423E-2,-1.0216175E-1,-6.608191E-2,1.4451073E-1,-4.0181518E-2,1.6077785E-1,-3.3778626E-2,-4.4710524E-2,8.128997E-2,7.5328974E-3,-6.609654E-2,1.6271757E-2,5.8460876E-2,6.092268E-2,2.0070785E-1,-1.0980455E-1,3.51782E-2,3.7542615E-2,1.5382484E-1,3.5826892E-1,1.449344E-1],"split_indices":[1,4,6,2,6,1,3,6,0,1,3,6,6,3,3,3,1,1,2,6,6,6,1,6,4,1,4,0,0,0,0,0,0,0,0,0,0,0,0,0,0,0,0,0,0,0,0,0,0,0,0,0,0],"split_type":[0,0,0,0,0,0,0,0,0,0,0,0,0,0,0,0,0,0,0,0,0,0,0,0,0,0,0,0,0,0,0,0,0,0,0,0,0,0,0,0,0,0,0,0,0,0,0,0,0,0,0,0,0],"sum_hessian":[1.007E3,5.35E2,4.72E2,1.09E2,4.26E2,4.4E2,3.2E1,9.8E1,1.1E1,3.84E2,4.2E1,3.66E2,7.4E1,2.9E1,3E0,6.6E1,3.2E1,1.79E2,2.05E2,2.7E1,1.5E1,1.11E2,2.55E2,5.5E1,1.9E1,1.9E1,1E1,1E0,2E0,6.4E1,2E0,1.3E1,1.9E1,4.5E1,1.34E2,1E0,2.04E2,1E0,2.6E1,3E0,1.2E1,8.2E1,2.9E1,1.19E2,1.36E2,3.1E1,2.4E1,2E0,1.7E1,4E0,1.5E1,5E0,5E0],"tree_param":{"num_deleted":"0","num_feature":"7","num_nodes":"53","size_leaf_vector":"1"}},{"base_weights":[4.7311762E-1,-4.120448E0,1.0173942E1,-5.7363524E0,-1.45898E-1,7.321199E0,2.0486547E1,-7.931171E0,-4.243165E0,6.520476E-1,-8.633089E0,4.7999043E0,1.3844014E1,2.7948309E1,1.3663839E1,-8.69926E0,-4.4368687E0,-2.0642823E-1,-5.0868073E0,-2.416435E0,1.2057195E0,-9.172428E0,-3.0586997E-2,1.6819254E0,6.613186E0,5.899632E1,1.0213627E1,1.5137531E1,3.032243E1,1.7510533E0,1.6297337E1,-8.828432E-2,5.79043E-2,-5.034696E-2,8.542459E-2,2.334996E-2,-3.6626235E-2,-5.613103E-2,-9.203209E-3,4.4713397E-2,-6.491384E-2,4.4639163E-2,2.3335205E-4,-9.758279E-2,-3.576264E-2,8.323306E-2,-1.5994061E-3,5.4813232E-2,1.3868971E-1,7.328446E-2,1.3283391E0,8.235649E-2,2.1825744E-1,1.7383924E-1,8.295851E-3,7.229464E-2,3.095697E-1,4.5527756E-2,-4.4360764E-2,2.157513E-1,7.329997E-2],"categories":[],"categories_nodes":[],"categories_segments":[],"categories_sizes":[],"default_left":[0,0,0,0,0,0,0,0,0,0,0,0,0,0,0,0,0,0,0,0,0,0,0,0,0,0,0,0,0,0,0,0,0,0,0,0,0,0,0,0,0,0,0,0,0,0,0,0,0,0,0,0,0,0,0,0,0,0,0,0,0],"id":29,"left_children":[1,3,5,7,9,11,13,15,17,19,21,