{"learner":{"attributes":{"scikit_learn":"{\"_estimator_type\": \"regressor\"}"},"feature_names":["pm2_5_lag_1","pm2_5_lag_2","pm2_5_lag_3","wind_speed_10m_max","wind_gusts_10m_max","wind_direction_10m_dominant","temperature_2m_max"],"feature_types":["float","float","float","float","float","float","float"],"gradient_booster":{"model":{"cats":{"enc":[],"feature_segments":[],"sorted_idx":[]},"gbtree_model_param":{"num_parallel_tree":"1","num_trees":"100"},"iteration_indptr":[0,1,2,3,4,5,6,7,8,9,10,11,12,13,14,15,16,17,18,19,20,21,22,23,24,25,26,27,28,29,30,31,32,33,34,35,36,37,38,39,40,41,42,43,44,45,46,47,48,49,50,51,52,53,54,55,56,57,58,59,60,61,62,63,64,65,66,67,68,69,70,71,72,73,74,75,76,77,78,79,80,81,82,83,84,85,86,87,88,89,90,91,92,93,94,95,96,97,98,99,100],"tree_info":[0,0,0,0,0,0,0,0,0,0,0,0,0,0,0,0,0,0,0,0,0,0,0,0,0,0,0,0,0,0,0,0,0,0,0,0,0,0,0,0,0,0,0,0,0,0,0,0,0,0,0,0,0,0,0,0,0,0,0,0,0,0,0,0,0,0,0,0,0,0,0,0,0,0,0,0,0,0,0,0,0,0,0,0,0,0,0,0,0,0,0,0,0,0,0,0,0,0,0,0],"trees":[{"base_weights":[-2.2183894E-1,-3.5132165E0,6.5514617E0,-4.6612654E0,3.0071886E0,7.6935825E0,-2.5560477E0,-8.138844E0,-2.5722265E0,1.9775072E1,-8.3103234E-1,-6.153095E-1,9.352101E0,8.514494E0,-6.376615E0,-1.1455526E1,-6.7590065E0,-7.0311747E0,-1.5116122E0,7.1097674E0,8.749422E0,-1.9258685E0,6.2313213E0,-3.9029865E0,8.897131E0,7.450737E0,1.7174723E1,1.0608143E1,-4.1523248E-1,-7.175707E0,5.5976754E-1,-6.1340773E-1,1.7562805E-1,-1.891215E-1,-5.154599E-1,-1.826383E-1,-5.931551E-1,7.1979605E-2,-2.6460418E-1,1.6246127E0,3.9559536E-2,2.3224525E-1,-2.1524714E-1,8.167443E-1,-1.1596884E-1,-2.9795438E-1,5.912792E-1,5.1489943E-1,-5.3643294E-2,3.4741092E-1,1.2310301E0,1.0972394E0,4.3538776E-1,4.635671E-2,6.225816E-1,-8.900315E-2,-5.074012E-1],"categories":[],"categories_nodes":[],"categories_segments":[],"categories_sizes":[],"default_left":[0,0,0,0,0,0,0,0,0,0,0,0,0,0,0,0,0,0,0,0,0,0,0,0,0,0,0,0,0,0,0,0,0,0,0,0,0,0,0,0,0,0,0,0,0,0,0,0,0,0,0,0,0,0,0,0,0],"id":0,"left_children":[1,3,5,7,9,11,13,15,17,19,21,23,25,27,29,31,33,35,37,-1,39,41,43,45,47,49,51,53,-1,55,-1,-1,-1,-1,-1,-1,-1,-1,-1,-1,-1,-1,-1,-1,-1,-1,-1,-1,-1,-1,-1,-1,-1,-1,-1,-1,-1],"loss_changes":[2.9517303E4,6.6838154E3,4.5236797E3,5.4857793E3,8.64052E3,5.3112266E3,2.1267852E3,1.222293E3,2.2357532E3,3.2499951E4,8.625338E2,2.0675244E3,4.6464766E3,5.45871E2,5.9987427E2,1.0404971E3,2.1061924E3,1.4421709E3,4.303042E3,0E0,4.5091147E3,1.5207023E3,1.3337748E3,1.6551067E3,2.4847949E2,2.0722559E3,2.3129648E3,2.0261755E2,0E0,5.592886E2,0E0,0E0,0E0,0E0,0E0,0E0,0E0,0E0,0E0,0E0,0E0,0E0,0E0,0E0,0E0,0E0,0E0,0E0,0E0,0E0,0E0,0E0,0E0,0E0,0E0,0E0,0E0],"parents":[2147483647,0,0,1,1,2,2,3,3,4,4,5,5,6,6,7,7,8,8,9,9,10,10,11,11,12,12,13,13,14,14,15,15,16,16,17,17,18,18,20,20,21,21,22,22,23,23,24,24,25,25,26,26,27,27,29,29],"right_children":[2,4,6,8,10,12,14,16,18,20,22,24,26,28,30,32,34,36,38,-1,40,42,44,46,48,50,52,54,-1,56,-1,-1,-1,-1,-1,-1,-1,-1,-1,-1,-1,-1,-1,-1,-1,-1,-1,-1,-1,-1,-1,-1,-1,-1,-1,-1,-1],"split_conditions":[3E1,3.1E1,2.79E2,1.6E1,3.3E1,8.9E1,1.35E1,9.3E1,1.05E2,1.3E1,5.1E1,1.72E1,5.1E1,5.7E1,2.05E1,1.95E1,2.37E2,1.92E1,2.41E2,7.1097674E0,1.62E2,1.51E1,5.8E1,6.6E1,1.69E1,2.68E1,2.18E2,1.01E1,-4.1523248E-1,2.92E2,5.5976754E-1,-6.1340773E-1,1.7562805E-1,-1.891215E-1,-5.154599E-1,-1.826383E-1,-5.931551E-1,7.1979605E-2,-2.6460418E-1,1.6246127E0,3.9559536E-2,2.3224525E-1,-2.1524714E-1,8.167443E-1,-1.1596884E-1,-2.9795438E-1,5.912792E-1,5.1489943E-1,-5.3643294E-2,3.4741092E-1,1.2310301E0,1.0972394E0,4.3538776E-1,4.635671E-2,6.225816E-1,-8.900315E-2,-5.074012E-1],"split_indices":[1,2,5,1,2,5,3,5,5,1,2,6,1,1,6,6,5,3,5,0,5,3,2,1,3,6,5,3,0,5,0,0,0,0,0,0,0,0,0,0,0,0,0,0,0,0,0,0,0,0,0,0,0,0,0,0,0],"split_type":[0,0,0,0,0,0,0,0,0,0,0,0,0,0,0,0,0,0,0,0,0,0,0,0,0,0,0,0,0,0,0,0,0,0,0,0,0,0,0,0,0,0,0,0,0,0,0,0,0,0,0,0,0,0,0,0,0],"sum_hessian":[1.322E3,8.9E2,4.32E2,7.57E2,1.33E2,3.84E2,4.8E1,2.83E2,4.74E2,2.4E1,1.09E2,6.4E1,3.2E2,1.2E1,3.6E1,8.1E1,2.02E2,9E1,3.84E2,1E0,2.3E1,9.5E1,1.4E1,4.8E1,1.6E1,2.59E2,6.1E1,1.1E1,1E0,3.5E1,1E0,7.7E1,4E0,1.11E2,9.1E1,5.4E1,3.6E1,2.16E2,1.68E2,5E0,1.8E1,2.5E1,7E1,6E0,8E0,4.3E1,5E0,1.4E1,2E0,2.53E2,6E0,3.8E1,2.3E1,2E0,9E0,1.3E1,2.2E1],"tree_param":{"num_deleted":"0","num_feature":"7","num_nodes":"57","size_leaf_vector":"1"}},{"base_weights":[1.7974898E-1,-6.06125E0,1.0726284E1,-1.0758899E1,-3.8604581E0,7.530406E0,2.5969242E1,-1.328363E1,-9.314434E0,-6.06167E0,-2.22481E0,5.347733E0,1.2651501E1,2.897489E1,1.2419045E1,-4.243617E0,-1.3970101E1,-5.86384E0,-1.0913729E1,-4.590784E0,-8.403432E0,-1.6326077E0,-8.192638E0,6.29377E0,2.2993261E-2,1.7826378E1,5.996532E0,3.0470932E1,8.437297E0,8.518416E0,2.2966484E1,8.347028E-2,-3.2464293E-1,-5.0121766E-1,-7.331261E-1,5.6449556E-1,-3.190499E-1,-5.9247416E-1,-2.1915804E-1,-4.149266E-1,-1.3171804E-1,-2.7370915E-1,-4.6020016E-1,-4.4108566E-2,-2.6987082E-1,-4.998769E-1,-1.881788E-1,1.3820279E-1,3.8571057E-1,2.4873547E-1,-1.3548906E-1,6.963522E-1,3.1696362E0,4.030939E-1,-1.9485901E-1,1.2993393E0,2.1009471E0,6.4641446E-1,-1.8156243E-2,-1.3361736E-1,4.7924048E-1,3.2388282E-1,1.3151772E0],"categories":[],"categories_nodes":[],"categories_segments":[],"categories_sizes":[],"default_left":[0,0,0,0,0,0,0,0,0,0,0,0,0,0,0,0,0,0,0,0,0,0,0,0,0,0,0,0,0,0,0,0,0,0,0,0,0,0,0,0,0,0,0,0,0,0,0,0,0,0,0,0,0,0,0,0,0,0,0,0,0,0,0],"id":1,"left_children":[1,3,5,7,9,11,13,15,17,19,21,23,25,27,29,31,33,35,37,39,41,43,45,47,49,51,53,55,57,59,61,-1,-1,-1,-1,-1,-1,-1,-1,-1,-1,-1,-1,-1,-1,-1,-1,-1,-1,-1,-1,-1,-1,-1,-1,-1,-1,-1,-1,-1,-1,-1,-1],"loss_changes":[8.622459E4,8.46709E3,2.3528465E4,8.317539E2,2.0099434E3,4.448125E3,3.0612422E3,5.1784766E2,8.7415137E2,7.8464844E2,1.1316926E3,1.4355137E3,4.0257422E3,1.8322148E3,5.0377002E2,1.1723775E2,8.7978516E1,5.688274E2,6.508281E2,1.0589729E3,1.6301758E2,8.315124E2,1.9419995E2,1.1920059E3,6.08885E2,1.1021582E4,1.1348514E3,2.1703906E3,2.4183029E2,1.9268652E2,4.971167E1,0E0,0E0,0E0,0E0,0E0,0E0,0E0,0E0,0E0,0E0,0E0,0E0,0E0,0E0,0E0,0E0,0E0,0E0,0E0,0E0,0E0,0E0,0E0,0E0,0E0,0E0,0E0,0E0,0E0,0E0,0E0,0E0],"parents":[2147483647,0,0,1,1,2,2,3,3,4,4,5,5,6,6,7,7,8,8,9,9,10,10,11,11,12,12,13,13,14,14,15,15,16,16,17,17,18,18,19,19,20,20,21,21,22,22,23,23,24,24,25,25,26,26,27,27,28,28,29,29,30,30],"right_children":[2,4,6,8,10,12,14,16,18,20,22,24,26,28,30,32,34,36,38,40,42,44,46,48,50,52,54,56,58,60,62,-1,-1,-1,-1,-1,-1,-1,-1,-1,-1,-1,-1,-1,-1,-1,-1,-1,-1,-1,-1,-1,-1,-1,-1,-1,-1,-1,-1,-1,-1,-1,-1],"split_conditions":[2.8E1,1.5E1,5.2E1,1.16E2,2E1,4.1E1,2.41E2,2.12E1,2.09E2,2.31E2,6.26E1,4.3E1,1.95E1,5.9E1,6.7E1,2.8E1,1.44E1,1.06E1,3.3E1,9.2E1,1.67E1,2.75E2,2.2E1,3.1E1,3.1E1,1.92E1,2.57E2,6.6E1,3.2E1,1.7E1,2.6E1,8.347028E-2,-3.2464293E-1,-5.0121766E-1,-7.331261E-1,5.6449556E-1,-3.190499E-1,-5.9247416E-1,-2.1915804E-1,-4.149266E-1,-1.3171804E-1,-2.7370915E-1,-4.6020016E-1,-4.4108566E-2,-2.6987082E-1,-4.998769E-1,-1.881788E-1,1.3820279E-1,3.8571057E-1,2.4873547E-1,-1.3548906E-1,6.963522E-1,3.1696362E0,4.030939E-1,-1.9485901E-1,1.2993393E0,2.1009471E0,6.4641446E-1,-1.8156243E-2,-1.3361736E-1,4.7924048E-1,3.2388282E-1,1.3151772E0],"split_indices":[0,0,0,5,0,0,5,4,5,5,4,2,3,4,0,5,3,3,2,5,3,5,2,0,0,3,5,0,2,2,2,0,0,0,0,0,0,0,0,0,0,0,0,0,0,0,0,0,0,0,0,0,0,0,0,0,0,0,0,0,0,0,0],"split_type":[0,0,0,0,0,0,0,0,0,0,0,0,0,0,0,0,0,0,0,0,0,0,0,0,0,0,0,0,0,0,0,0,0,0,0,0,0,0,0,0,0,0,0,0,0,0,0,0,0,0,0,0,0,0,0,0,0,0,0,0,0,0,0],"sum_hessian":[1.308E3,8.22E2,4.86E2,2.61E2,5.61E2,4.03E2,8.3E1,9.2E1,1.69E2,2.38E2,3.23E2,2.84E2,1.19E2,6.7E1,1.6E1,7E0,8.5E1,5.5E1,1.14E2,1.48E2,9E1,2.95E2,2.8E1,2.41E2,4.3E1,6.6E1,5.3E1,6.2E1,5E0,1.3E1,3E0,2E0,5E0,1.5E1,7E1,1E0,5.4E1,9.9E1,1.5E1,5E1,9.8E1,2.1E1,6.9E1,2.47E2,4.8E1,1.9E1,9E0,7E1,1.71E2,1.5E1,2.8E1,6.2E1,4E0,4.4E1,9E0,4.7E1,1.5E1,3E0,2E0,1E0,1.2E1,1E0,2E0],"tree_param":{"num_deleted":"0","num_feature":"7","num_nodes":"63","size_leaf_vector":"1"}},{"base_weights":[-1.9994842E-1,-5.5019803E0,9.860156E0,-8.356701E0,-1.8289016E0,6.512735E0,2.4288116E1,-1.0383131E1,-5.973145E0,-7.6279497E0,-9.898063E-1,8.439684E0,4.2279906E0,3.456627E1,1.90847E1,-1.295093E1,-8.921737E0,-1.167243E1,-5.5037646E0,-9.198743E0,-1.6509223E0,2.2344446E-1,-6.077451E0,9.288921E0,1.2621688E0,5.2157755E0,-6.260984E0,2.624994E1,4.6079033E1,2.0512539E1,-1.5289497E-1,1.2301598E-1,-6.574752E-1,-2.4017087E-1,-5.223841E-1,-3.2112896E-1,-6.4435834E-1,-2.0352459E-1,-3.9603576E-1,5.391496E-2,-4.9084058E-1,1.4623293E-1,-2.3416741E-1,5.108392E-2,-2.9174456E-1,-1.1594025E-1,-5.202091E-1,3.4130594E-1,5.89345E-1,-2.282534E-1,3.249311E-1,-1.085928E-1,3.292907E-1,-3.6281905E-1,1.9186406E-1,1.1794239E-1,1.4544449E0,2.4119456E0,6.660034E-1,4.2885253E-1,1.1053838E0,1.4565752E-1,-3.1042692E-1],"categories":[],"categories_nodes":[],"categories_segments":[],"categories_sizes":[],"default_left":[0,0,0,0,0,0,0,0,0,0,0,0,0,0,0,0,0,0,0,0,0,0,0,0,0,0,0,0,0,0,0,0,0,0,0,0,0,0,0,0,0,0,0,0,0,0,0,0,0,0,0,0,0,0,0,0,0,0,0,0,0,0,0],"id":2,"left_children":[1,3,5,7,9,11,13,15,17,19,21,23,25,27,29,31,33,35,37,39,41,43,45,47,49,51,53,55,57,59,61,-1,-1,-1,-1,-1,-1,-1,-1,-1,-1,-1,-1,-1,-1,-1,-1,-1,-1,-1,-1,-1,-1,-1,-1,-1,-1,-1,-1,-1,-1,-1,-1],"loss_changes":[6.923493E4,8.897484E3,2.1478633E4,2.2467734E3,1.8074507E3,1.5712627E3,3.8327617E3,8.4886523E2,5.296377E2,4.260813E2,2.0197948E3,1.1890713E3,1.7836396E3,1.3755137E3,1.5962891E3,3.1083594E2,9.9929785E2,1.9266113E1,6.848374E2,2.4560645E2,1.6632341E2,1.2874933E3,1.00042163E3,1.00229785E3,7.0097565E2,1.5831108E3,1.786214E2,1.152248E3,6.500781E1,8.384707E2,1.10920784E2,0E0,0E0,0E0,0E0,0E0,0E0,0E0,0E0,0E0,0E0,0E0,0E0,0E0,0E0,0E0,0E0,0E0,0E0,0E0,0E0,0E0,0E0,0E0,0E0,0E0,0E0,0E0,0E0,0E0,0E0,0E0,0E0],"parents":[2147483647,0,0,1,1,2,2,3,3,4,4,5,5,6,6,7,7,8,8,9,9,10,10,11,11,12,12,13,13,14,14,15,15,16,16,17,17,18,18,19,19,20,20,21,21,22,22,23,23,24,24,25,25,26,26,27,27,28,28,29,29,30,30],"right_children":[2,4,6,8,10,12,14,16,18,20,22,24,26,28,30,32,34,36,38,40,42,44,46,48,50,52,54,56,58,60,62,-1,-1,-1,-1,-1,-1,-1,-1,-1,-1,-1,-1,-1,-1,-1,-1,-1,-1,-1,-1,-1,-1,-1,-1,-1,-1,-1,-1,-1,-1,-1,-1],"split_conditions":[3E1,2E1,5.2E1,1.5E1,8.1E1,1.91E1,1.64E1,1.16E2,4.2E1,2.7E1,2.78E2,4.6E1,2.78E2,7.1E1,2.74E2,4E0,2.03E2,1.5E1,2.31E2,1E1,1.27E1,3.16E1,1.82E1,1.56E2,4.1E1,1.57E2,3.01E1,8.8E1,1.25E2,9.3E1,6.1E1,1.2301598E-1,-6.574752E-1,-2.4017087E-1,-5.223841E-1,-3.2112896E-1,-6.4435834E-1,-2.0352459E-1,-3.9603576E-1,5.391496E-2,-4.9084058E-1,1.4623293E-1,-2.3416741E-1,5.108392E-2,-2.9174456E-1,-1.1594025E-1,-5.202091E-1,3.4130594E-1,5.89345E-1,-2.282534E-1,3.249311E-1,-1.085928E-1,3.292907E-1,-3.6281905E-1,1.9186406E-1,1.1794239E-1,1.4544449E0,2.4119456E0,6.660034E-1,4.2885253E-1,1.1053838E0,1.4565752E-1,-3.1042692E-1],"split_indices":[0,0,0,0,5,3,3,5,5,0,5,1,5,0,5,2,5,1,5,5,3,3,3,5,0,5,3,5,0,5,0,0,0,0,0,0,0,0,0,0,0,0,0,0,0,0,0,0,0,0,0,0,0,0,0,0,0,0,0,0,0,0,0],"split_type":[0,0,0,0,0,0,0,0,0,0,0,0,0,0,0,0,0,0,0,0,0,0,0,0,0,0,0,0,0,0,0,0,0,0,0,0,0,0,0,0,0,0,0,0,0,0,0,0,0,0,0,0,0,0,0,0,0,0,0,0,0,0,0],"sum_hessian":[1.296E3,8.49E2,4.47E2,4.77E2,3.72E2,3.64E2,8.3E1,2.56E2,2.21E2,4.6E1,3.26E2,1.96E2,1.68E2,2.6E1,5.7E1,9E1,1.66E2,1.5E1,2.06E2,3.6E1,1E1,2.64E2,6.2E1,1.75E2,2.1E1,1.54E2,1.4E1,1.7E1,9E0,5.3E1,4E0,1E0,8.9E1,4.6E1,1.2E2,4E0,1.1E1,1.31E2,7.5E1,2E0,3.4E1,4E0,6E0,2.34E2,3E1,3.4E1,2.8E1,9E1,8.5E1,1E1,1.1E1,2.4E1,1.3E2,1.3E1,1E0,2E0,1.5E1,8E0,1E0,7E0,4.6E1,3E0,1E0],"tree_param":{"num_deleted":"0","num_feature":"7","num_nodes":"63","size_leaf_vector":"1"}},{"base_weights":[-4.0815303E-1,-3.1666846E0,5.7124925E0,-6.287342E0,-1.6088341E0,-4.728656E0,6.9420266E0,-7.570249E0,1.2647277E0,2.1147423E0,-3.346217E0,-7.595814E0,7.2653837E0,8.379422E0,-1.7862095E0,1.0905757E0,-8.142642E0,9.11589E1,-5.0363708E0,1.5260568E0,2.4179585E1,-2.5112283E0,-9.033473E0,-5.534259E0,-1.3165564E1,7.8375034E0,6.7210674E-2,6.628284E0,1.384516E1,7.7885466E0,-5.77068E0,4.711578E-1,-6.840299E-2,-5.943571E-1,-3.3290365E-1,-7.632971E-3,6.8445506E0,-3.2895195E-1,3.5616923E-2,-8.85278E-2,1.5432744E-1,1.6063789E0,4.085865E-1,-3.7327108E-1,-7.165216E-2,-3.0393156E-1,-5.129982E-1,-3.5068753E-1,-8.1579104E-2,-6.930264E-1,-1.9014612E-1,7.8719616E-2,4.25366E-1,2.3063965E-1,5.9665185E-1,8.6372995E-1,3.292839E-1,4.6052814E-1,-7.218552E-2,-3.2409605E-1,5.13631E-1],"categories":[],"categories_nodes":[],"categories_segments":[],"categories_sizes":[],"default_left":[0,0,0,0,0,0,0,0,0,0,0,0,0,0,0,0,0,0,0,0,0,0,0,0,0,0,0,0,0,0,0,0,0,0,0,0,0,0,0,0,0,0,0,0,0,0,0,0,0,0,0,0,0,0,0,0,0,0,0,0,0],"id":3,"left_children":[1,3,5,7,9,11,13,15,17,19,21,23,25,27,29,31,33,35,37,39,41,43,45,47,49,51,-1,53,55,57,59,-1,-1,-1,-1,-1,-1,-1,-1,-1,-1,-1,-1,-1,-1,-1,-1,-1,-1,-1,-1,-1,-1,-1,-1,-1,-1,-1,-1,-1,-1],"loss_changes":[2.238938E4,4.4333125E3,5.3219785E3,2.9549102E3,3.9598052E3,1.5682943E3,4.644416E3,1.2978008E3,2.5948553E4,2.4960056E3,1.9575615E3,3.4050293E2,1.9953278E1,2.9423203E3,2.0669128E3,3.6116663E2,1.2772432E3,1.254851E4,3.860255E2,9.880332E2,3.7361377E2,1.9389634E3,1.2970996E2,1.5022784E2,5.8498535E0,2.0167267E1,0E0,2.5323418E3,1.7783262E3,2.2335217E2,5.0019092E2,0E0,0E0,0E0,0E0,0E0,0E0,0E0,0E0,0E0,0E0,0E0,0E0,0E0,0E0,0E0,0E0,0E0,0E0,0E0,0E0,0E0,0E0,0E0,0E0,0E0,0E0,0E0,0E0,0E0,0E0],"parents":[2147483647,0,0,1,1,2,2,3,3,4,4,5,5,6,6,7,7,8,8,9,9,10,10,11,11,12,12,13,13,14,14,15,15,16,16,17,17,18,18,19,19,20,20,21,21,22,22,23,23,24,24,25,25,27,27,28,28,29,29,30,30],"right_children":[2,4,6,8,10,12,14,16,18,20,22,24,26,28,30,32,34,36,38,40,42,44,46,48,50,52,-1,54,56,58,60,-1,-1,-1,-1,-1,-1,-1,-1,-1,-1,-1,-1,-1,-1,-1,-1,-1,-1,-1,-1,-1,-1,-1,-1,-1,-1,-1,-1,-1,-1],"split_conditions":[3.1E1,1.6E1,6.3E1,1.72E1,3.24E1,1.81E1,2.78E2,2.3E1,1.75E1,1.74E1,2.78E2,4.03E1,5.2E1,5.1E1,1.35E1,1.55E1,9.3E1,1E1,2.07E1,1.01E2,2.7E1,1.19E2,2.92E2,1.09E1,8E0,3.3E1,6.7210674E-2,1.79E1,2.18E2,2.74E1,2.05E1,4.711578E-1,-6.840299E-2,-5.943571E-1,-3.3290365E-1,-7.632971E-3,6.8445506E0,-3.2895195E-1,3.5616923E-2,-8.85278E-2,1.5432744E-1,1.6063789E0,4.085865E-1,-3.7327108E-1,-7.165216E-2,-3.0393156E-1,-5.129982E-1,-3.5068753E-1,-8.1579104E-2,-6.930264E-1,-1.9014612E-1,7.8719616E-2,4.25366E-1,2.3063965E-1,5.9665185E-1,8.6372995E-1,3.292839E-1,4.6052814E-1,-7.218552E-2,-3.2409605E-1,5.13631E-1],"split_indices":[1,1,5,6,4,6,5,4,6,3,5,4,1,1,3,4,5,1,6,5,1,5,5,6,6,1,0,6,5,4,6,0,0,0,0,0,0,0,0,0,0,0,0,0,0,0,0,0,0,0,0,0,0,0,0,0,0,0,0,0,0],"split_type":[0,0,0,0,0,0,0,0,0,0,0,0,0,0,0,0,0,0,0,0,0,0,0,0,0,0,0,0,0,0,0,0,0,0,0,0,0,0,0,0,0,0,0,0,0,0,0,0,0,0,0,0,0,0,0,0,0,0,0,0,0],"sum_hessian":[1.324E3,9.13E2,4.11E2,3.03E2,6.1E2,4.3E1,3.68E2,2.59E2,4.4E1,1.94E2,4.16E2,3.5E1,8E0,3.16E2,5.2E1,1.6E1,2.43E2,2E0,4.2E1,1.9E2,4E0,3.64E2,5.2E1,2.7E1,8E0,7E0,1E0,2.41E2,7.5E1,1.5E1,3.7E1,3E0,1.3E1,6.7E1,1.76E2,1E0,1E0,3.3E1,9E0,6.1E1,1.29E2,2E0,2E0,6.4E1,3E2,1.7E1,3.5E1,1.9E1,8E0,7E0,1E0,1E0,6E0,1.76E2,6.5E1,5E1,2.5E1,1.3E1,2E0,3.6E1,1E0],"tree_param":{"num_deleted":"0","num_feature":"7","num_nodes":"61","size_leaf_vector":"1"}},{"base_weights":[-3.870122E-1,-5.314876E0,9.731975E0,-9.8332E0,-3.353222E0,6.6762323E0,2.1772837E1,-1.3201346E1,-8.599012E0,-4.3741527E0,-1.1873966E0,3.0406517E1,5.9522586E0,1.814397E1,3.2313847E1,-1.5108242E1,-9.164605E0,-1.0290057E1,-7.7769556E0,-7.7917953E0,-3.4735284E0,-6.866546E-1,-8.975135E0,4.9284725E0,8.821246E1,4.0231533E0,1.075321E1,2.044921E1,6.995345E0,2.2591778E1,2.1383207E0,-7.6481014E-1,-1.662507E-1,-6.800485E-1,-3.3418712E-1,-5.304288E-1,-2.4483586E-2,-3.3508453E-1,-5.03757E-1,-4.072598E-1,2.4092388E-1,-7.992848E-2,-2.7449763E-1,-8.1631295E-2,7.945907E-2,-5.344928E-1,2.4716973E-1,3.937547E-1,-1.3037972E-1,-5.7501364E-2,6.673436E0,-7.822069E-2,2.8374606E-1,5.6907314E-1,-1.4786473E-1,2.2464414E-1,1.1155677E0,5.6817204E-1,2.6637714E-4,1.3535376E0,2.873201E-1],"categories":[],"categories_nodes":[],"categories_segments":[],"categories_sizes":[],"default_left":[0,0,0,0,0,0,0,0,0,0,0,0,0,0,0,0,0,0,0,0,0,0,0,0,0,0,0,0,0,0,0,0,0,0,0,0,0,0,0,0,0,0,0,0,0,0,0,0,0,0,0,0,0,0,0,0,0,0,0,0,0],"id":4,"left_children":[1,3,5,7,9,11,13,15,17,19,21,23,25,27,29,31,33,35,37,39,41,43,45,47,49,51,53,55,57,59,-1,-1,-1,-1,-1,-1,-1,-1,-1,-1,-1,-1,-1,-1,-1,-1,-1,-1,-1,-1,-1,-1,-1,-1,-1,-1,-1,-1,-1,-1,-1],"loss_changes":[6.577379E4,7.8288535E3,1.5749547E4,1.0005371E3,1.3657231E3,5.763326E3,2.7416172E3,4.0037402E2,1.9661133E2,1.2687778E3,7.7376685E2,1.429307E4,3.077878E3,1.5788652E3,1.1678613E3,5.101953E1,1.8424512E2,1.8834424E2,2.735E2,4.2696143E2,1.2577625E3,4.0948804E2,3.3924078E2,1.9818256E2,1.2286127E4,2.2423838E3,8.605703E2,1.5339727E3,3.9686926E2,8.2529004E2,0E0,0E0,0E0,0E0,0E0,0E0,0E0,0E0,0E0,0E0,0E0,0E0,0E0,0E0,0E0,0E0,0E0,0E0,0E0,0E0,0E0,0E0,0E0,0E0,0E0,0E0,0E0,0E0,0E0,0E0,0E0],"parents":[2147483647,0,0,1,1,2,2,3,3,4,4,5,5,6,6,7,7,8,8,9,9,10,10,11,11,12,12,13,13,14,14,15,15,16,16,17,17,18,18,19,19,20,20,21,21,22,22,23,23,24,24,25,25,26,26,27,27,28,28,29,29],"right_children":[2,4,6,8,10,12,14,16,18,20,22,24,26,28,30,32,34,36,38,40,42,44,46,48,50,52,54,56,58,60,-1,-1,-1,-1,-1,-1,-1,-1,-1,-1,-1,-1,-1,-1,-1,-1,-1,-1,-1,-1,-1,-1,-1,-1,-1,-1,-1,-1,-1,-1,-1],"split_conditions":[3E1,1.5E1,5.2E1,9E0,2.4E1,1.3E1,6.7E1,1.8E1,1.16E2,9.3E1,3.22E2,1.23E1,1.79E1,2.42E2,3.7E1,1.81E1,1E1,2.01E1,1.55E1,2.28E1,2.35E2,2.8E1,3.53E2,8E0,3.1E1,1.26E2,5.2E1,7.9E1,5.2E1,5.8E1,2.1383207E0,-7.6481014E-1,-1.662507E-1,-6.800485E-1,-3.3418712E-1,-5.304288E-1,-2.4483586E-2,-3.3508453E-1,-5.03757E-1,-4.072598E-1,2.4092388E-1,-7.992848E-2,-2.7449763E-1,-8.1631295E-2,7.945907E-2,-5.344928E-1,2.4716973E-1,3.937547E-1,-1.3037972E-1,-5.7501364E-2,6.673436E0,-7.822069E-2,2.8374606E-1,5.6907314E-1,-1.4786473E-1,2.2464414E-1,1.1155677E0,5.6817204E-1,2.6637714E-4,1.3535376E0,2.873201E-1],"split_indices":[0,0,0,0,0,1,0,2,5,5,5,6,6,5,2,6,1,6,6,6,5,0,5,6,0,5,2,5,1,1,0,0,0,0,0,0,0,0,0,0,0,0,0,0,0,0,0,0,0,0,0,0,0,0,0,0,0,0,0,0,0],"split_type":[0,0,0,0,0,0,0,0,0,0,0,0,0,0,0,0,0,0,0,0,0,0,0,0,0,0,0,0,0,0,0,0,0,0,0,0,0,0,0,0,0,0,0,0,0,0,0,0,0,0,0,0,0,0,0,0,0,0,0,0,0],"sum_hessian":[1.317E3,8.86E2,4.31E2,2.67E2,6.19E2,3.45E2,8.6E1,6.9E1,1.98E2,4.2E2,1.99E2,9E0,3.36E2,6.6E1,2E1,4.5E1,2.4E1,6.1E1,1.37E2,8.6E1,3.34E2,1.88E2,1.1E1,7E0,2E0,2.41E2,9.5E1,5.4E1,1.2E1,1.2E1,8E0,4.4E1,1E0,7E0,1.7E1,5.9E1,2E0,9.6E1,4.1E1,8.4E1,2E0,1.74E2,1.6E2,1.33E2,5.5E1,1E1,1E0,5E0,2E0,1E0,1E0,5.5E1,1.86E2,9.1E1,4E0,6E0,4.8E1,7E0,5E0,9E0,3E0],"tree_param":{"num_deleted":"0","num_feature":"7","num_nodes":"61","size_leaf_vector":"1"}},{"base_weights":[-2.0413636E-1,-4.8960705E0,9.404129E0,-7.1115007E0,-2.0012605E0,6.851121E0,2.3269833E1,-1.0109713E1,-6.080399E0,-1.3949155E0,-6.422412E0,6.0302253E0,1.4368112E1,2.502062E1,7.011345E0,-2.248875E0,-1.0971281E1,-6.620611E0,-3.3439717E0,-2.2846045E0,1.1232747E0,-1.1431523E1,-3.9509244E0,6.434865E0,-1.9888498E0,1.630042E1,1.9898332E0,2.044487E1,3.4059387E1,7.084379E-1,-1.1685524E-1,-2.0903528E-1,3.1140366E-1,-5.6256205E-1,1.6621314E-1,-2.4554987E-1,-3.66345E-1,2.68877E-1,-2.0020154E-1,-1.2801526E-1,2.7831653E-1,7.797042E-2,-6.094894E-1,-6.130837E-1,-2.0118478E-1,-3.6823136E-1,-1.5240736E-2,2.8258762E-1,6.069436E-1,-1.813843E-2,-4.7281528E-1,6.825068E-1,1.2534125E0,2.5082716E-1,-3.2859287E-1,1.0991247E0,2.1812256E-1,2.180313E0,1.1576003E0,1.6628705E-1,-1.7602497E-1],"categories":[],"categories_nodes":[],"categories_segments":[],"categories_sizes":[],"default_left":[0,0,0,0,0,0,0,0,0,0,0,0,0,0,0,0,0,0,0,0,0,0,0,0,0,0,0,0,0,0,0,0,0,0,0,0,0,0,0,0,0,0,0,0,0,0,0,0,0,0,0,0,0,0,0,0,0,0,0,0,0],"id":5,"left_children":[1,3,5,7,9,11,13,15,17,19,21,23,25,27,29,31,33,35,37,39,41,43,45,47,49,51,53,55,57,-1,59,-1,-1,-1,-1,-1,-1,-1,-1,-1,-1,-1,-1,-1,-1,-1,-1,-1,-1,-1,-1,-1,-1,-1,-1,-1,-1,-1,-1,-1,-1],"loss_changes":[6.045505E4,5.7641055E3,1.5416242E4,1.5151738E3,1.0418926E3,2.2150156E3,1.760207E3,8.48999E2,5.4255273E2,7.777467E2,5.366926E2,1.1095527E3,8.286362E2,1.8265664E3,4.0981152E2,2.5530212E2,5.0165332E2,3.4799512E2,3.9571796E2,5.6836584E2,5.4738E2,4.2907104E1,4.0849744E2,1.3697305E3,2.029953E2,3.7816992E2,1.884505E2,9.6743555E2,9.689258E2,0E0,7.029513E1,0E0,0E0,0E0,0E0,0E0,0E0,0E0,0E0,0E0,0E0,0E0,0E0,0E0,0E0,0E0,0E0,0E0,0E0,0E0,0E0,0E0,0E0,0E0,0E0,0E0,0E0,0E0,0E0,0E0,0E0],"parents":[2147483647,0,0,1,1,2,2,3,3,4,4,5,5,6,6,7,7,8,8,9,9,10,10,11,11,12,12,13,13,14,14,15,15,16,16,17,17,18,18,19,19,20,20,21,21,22,22,23,23,24,24,25,25,26,26,27,27,28,28,30,30],"right_children":[2,4,6,8,10,12,14,16,18,20,22,24,26,28,30,32,34,36,38,40,42,44,46,48,50,52,54,56,58,-1,60,-1,-1,-1,-1,-1,-1,-1,-1,-1,-1,-1,-1,-1,-1,-1,-1,-1,-1,-1,-1,-1,-1,-1,-1,-1,-1,-1,-1,-1,-1],"split_conditions":[3E1,2E1,5.3E1,1.2E1,5.87E1,2.38E1,2.67E1,2.52E1,3.2E1,2.7E1,5.9E0,5.8E1,1.79E1,6.7E1,6.1E1,1.16E1,3.89E1,1.7E1,1.3E1,5.44E1,5.8E1,2.8E1,2.1E1,4.8E1,2.27E1,1.68E1,3.9E1,6.5E1,1.63E1,7.084379E-1,2.88E1,-2.0903528E-1,3.1140366E-1,-5.6256205E-1,1.6621314E-1,-2.4554987E-1,-3.66345E-1,2.68877E-1,-2.0020154E-1,-1.2801526E-1,2.7831653E-1,7.797042E-2,-6.094894E-1,-6.130837E-1,-2.0118478E-1,-3.6823136E-1,-1.5240736E-2,2.8258762E-1,6.069436E-1,-1.813843E-2,-4.7281528E-1,6.825068E-1,1.2534125E0,2.5082716E-1,-3.2859287E-1,1.0991247E0,2.1812256E-1,2.180313E0,1.1576003E0,1.6628705E-1,-1.7602497E-1],"split_indices":[0,0,0,0,4,6,3,4,2,0,6,2,3,0,0,6,3,3,0,4,4,0,2,0,3,3,2,0,3,0,3,0,0,0,0,0,0,0,0,0,0,0,0,0,0,0,0,0,0,0,0,0,0,0,0,0,0,0,0,0,0],"split_type":[0,0,0,0,0,0,0,0,0,0,0,0,0,0,0,0,0,0,0,0,0,0,0,0,0,0,0,0,0,0,0,0,0,0,0,0,0,0,0,0,0,0,0,0,0,0,0,0,0,0,0,0,0,0,0,0,0,0,0,0,0],"sum_hessian":[1.339E3,9E2,4.39E2,5.09E2,3.91E2,3.72E2,6.7E1,1.28E2,3.81E2,3.45E2,4.6E1,3.37E2,3.5E1,6E1,7E0,1.3E1,1.15E2,3.17E2,6.4E1,2.55E2,9E1,1.4E1,3.2E1,3.21E2,1.6E1,3E1,5E0,4.2E1,1.8E1,3E0,4E0,1.1E1,2E0,1.13E2,2E0,9.5E1,2.22E2,4E0,6E1,2.47E2,8E0,8.8E1,2E0,1.2E1,2E0,1.6E1,1.6E1,2.84E2,3.7E1,1.4E1,2E0,2.5E1,5E0,4E0,1E0,3.8E1,4E0,8E0,1E1,2E0,2E0],"tree_param":{"num_deleted":"0","num_feature":"7","num_nodes":"61","size_leaf_vector":"1"}},{"base_weights":[5.6395644E-1,-2.7025595E0,5.761037E0,-3.8009057E0,4.036475E0,-3.7768693E0,6.7623305E0,-7.285894E0,-2.7908337E0,7.1812904E-1,2.768765E1,-6.4143915E0,7.1509066E0,9.777671E0,2.5989556E0,-4.781169E0,-1.1435582E1,-2.134278E-1,-5.484147E0,3.4893208E0,-3.5951712E0,6.499536E0,9.818898E0,-7.528702E0,5.496577E0,7.7488346E0,4.4238903E-2,8.093209E0,2.002991E1,4.5778456E0,-2.3946795E0,-2.9909834E-1,1.1710482E-1,-5.8987606E-1,-4.337686E-2,-1.8067579E-1,5.65337E-2,-2.967608E-1,4.8741722E-1,1.1530471E-1,8.258442E-1,6.756234E-2,-2.5374085E-1,2.4181445E-1,1.7402552E0,4.2392556E-2,-4.432017E-1,1.8597698E-2,5.217611E-1,5.546012E-2,4.220069E-1,5.362972E-1,2.1728294E-1,1.5314572E-1,1.160752E0,4.3398353E-1,4.5360114E-2,2.9930562E-1,-2.6654014E-1],"categories":[],"categories_nodes":[],"categories_segments":[],"categories_sizes":[],"default_left":[0,0,0,0,0,0,0,0,0,0,0,0,0,0,0,0,0,0,0,0,0,0,0,0,0,0,0,0,0,0,0,0,0,0,0,0,0,0,0,0,0,0,0,0,0,0,0,0,0,0,0,0,0,0,0,0,0,0,0],"id":6,"left_children":[1,3,5,7,9,11,13,15,17,19,21,23,25,27,29,31,33,35,37,39,41,-1,43,45,47,49,-1,51,53,55,57,-1,-1,-1,-1,-1,-1,-1,-1,-1,-1,-1,-1,-1,-1,-1,-1,-1,-1,-1,-1,-1,-1,-1,-1,-1,-1,-1,-1],"loss_changes":[2.2390393E4,6.010795E3,4.886615E3,2.43317E3,8.927154E3,1.4581589E3,5.7619766E3,1.5667617E3,3.7612632E3,1.2197959E3,2.4316031E4,5.7228284E2,3.0610931E1,4.4488516E3,1.937924E3,8.608169E2,2.1161426E2,1.2745634E3,1.8786475E3,9.176131E2,2.996151E2,0E0,1.450127E3,4.213777E2,9.735336E1,3.1948181E1,0E0,2.232505E3,1.9284512E3,2.100013E3,1.409905E3,0E0,0E0,0E0,0E0,0E0,0E0,0E0,0E0,0E0,0E0,0E0,0E0,0E0,0E0,0E0,0E0,0E0,0E0,0E0,0E0,0E0,0E0,0E0,0E0,0E0,0E0,0E0,0E0],"parents":[2147483647,0,0,1,1,2,2,3,3,4,4,5,5,6,6,7,7,8,8,9,9,10,10,11,11,12,12,13,13,14,14,15,15,16,16,17,17,18,18,19,19,20,20,22,22,23,23,24,24,25,25,27,27,28,28,29,29,30,30],"right_children":[2,4,6,8,10,12,14,16,18,20,22,24,26,28,30,32,34,36,38,40,42,-1,44,46,48,50,-1,52,54,56,58,-1,-1,-1,-1,-1,-1,-1,-1,-1,-1,-1,-1,-1,-1,-1,-1,-1,-1,-1,-1,-1,-1,-1,-1,-1,-1,-1,-1],"split_conditions":[2.8E1,3.1E1,5.4E1,9.2E1,1.73E1,1.64E1,2.19E2,1.91E1,2.31E2,2.39E2,1.75E1,5.7E1,5.2E1,5.5E1,2.79E2,1.98E1,1.86E1,1.57E2,3.53E2,2.7E1,1.35E1,6.499536E0,2.63E1,1.15E1,2.25E1,2.6E1,4.4238903E-2,3.7E1,8.5E1,1.05E1,1.35E1,-2.9909834E-1,1.1710482E-1,-5.8987606E-1,-4.337686E-2,-1.8067579E-1,5.65337E-2,-2.967608E-1,4.8741722E-1,1.1530471E-1,8.258442E-1,6.756234E-2,-2.5374085E-1,2.4181445E-1,1.7402552E0,4.2392556E-2,-4.432017E-1,1.8597698E-2,5.217611E-1,5.546012E-2,4.220069E-1,5.362972E-1,2.1728294E-1,1.5314572E-1,1.160752E0,4.3398353E-1,4.5360114E-2,2.9930562E-1,-2.6654014E-1],"split_indices":[1,2,5,5,6,6,5,3,5,5,6,1,1,1,5,6,6,5,5,1,3,0,6,3,3,2,0,2,5,6,3,0,0,0,0,0,0,0,0,0,0,0,0,0,0,0,0,0,0,0,0,0,0,0,0,0,0,0,0],"split_type":[0,0,0,0,0,0,0,0,0,0,0,0,0,0,0,0,0,0,0,0,0,0,0,0,0,0,0,0,0,0,0,0,0,0,0,0,0,0,0,0,0,0,0,0,0,0,0,0,0,0,0,0,0,0,0,0,0,0,0],"sum_hessian":[1.317E3,8.09E2,5.08E2,6.96E2,1.13E2,4.8E1,4.6E2,1.55E2,5.41E2,1E2,1.3E1,3.9E1,9E0,2.66E2,1.94E2,9.8E1,5.7E1,2.77E2,2.64E2,6.1E1,3.9E1,1E0,1.2E1,3.6E1,3E0,8E0,1E0,2.3E2,3.6E1,1.39E2,5.5E1,8.4E1,1.4E1,5.5E1,2E0,7.8E1,1.99E2,2.57E2,7E0,5.7E1,4E0,9E0,3E1,1.1E1,1E0,5E0,3.1E1,2E0,1E0,1E0,7E0,1.34E2,9.6E1,6E0,3E1,6.5E1,7.4E1,1.4E1,4.1E1],"tree_param":{"num_deleted":"0","num_feature":"7","num_nodes":"59","size_leaf_vector":"1"}},{"base_weights":[3.7558824E-2,-4.789315E0,8.114712E0,-8.381503E0,-3.0896494E0,5.681E0,1.9180326E1,-1.1047225E1,-7.4644923E0,-4.1477923E0,-8.2183355E-1,2.584377E1,5.109464E0,2.5896784E1,1.4129586E1,3.061718E-1,-1.178464E1,-7.600359E0,-6.184494E-1,-2.2709303E0,-5.4302325E0,-1.7472227E-1,-3.9857754E-1,3.0799556E0,6.3370476E0,7.436214E0,2.9483163E0,2.8365694E1,-1.5631576E0,1.4686154E1,-3.7029836E-1,-2.6279742E-1,5.638663E-1,-6.07958E-1,2.7652583E-1,-4.5836446E-1,-3.47999E-1,-9.58411E-2,1.1437602E-1,-2.4413493E-1,-6.100244E-2,-4.5564643E-1,-2.4345453E-1,4.1108456E-2,-1.7338261E-1,2.74642E-1,-2.190527E-1,4.0252694E-1,-4.930922E-1,-2.0812789E-1,2.1324268E-1,4.7005843E-2,1.5025208E0,1.8288089E-2,-1.1640257E-1,2.4411683E-1,8.051348E-1],"categories":[],"categories_nodes":[],"categories_segments":[],"categories_sizes":[],"default_left":[0,0,0,0,0,0,0,0,0,0,0,0,0,0,0,0,0,0,0,0,0,0,0,0,0,0,0,0,0,0,0,0,0,0,0,0,0,0,0,0,0,0,0,0,0,0,0,0,0,0,0,0,0,0,0,0,0],"id":7,"left_children":[1,3,5,7,9,11,13,15,17,19,21,23,25,27,29,31,33,35,37,39,41,43,-1,45,-1,47,49,51,53,55,-1,-1,-1,-1,-1,-1,-1,-1,-1,-1,-1,-1,-1,-1,-1,-1,-1,-1,-1,-1,-1,-1,-1,-1,-1,-1,-1],"loss_changes":[5.169717E4,5.0416875E3,1.3248572E4,5.6777344E2,1.3524067E3,4.5696436E3,2.6532422E3,5.561709E2,1.8225977E2,9.143491E2,8.3603314E2,2.4874494E4,1.9793994E3,2.5527969E3,7.4402246E2,3.643874E2,4.6930762E2,1.3387012E2,2.3249928E1,4.2769897E2,4.2679395E2,5.510608E2,0E0,2.0408995E2,0E0,2.109081E3,1.9649924E3,1.5427012E3,6.7531843E0,6.435332E2,0E0,0E0,0E0,0E0,0E0,0E0,0E0,0E0,0E0,0E0,0E0,0E0,0E0,0E0,0E0,0E0,0E0,0E0,0E0,0E0,0E0,0E0,0E0,0E0,0E0,0E0,0E0],"parents":[2147483647,0,0,1,1,2,2,3,3,4,4,5,5,6,6,7,7,8,8,9,9,10,10,11,11,12,12,13,13,14,14,15,15,16,16,17,17,18,18,19,19,20,20,21,21,23,23,25,25,26,26,27,27,28,28,29,29],"right_children":[2,4,6,8,10,12,14,16,18,20,22,24,26,28,30,32,34,36,38,40,42,44,-1,46,-1,48,50,52,54,56,-1,-1,-1,-1,-1,-1,-1,-1,-1,-1,-1,-1,-1,-1,-1,-1,-1,-1,-1,-1,-1,-1,-1,-1,-1,-1,-1],"split_conditions":[2.8E1,1.5E1,5.2E1,9E0,2.3E1,1.3E1,1.79E1,1.12E1,3.76E1,1.88E1,3.49E1,2.5E1,1.79E1,2.57E2,8.1E1,1E1,4.59E1,1.03E2,3.1E1,9.2E1,9.3E1,2.61E2,-3.9857754E-1,2.05E1,6.3370476E0,5.9E1,1.26E2,8.8E1,2.7E1,1.8E1,-3.7029836E-1,-2.6279742E-1,5.638663E-1,-6.07958E-1,2.7652583E-1,-4.5836446E-1,-3.47999E-1,-9.58411E-2,1.1437602E-1,-2.4413493E-1,-6.100244E-2,-4.5564643E-1,-2.4345453E-1,4.1108456E-2,-1.7338261E-1,2.74642E-1,-2.190527E-1,4.0252694E-1,-4.930922E-1,-2.0812789E-1,2.1324268E-1,4.7005843E-2,1.5025208E0,1.8288089E-2,-1.1640257E-1,2.4411683E-1,8.051348E-1],"split_indices":[0,0,0,0,0,1,3,3,3,3,3,2,3,5,1,1,3,5,1,5,5,5,0,3,0,1,5,5,1,2,0,0,0,0,0,0,0,0,0,0,0,0,0,0,0,0,0,0,0,0,0,0,0,0,0,0,0],"split_type":[0,0,0,0,0,0,0,0,0,0,0,0,0,0,0,0,0,0,0,0,0,0,0,0,0,0,0,0,0,0,0,0,0,0,0,0,0,0,0,0,0,0,0,0,0,0,0,0,0,0,0,0,0,0,0,0,0],"sum_hessian":[1.324E3,8.29E2,4.95E2,2.65E2,5.64E2,4.07E2,8.8E1,6.5E1,2E2,3.84E2,1.8E2,1E1,3.97E2,3.6E1,5.2E1,4E0,6.1E1,1.96E2,4E0,1.57E2,2.27E2,1.66E2,1.4E1,9E0,1E0,1.9E2,2.07E2,3.3E1,3E0,5.1E1,1E0,3E0,1E0,6E1,1E0,5.3E1,1.43E2,3E0,1E0,4.4E1,1.13E2,2.8E1,1.99E2,1.28E2,3.8E1,7E0,2E0,1.84E2,6E0,3.2E1,1.75E2,2E0,3.1E1,1E0,2E0,7E0,4.4E1],"tree_param":{"num_deleted":"0","num_feature":"7","num_nodes":"57","size_leaf_vector":"1"}},{"base_weights":[2.619292E-1,-2.4651554E0,4.701731E0,-2.721209E0,1.3619502E1,-1.1055176E0,5.90204E0,-6.926837E0,-1.881038E0,1.9621834E1,7.4153156E0,-4.5414166E0,8.652698E0,9.588115E0,1.815848E0,6.136536E0,-7.171256E0,-4.6340576E-1,-4.442659E0,5.026358E-1,1.6866856E0,-3.535762E-2,4.3383452E-1,-5.676231E0,7.5636306E0,6.508287E0,1.7211576E1,7.385476E0,1.794086E1,3.5139055E0,-2.5830119E0,4.0097095E-2,4.2014313E-1,-2.8095675E-1,-4.9754462E-1,-2.1463373E-1,9.235609E-2,5.7709223E-1,-2.3812445E-1,7.1751326E-3,-3.990197E-1,5.896415E-1,-3.3955917E-1,1.3048057E-1,4.2034173E-1,2.8914882E-2,1.1281619E0,3.3611986E-1,1.0193478E0,7.145444E-1,1.214404E0,1.5005796E-1,8.584013E-1,1.480508E-1,-3.7432683E-1],"categories":[],"categories_nodes":[],"categories_segments":[],"categories_sizes":[],"default_left":[0,0,0,0,0,0,0,0,0,0,0,0,0,0,0,0,0,0,0,0,0,0,0,0,0,0,0,0,0,0,0,0,0,0,0,0,0,0,0,0,0,0,0,0,0,0,0,0,0,0,0,0,0,0,0],"id":8,"left_children":[1,3,5,7,9,11,13,15,17,19,21,23,25,27,29,31,33,35,37,-1,-1,-1,-1,39,41,43,45,47,49,51,53,-1,-1,-1,-1,-1,-1,-1,-1,-1,-1,-1,-1,-1,-1,-1,-1,-1,-1,-1,-1,-1,-1,-1,-1],"loss_changes":[1.6005882E4,3.4101436E3,3.5126836E3,2.838462E3,3.3861255E2,2.9562524E3,6.2634473E3,4.7185986E2,2.445529E3,4.7111377E2,8.809952E1,9.358368E2,3.101184E2,3.8966777E3,1.4955104E3,2.9531197E1,5.1357666E2,3.8566487E3,1.2819253E3,0E0,0E0,0E0,0E0,8.057218E2,4.4434354E2,1.2609784E2,3.4301428E2,1.3716279E3,6.954238E2,9.566345E2,1.5445432E3,0E0,0E0,0E0,0E0,0E0,0E0,0E0,0E0,0E0,0E0,0E0,0E0,0E0,0E0,0E0,0E0,0E0,0E0,0E0,0E0,0E0,0E0,0E0,0E0],"parents":[2147483647,0,0,1,1,2,2,3,3,4,4,5,5,6,6,7,7,8,8,9,9,10,10,11,11,12,12,13,13,14,14,15,15,16,16,17,17,18,18,23,23,24,24,25,25,26,26,27,27,28,28,29,29,30,30],"right_children":[2,4,6,8,10,12,14,16,18,20,22,24,26,28,30,32,34,36,38,-1,-1,-1,-1,40,42,44,46,48,50,52,54,-1,-1,-1,-1,-1,-1,-1,-1,-1,-1,-1,-1,-1,-1,-1,-1,-1,-1,-1,-1,-1,-1,-1,-1],"split_conditions":[2.8E1,2.51E1,9.1E1,1.2E1,1.19E2,1.72E1,2.19E2,1.55E1,2.42E2,9.8E1,1.8E1,6.6E1,8.5E1,5.1E1,2.79E2,5E0,2.31E2,1.29E2,1.91E1,5.026358E-1,1.6866856E0,-3.535762E-2,4.3383452E-1,2.56E1,1.02E1,1.98E1,2.9E1,2.68E1,1.8E2,4.04E1,3.31E1,4.0097095E-2,4.2014313E-1,-2.8095675E-1,-4.9754462E-1,-2.1463373E-1,9.235609E-2,5.7709223E-1,-2.3812445E-1,7.1751326E-3,-3.990197E-1,5.896415E-1,-3.3955917E-1,1.3048057E-1,4.2034173E-1,2.8914882E-2,1.1281619E0,3.3611986E-1,1.0193478E0,7.145444E-1,1.214404E0,1.5005796E-1,8.584013E-1,1.480508E-1,-3.7432683E-1],"split_indices":[1,6,5,1,5,6,5,4,5,5,1,1,5,1,5,1,5,5,4,0,0,0,0,4,6,6,1,6,5,3,4,0,0,0,0,0,0,0,0,0,0,0,0,0,0,0,0,0,0,0,0,0,0,0,0],"split_type":[0,0,0,0,0,0,0,0,0,0,0,0,0,0,0,0,0,0,0,0,0,0,0,0,0,0,0,0,0,0,0,0,0,0,0,0,0,0,0,0,0,0,0,0,0,0,0,0,0,0,0,0,0,0,0],"sum_hessian":[1.32E3,8.18E2,5.02E2,8.06E2,1.2E1,8.6E1,4.16E2,1.33E2,6.73E2,5E0,7E0,6.4E1,2.2E1,2.18E2,1.98E2,2E0,1.31E2,4.34E2,2.39E2,4E0,1E0,1E0,6E0,5.9E1,5E0,1.9E1,3E0,1.74E2,4.4E1,1.43E2,5.5E1,1E0,1E0,8.6E1,4.5E1,1.63E2,2.71E2,4E0,2.35E2,1.7E1,4.2E1,4E0,1E0,7E0,1.2E1,1E0,2E0,1.67E2,7E0,3E1,1.4E1,1.39E2,4E0,2.6E1,2.9E1],"tree_param":{"num_deleted":"0","num_feature":"7","num_nodes":"55","size_leaf_vector":"1"}},{"base_weights":[2.7077788E-2,-2.4096591E0,4.1181493E0,-3.5492702E0,1.6974888E0,5.0385075E0,-4.0633664E0,-5.8553805E0,-2.0284286E0,2.3766752E1,2.5098348E-1,-1.3034637E0,6.5606794E0,7.014617E0,-6.0298896E0,-8.623726E0,-4.6976166E0,1.7336239E0,-3.0545201E0,6.1763124E0,1.4381794E0,-8.176589E-1,1.31375885E1,-4.453521E0,7.0197473E0,5.125111E0,1.339563E1,-8.275445E-1,9.766595E0,-1.3185208E0,-8.027532E0,4.6188568E-4,-4.835143E-1,-9.323237E-2,-3.7864113E-1,-8.058094E-2,1.9116138E-1,-3.6482733E-1,-9.174016E-2,-1.4928822E-1,1.0313419E0,-2.4322596E-1,3.5131257E-2,9.5028144E-1,3.54718E-1,-2.6903465E-1,5.2837217E-1,2.86383E-1,9.1844386E-1,3.126796E-1,2.5259836E-2,8.6292076E-1,3.1316358E-1,-1.1268635E-1,5.0620507E-2,6.0123295E-1,-3.809314E-2,-1.6334046E-1,2.184451E-1,-2.9711407E-1,-5.330109E-1],"categories":[],"categories_nodes":[],"categories_segments":[],"categories_sizes":[],"default_left":[0,0,0,0,0,0,0,0,0,0,0,0,0,0,0,0,0,0,0,0,0,0,0,0,0,0,0,0,0,0,0,0,0,0,0,0,0,0,0,0,0,0,0,0,0,0,0,0,0,0,0,0,0,0,0,0,0,0,0,0,0],"id":9,"left_children":[1,3,5,7,9,11,13,15,17,19,21,23,25,27,29,31,33,35,37,-1,39,41,43,45,47,49,51,53,55,57,59,-1,-1,-1,-1,-1,-1,-1,-1,-1,-1,-1,-1,-1,-1,-1,-1,-1,-1,-1,-1,-1,-1,-1,-1,-1,-1,-1,-1,-1,-1],"loss_changes":[1.3059168E4,3.8487578E3,3.7026064E3,2.2432695E3,5.708307E3,4.256122E3,1.131553E3,7.767871E2,1.506917E3,2.4324707E4,2.33807E3,2.2860613E3,3.41462E3,1.8073398E2,3.9411572E2,6.6867285E2,1.4683367E3,5.9334106E2,1.5698779E3,0E0,9.104823E2,9.693412E2,3.2617188E2,9.342626E2,2.4672693E2,1.5348188E3,1.5725029E3,1.0154029E1,1.5180475E2,1.6940273E2,1.0134827E2,0E0,0E0,0E0,0E0,0E0,0E0,0E0,0E0,0E0,0E0,0E0,0E0,0E0,0E0,0E0,0E0,0E0,0E0,0E0,0E0,0E0,0E0,0E0,0E0,0E0,0E0,0E0,0E0,0E0,0E0],"parents":[2147483647,0,0,1,1,2,2,3,3,4,4,5,5,6,6,7,7,8,8,9,9,10,10,11,11,12,12,13,13,14,14,15,15,16,16,17,17,18,18,20,20,21,21,22,22,23,23,24,24,25,25,26,26,27,27,28,28,29,29,30,30],"right_children":[2,4,6,8,10,12,14,16,18,20,22,24,26,28,30,32,34,36,38,-1,40,42,44,46,48,50,52,54,56,58,60,-1,-1,-1,-1,-1,-1,-1,-1,-1,-1,-1,-1,-1,-1,-1,-1,-1,-1,-1,-1,-1,-1,-1,-1,-1,-1,-1,-1,-1,-1],"split_conditions":[2.8E1,1.72E1,2.79E2,1.6E1,1.75E1,9.3E1,1.25E1,9.8E1,2.92E1,1.3E1,2.51E1,1.72E1,5.1E1,1.01E1,2.92E2,2.2E1,2.3E2,1.01E2,1.57E2,6.1763124E0,2.7E1,1.86E1,1.19E2,6.6E1,2.21E1,2.84E1,2.16E2,4E1,4E1,3.01E1,2.14E1,4.6188568E-4,-4.835143E-1,-9.323237E-2,-3.7864113E-1,-8.058094E-2,1.9116138E-1,-3.6482733E-1,-9.174016E-2,-1.4928822E-1,1.0313419E0,-2.4322596E-1,3.5131257E-2,9.5028144E-1,3.54718E-1,-2.6903465E-1,5.2837217E-1,2.86383E-1,9.1844386E-1,3.126796E-1,2.5259836E-2,8.6292076E-1,3.1316358E-1,-1.1268635E-1,5.0620507E-2,6.0123295E-1,-3.809314E-2,-1.6334046E-1,2.184451E-1,-2.9711407E-1,-5.330109E-1],"split_indices":[1,6,5,1,6,5,3,5,4,1,6,6,1,3,5,4,5,5,5,0,1,6,5,1,3,3,5,1,1,3,3,0,0,0,0,0,0,0,0,0,0,0,0,0,0,0,0,0,0,0,0,0,0,0,0,0,0,0,0,0,0],"split_type":[0,0,0,0,0,0,0,0,0,0,0,0,0,0,0,0,0,0,0,0,0,0,0,0,0,0,0,0,0,0,0,0,0,0,0,0,0,0,0,0,0,0,0,0,0,0,0,0,0,0,0,0,0,0,0,0,0,0,0,0,0],"sum_hessian":[1.308E3,8.2E2,4.88E2,6.42E2,1.78E2,4.39E2,4.9E1,2.54E2,3.88E2,1E1,1.68E2,8.5E1,3.54E2,7E0,4.2E1,7.3E1,1.81E2,8.3E1,3.05E2,1E0,9E0,1.56E2,1.2E1,6.2E1,2.3E1,2.94E2,6E1,2E0,5E0,1.3E1,2.9E1,8E0,6.5E1,9.2E1,8.9E1,3.2E1,5.1E1,6.7E1,2.38E2,8E0,1E0,4.2E1,1.14E2,5E0,7E0,5.9E1,3E0,2.2E1,1E0,2.36E2,5.8E1,3.8E1,2.2E1,1E0,1E0,4E0,1E0,1E1,3E0,1.8E1,1.1E1],"tree_param":{"num_deleted":"0","num_feature":"7","num_nodes":"61","size_leaf_vector":"1"}},{"base_weights":[1.23016186E-1,-3.936533E0,8.40158E0,-7.543163E0,-2.5036309E0,6.3274183E0,1.9221773E1,-9.145716E0,-5.969096E0,-3.9110944E0,-4.6156517E-1,2.9775835E1,5.649076E0,9.028045E0,2.380122E1,-3.0428183E0,-9.908658E0,-4.8924565E0,-7.627029E0,-6.7132974E0,-3.1857483E0,3.7097728E-1,-4.2247562E0,5.068009E0,8.573809E1,4.606903E0,1.1249893E1,1.1954784E1,-1.2568464E0,2.527596E1,-3.1268185E-1,-2.3940234E-1,2.767056E-1,-5.0510234E-1,2.695973E-1,-2.563213E-1,1.4497818E-1,-3.9679053E-1,-1.2355582E-2,-5.636437E-2,-3.6769485E-1,7.167328E-2,-1.8919057E-1,6.0737636E-2,-1.5466584E-1,-9.9535234E-2,-4.6742707E-1,3.638498E-1,-2.5987244E-1,6.0219045E0,4.084525E-1,8.734948E-2,3.0105272E-1,3.0427143E-1,6.700084E-1,-2.4492493E-1,6.6171503E-1,2.1298957E-1,-1.6060661E-1,1.6000067E-1,1.3114165E0],"categories":[],"categories_nodes":[],"categories_segments":[],"categories_sizes":[],"default_left":[0,0,0,0,0,0,0,0,0,0,0,0,0,0,0,0,0,0,0,0,0,0,0,0,0,0,0,0,0,0,0,0,0,0,0,0,0,0,0,0,0,0,0,0,0,0,0,0,0,0,0,0,0,0,0,0,0,0,0,0,0],"id":10,"left_children":[1,3,5,7,9,11,13,15,17,19,21,23,25,27,29,31,33,35,37,39,41,43,45,47,49,51,53,55,57,59,-1,-1,-1,-1,-1,-1,-1,-1,-1,-1,-1,-1,-1,-1,-1,-1,-1,-1,-1,-1,-1,-1,-1,-1,-1,-1,-1,-1,-1,-1,-1],"loss_changes":[4.412577E4,4.534076E3,9.57368E3,5.7604004E2,1.8146472E3,5.6215996E3,3.0061523E3,5.379004E2,1.929497E2,7.3879346E2,8.1301855E2,1.3392536E4,2.0203145E3,7.0735266E2,2.2412578E3,2.5102812E2,3.740381E2,1.6253503E2,1.09698975E2,2.636682E2,8.314363E2,6.2637494E2,5.193894E2,2.1923189E2,7.0910723E3,1.2068306E3,5.2923047E2,4.529812E2,7.840263E1,8.6216797E2,0E0,0E0,0E0,0E0,0E0,0E0,0E0,0E0,0E0,0E0,0E0,0E0,0E0,0E0,0E0,0E0,0E0,0E0,0E0,0E0,0E0,0E0,0E0,0E0,0E0,0E0,0E0,0E0,0E0,0E0,0E0],"parents":[2147483647,0,0,1,1,2,2,3,3,4,4,5,5,6,6,7,7,8,8,9,9,10,10,11,11,12,12,13,13,14,14,15,15,16,16,17,17,18,18,19,19,20,20,21,21,22,22,23,23,24,24,25,25,26,26,27,27,28,28,29,29],"right_children":[2,4,6,8,10,12,14,16,18,20,22,24,26,28,30,32,34,36,38,40,42,44,46,48,50,52,54,56,58,60,-1,-1,-1,-1,-1,-1,-1,-1,-1,-1,-1,-1,-1,-1,-1,-1,-1,-1,-1,-1,-1,-1,-1,-1,-1,-1,-1,-1,-1,-1,-1],"split_conditions":[3E1,1.5E1,5.5E1,1.2E1,2.3E1,1.3E1,7.6E0,2.52E1,1.4E1,9.3E1,2.82E2,3.8E1,2.18E1,7E0,2.72E2,2.41E1,8.78E1,1.95E1,6.98E1,-2.5E0,2.74E1,3.3E1,3.96E1,8E0,4.2E1,1.56E2,1.16E2,2.3E0,5.7E1,5.1E1,-3.1268185E-1,-2.3940234E-1,2.767056E-1,-5.0510234E-1,2.695973E-1,-2.563213E-1,1.4497818E-1,-3.9679053E-1,-1.2355582E-2,-5.636437E-2,-3.6769485E-1,7.167328E-2,-1.8919057E-1,6.0737636E-2,-1.5466584E-1,-9.9535234E-2,-4.6742707E-1,3.638498E-1,-2.5987244E-1,6.0219045E0,4.084525E-1,8.734948E-2,3.0105272E-1,3.0427143E-1,6.700084E-1,-2.4492493E-1,6.6171503E-1,2.1298957E-1,-1.6060661E-1,1.6000067E-1,1.3114165E0],"split_indices":[0,0,0,0,0,1,6,4,0,5,5,0,6,6,5,4,4,6,4,6,4,1,4,6,0,5,5,6,0,5,0,0,0,0,0,0,0,0,0,0,0,0,0,0,0,0,0,0,0,0,0,0,0,0,0,0,0,0,0,0,0],"split_type":[0,0,0,0,0,0,0,0,0,0,0,0,0,0,0,0,0,0,0,0,0,0,0,0,0,0,0,0,0,0,0,0,0,0,0,0,0,0,0,0,0,0,0,0,0,0,0,0,0,0,0,0,0,0,0,0,0,0,0,0,0],"sum_hessian":[1.311E3,8.8E2,4.31E2,2.49E2,6.31E2,3.63E2,6.8E1,1.21E2,1.28E2,3.73E2,2.58E2,9E0,3.54E2,2.2E1,4.6E1,1.4E1,1.07E2,8E1,4.8E1,7.5E1,2.98E2,2.12E2,4.6E1,7E0,2E0,3E2,5.4E1,1.7E1,5E0,4.4E1,2E0,1.2E1,2E0,1.06E2,1E0,7.8E1,2E0,4.6E1,2E0,8E0,6.7E1,3.4E1,2.64E2,1.71E2,4.1E1,3.3E1,1.3E1,6E0,1E0,1E0,1E0,1E2,2E2,1.7E1,3.7E1,1E0,1.6E1,1E0,4E0,2E0,4.2E1],"tree_param":{"num_deleted":"0","num_feature":"7","num_nodes":"61","size_leaf_vector":"1"}},{"base_weights":[1.3717316E-1,-4.1370125E0,7.152045E0,-7.343843E0,-2.7232502E0,5.408915E0,1.6080679E1,-7.518187E0,2.7026386E0,-3.215103E0,-3.215201E-1,2.6322727E1,4.833216E0,2.4532017E1,1.2091835E1,-9.930444E0,-6.7039967E0,3.773306E0,-3.950076E-2,-3.587161E0,-1.9903402E-1,-3.6145942E0,7.953498E-1,4.3073416E0,8.359464E1,4.090699E0,1.21879635E1,1.58576355E1,1.9095591E0,1.2847232E1,-1.1289783E0,-1.13611236E-1,-5.292666E-1,-3.4913418E-1,-5.3648796E-2,9.3154906E-4,2.509327E-1,-1.1453626E-1,-2.3067062E-1,-9.911938E-2,1.6893654E-1,-1.0122567E-1,-3.1082296E-1,-5.2454114E-2,1.7677431E-1,3.0563188E-1,-2.5337562E-1,5.871357E0,3.9824125E-1,2.2903013E-1,-1.966848E-1,6.3373435E-1,-1.3335167E-1,1.2318059E0,5.6307393E-1,2.695431E-1,7.2096705E-1,-3.2941505E-1,3.8122472E-1],"categories":[],"categories_nodes":[],"categories_segments":[],"categories_sizes":[],"default_left":[0,0,0,0,0,0,0,0,0,0,0,0,0,0,0,0,0,0,0,0,0,0,0,0,0,0,0,0,0,0,0,0,0,0,0,0,0,0,0,0,0,0,0,0,0,0,0,0,0,0,0,0,0,0,0,0,0,0,0],"id":11,"left_children":[1,3,5,7,9,11,13,15,17,19,21,23,25,27,29,31,33,35,-1,37,39,41,43,45,47,49,51,53,-1,55,57,-1,-1,-1,-1,-1,-1,-1,-1,-1,-1,-1,-1,-1,-1,-1,-1,-1,-1,-1,-1,-1,-1,-1,-1,-1,-1,-1,-1],"loss_changes":[3.9517023E4,3.6930977E3,7.679342E3,4.5820508E2,6.7230615E2,4.9175615E3,2.433957E3,4.165791E2,2.1678322E1,5.3006494E2,3.6331253E2,1.3509426E4,2.1837021E3,2.3565E3,5.837617E2,2.7686426E2,2.8596484E2,1.8610004E1,0E0,5.495596E2,3.4486014E2,9.0844086E1,3.7770468E2,1.8329533E2,6.740949E3,1.4843486E3,3.0132373E2,4.0846484E2,0E0,5.5526855E2,2.4138457E2,0E0,0E0,0E0,0E0,0E0,0E0,0E0,0E0,0E0,0E0,0E0,0E0,0E0,0E0,0E0,0E0,0E0,0E0,0E0,0E0,0E0,0E0,0E0,0E0,0E0,0E0,0E0,0E0],"parents":[2147483647,0,0,1,1,2,2,3,3,4,4,5,5,6,6,7,7,8,8,9,9,10,10,11,11,12,12,13,13,14,14,15,15,16,16,17,17,19,19,20,20,21,21,22,22,23,23,24,24,25,25,26,26,27,27,29,29,30,30],"right_children":[2,4,6,8,10,12,14,16,18,20,22,24,26,28,30,32,34,36,-1,38,40,42,44,46,48,50,52,54,-1,56,58,-1,-1,-1,-1,-1,-1,-1,-1,-1,-1,-1,-1,-1,-1,-1,-1,-1,-1,-1,-1,-1,-1,-1,-1,-1,-1,-1,-1],"split_conditions":[2.8E1,1.5E1,5.2E1,3.81E1,2.5E1,1.3E1,1.64E1,9E0,1.3E1,1.98E1,1.8E1,1.45E1,2.38E1,7.1E1,8.1E1,1.12E1,5E1,1.5E1,-3.950076E-2,1.95E1,2.01E1,2.17E1,1.97E1,2.5E1,4.2E1,5.6E1,2.03E1,3.7E1,1.9095591E0,2.1E1,7.9E1,-1.13611236E-1,-5.292666E-1,-3.4913418E-1,-5.3648796E-2,9.3154906E-4,2.509327E-1,-1.1453626E-1,-2.3067062E-1,-9.911938E-2,1.6893654E-1,-1.0122567E-1,-3.1082296E-1,-5.2454114E-2,1.7677431E-1,3.0563188E-1,-2.5337562E-1,5.871357E0,3.9824125E-1,2.2903013E-1,-1.966848E-1,6.3373435E-1,-1.3335167E-1,1.2318059E0,5.6307393E-1,2.695431E-1,7.2096705E-1,-3.2941505E-1,3.8122472E-1],"split_indices":[0,0,0,3,0,1,3,0,0,6,2,6,6,0,1,3,2,1,0,3,3,3,3,2,0,1,3,1,0,2,0,0,0,0,0,0,0,0,0,0,0,0,0,0,0,0,0,0,0,0,0,0,0,0,0,0,0,0,0],"split_type":[0,0,0,0,0,0,0,0,0,0,0,0,0,0,0,0,0,0,0,0,0,0,0,0,0,0,0,0,0,0,0,0,0,0,0,0,0,0,0,0,0,0,0,0,0,0,0,0,0,0,0,0,0,0,0,0,0,0,0],"sum_hessian":[1.316E3,8.18E2,4.98E2,2.49E2,5.69E2,4.18E2,8E1,2.45E2,4E0,4.72E2,9.7E1,1E1,4.08E2,2.4E1,5.6E1,5.9E1,1.86E2,3E0,1E0,4.2E2,5.2E1,2.4E1,7.3E1,8E0,2E0,3.72E2,3.6E1,1.6E1,8E0,5.3E1,3E0,5E0,5.4E1,1.77E2,9E0,1E0,2E0,1.87E2,2.33E2,3.5E1,1.7E1,1.6E1,8E0,4.4E1,2.9E1,7E0,1E0,1E0,1E0,3.51E2,2.1E1,3.5E1,1E0,4E0,1.2E1,1E1,4.3E1,2E0,1E0],"tree_param":{"num_deleted":"0","num_feature":"7","num_nodes":"59","size_leaf_vector":"1"}},{"base_weights":[2.7807228E-2,-3.3253193E0,7.6054726E0,-5.2477775E0,-5.02624E-1,5.137902E0,1.6407907E1,-8.154293E0,-4.2850432E0,3.4191027E-1,-5.4666843E0,2.266389E0,6.590214E0,1.7820917E1,5.0206423E-2,2.1991107E0,-8.489776E0,-2.3888767E0,-5.127532E0,-1.0645125E-1,1.5747484E1,-9.139336E0,-3.3764884E0,6.94865E-1,1.2768416E1,1.6341448E1,3.5209477E0,1.4829741E1,2.8209478E1,3.7198955E-1,-3.6529534E0,5.5504704E-1,-1.400791E-1,-4.3175745E-1,2.5658402E-1,6.1974294E-2,-1.7086065E-1,-2.7905557E-1,-5.5948894E-6,2.1284215E-1,-3.208169E-2,1.3296285E0,8.7645054E-2,1.7523041E-1,-5.416506E-1,4.650643E-1,-2.1979034E-1,-3.478069E-1,7.391806E-2,3.2214555E-1,9.086753E-1,5.705146E-1,2.2501397E0,-3.232465E-2,2.7860332E-1,1.8422914E-1,7.848547E-1,1.6173409E0,-9.401881E-2,-3.0615348E-1,-4.4356417E-2],"categories":[],"categories_nodes":[],"categories_segments":[],"categories_sizes":[],"default_left":[0,0,0,0,0,0,0,0,0,0,0,0,0,0,0,0,0,0,0,0,0,0,0,0,0,0,0,0,0,0,0,0,0,0,0,0,0,0,0,0,0,0,0,0,0,0,0,0,0,0,0,0,0,0,0,0,0,0,0,0,0],"id":12,"left_children":[1,3,5,7,9,11,13,15,17,19,21,23,25,27,29,31,33,35,37,39,41,43,45,47,49,51,53,55,57,-1,59,-1,-1,-1,-1,-1,-1,-1,-1,-1,-1,-1,-1,-1,-1,-1,-1,-1,-1,-1,-1,-1,-1,-1,-1,-1,-1,-1,-1,-1,-1],"loss_changes":[3.346336E4,4.9517686E3,8.690832E3,1.4844814E3,1.5572195E3,1.3070596E3,2.0330996E3,4.841045E2,6.427251E2,2.198187E3,3.8367554E2,1.7735802E3,6.22758E3,2.0986562E3,2.460957E2,2.5367677E2,3.017373E2,4.818263E2,6.581699E2,7.266305E2,1.3193379E3,4.4484558E2,5.0610345E2,5.797641E2,3.615686E2,6.5531836E3,1.379817E3,5.705039E2,2.1771875E3,0E0,3.5559494E1,0E0,0E0,0E0,0E0,0E0,0E0,0E0,0E0,0E0,0E0,0E0,0E0,0E0,0E0,0E0,0E0,0E0,0E0,0E0,0E0,0E0,0E0,0E0,0E0,0E0,0E0,0E0,0E0,0E0,0E0],"parents":[2147483647,0,0,1,1,2,2,3,3,4,4,5,5,6,6,7,7,8,8,9,9,10,10,11,11,12,12,13,13,14,14,15,15,16,16,17,17,18,18,19,19,20,20,21,21,22,22,23,23,24,24,25,25,26,26,27,27,28,28,30,30],"right_children":[2,4,6,8,10,12,14,16,18,20,22,24,26,28,30,32,34,36,38,40,42,44,46,48,50,52,54,56,58,-1,60,-1,-1,-1,-1,-1,-1,-1,-1,-1,-1,-1,-1,-1,-1,-1,-1,-1,-1,-1,-1,-1,-1,-1,-1,-1,-1,-1,-1,-1,-1],"split_conditions":[3.1E1,2.1E1,5.2E1,1.2E1,2.88E1,1.56E2,2.74E2,1.06E1,1.67E1,2.79E1,5.9E0,2.55E1,1.96E2,6.7E1,5.7E1,8E0,4.59E1,1.6E0,1.86E1,2.41E1,2.84E1,5.69E1,6.2E0,1.2E0,8.3E1,1.93E2,3.6E1,7.9E1,2.67E1,3.7198955E-1,1.16E1,5.5504704E-1,-1.400791E-1,-4.3175745E-1,2.5658402E-1,6.1974294E-2,-1.7086065E-1,-2.7905557E-1,-5.5948894E-6,2.1284215E-1,-3.208169E-2,1.3296285E0,8.7645054E-2,1.7523041E-1,-5.416506E-1,4.650643E-1,-2.1979034E-1,-3.478069E-1,7.391806E-2,3.2214555E-1,9.086753E-1,5.705146E-1,2.2501397E0,-3.232465E-2,2.7860332E-1,1.8422914E-1,7.848547E-1,1.6173409E0,-9.401881E-2,-3.0615348E-1,-4.4356417E-2],"split_indices":[0,0,0,0,3,5,5,3,3,3,6,6,5,0,0,0,3,6,6,4,3,4,6,6,5,5,0,5,3,0,6,0,0,0,0,0,0,0,0,0,0,0,0,0,0,0,0,0,0,0,0,0,0,0,0,0,0,0,0,0,0],"split_type":[0,0,0,0,0,0,0,0,0,0,0,0,0,0,0,0,0,0,0,0,0,0,0,0,0,0,0,0,0,0,0,0,0,0,0,0,0,0,0,0,0,0,0,0,0,0,0,0,0,0,0,0,0,0,0,0,0,0,0,0,0],"sum_hessian":[1.315E3,9.12E2,4.03E2,5.42E2,3.7E2,3.16E2,8.7E1,1.33E2,4.09E2,3.17E2,5.3E1,1.07E2,2.09E2,8E1,7E0,4E0,1.29E2,1.27E2,2.82E2,3.09E2,8E0,1.8E1,3.5E1,9.4E1,1.3E1,4.9E1,1.6E2,6.4E1,1.6E1,2E0,5E0,1E0,3E0,1.28E2,1E0,2.8E1,9.9E1,2.59E2,2.3E1,3.3E1,2.76E2,4E0,4E0,2E0,1.6E1,2E0,3.3E1,8E0,8.6E1,7E0,6E0,4.3E1,6E0,5.3E1,1.07E2,5E0,5.9E1,1.4E1,2E0,2E0,3E0],"tree_param":{"num_deleted":"0","num_feature":"7","num_nodes":"61","size_leaf_vector":"1"}},{"base_weights":[1.4767942E-1,-2.4459255E0,2.310606E0,-5.3874326E0,-1.5113622E0,3.8064322E0,-9.1221446E-1,2.5692127E0,-7.48542E0,1.5835516E0,-3.1887605E0,-2.0373728E0,5.5251327E0,1.111897E1,-1.4524843E0,9.0109414E-1,7.252417E0,-7.704157E0,4.3626428E-1,-2.4021344E0,4.566503E0,-3.9761214E0,2.6519256E0,-4.0873985E0,4.041578E0,6.4924107E0,-6.0179096E-1,5.794363E-2,6.048442E-1,1.0943505E-2,-4.816347E0,2.7120692E-1,-8.497182E-2,5.8239824E-1,1.1427479E-1,-2.1931712E-1,-4.418436E-1,-5.3082515E-2,-3.2594204E-1,4.1276452E-1,7.4964054E-2,-2.1437371E-1,4.0114972E-1,5.786274E-1,-3.7511393E-2,-3.8863412E-1,-1.07036054E-1,1.4250119E-1,9.351274E-1,3.040295E-1,8.4494793E-1,-2.4389184E-1,8.683426E-2,-1.2292611E-2,9.889371E-1,-2.9940194E-1,3.041077E-1],"categories":[],"categories_nodes":[],"categories_segments":[],"categories_sizes":[],"default_left":[0,0,0,0,0,0,0,0,0,0,0,0,0,0,0,0,0,0,0,0,0,0,0,0,0,0,0,0,0,0,0,0,0,0,0,0,0,0,0,0,0,0,0,0,0,0,0,0,0,0,0,0,0,0,0,0,0],"id":13,"left_children":[1,3,5,7,9,11,13,15,17,19,21,23,25,27,29,31,33,35,-1,37,39,41,43,45,47,49,51,-1,-1,53,55,-1,-1,-1,-1,-1,-1,-1,-1,-1,-1,-1,-1,-1,-1,-1,-1,-1,-1,-1,-1,-1,-1,-1,-1,-1,-1],"loss_changes":[7.438606E3,1.6495195E3,3.4888958E3,2.4397085E3,2.3879036E3,4.9728696E3,1.5111698E3,2.3564125E2,4.7499707E2,1.9370046E3,1.3809658E3,1.4247262E3,2.2678076E3,8.3382324E1,1.087985E3,2.915135E2,1.4803732E2,3.8966602E2,0E0,3.7936578E2,1.0398555E3,1.01695557E3,1.1012578E3,5.931559E2,4.5330814E2,1.3115049E3,5.384411E2,0E0,0E0,7.91687E2,8.919888E2,0E0,0E0,0E0,0E0,0E0,0E0,0E0,0E0,0E0,0E0,0E0,0E0,0E0,0E0,0E0,0E0,0E0,0E0,0E0,0E0,0E0,0E0,0E0,0E0,0E0,0E0],"parents":[2147483647,0,0,1,1,2,2,3,3,4,4,5,5,6,6,7,7,8,8,9,9,10,10,11,11,12,12,13,13,14,14,15,15,16,16,17,17,19,19,20,20,21,21,22,22,23,23,24,24,25,25,26,26,29,29,30,30],"right_children":[2,4,6,8,10,12,14,16,18,20,22,24,26,28,30,32,34,36,-1,38,40,42,44,46,48,50,52,-1,-1,54,56,-1,-1,-1,-1,-1,-1,-1,-1,-1,-1,-1,-1,-1,-1,-1,-1,-1,-1,-1,-1,-1,-1,-1,-1,-1,-1],"split_conditions":[2.2E1,1.01E2,2.39E2,2.3E1,2.03E2,9.1E1,2.09E1,1.9E1,2.28E1,1.59E2,1.9E1,1.72E1,2.81E1,8.6E0,2.88E2,4E-1,2E1,1.4E0,4.3626428E-1,1.4E2,9.5E0,3.53E2,1.4E1,4.2E1,2.39E1,5.29E1,2.96E1,5.794363E-2,6.048442E-1,7.5E1,2.05E1,2.7120692E-1,-8.497182E-2,5.8239824E-1,1.1427479E-1,-2.1931712E-1,-4.418436E-1,-5.3082515E-2,-3.2594204E-1,4.1276452E-1,7.4964054E-2,-2.1437371E-1,4.0114972E-1,5.786274E-1,-3.7511393E-2,-3.8863412E-1,-1.07036054E-1,1.4250119E-1,9.351274E-1,3.040295E-1,8.4494793E-1,-2.4389184E-1,8.683426E-2,-1.2292611E-2,9.889371E-1,-2.9940194E-1,3.041077E-1],"split_indices":[2,5,5,4,5,5,4,2,6,5,6,6,3,3,5,6,2,6,0,5,6,5,2,5,3,4,3,0,0,2,6,0,0,0,0,0,0,0,0,0,0,0,0,0,0,0,0,0,0,0,0,0,0,0,0,0,0],"split_type":[0,0,0,0,0,0,0,0,0,0,0,0,0,0,0,0,0,0,0,0,0,0,0,0,0,0,0,0,0,0,0,0,0,0,0,0,0,0,0,0,0,0,0,0,0,0,0,0,0,0,0,0,0,0,0,0,0],"sum_hessian":[1.324E3,6.02E2,7.22E2,1.44E2,4.58E2,4.93E2,2.29E2,3E1,1.14E2,1.61E2,2.97E2,1.12E2,3.81E2,9E0,2.2E2,2.3E1,7E0,1.13E2,1E0,6.9E1,9.2E1,2.62E2,3.5E1,8.4E1,2.8E1,3.29E2,5.2E1,1E0,8E0,1.54E2,6.6E1,8E0,1.5E1,3E0,4E0,3E1,8.3E1,5.3E1,1.6E1,4.1E1,5.1E1,2.56E2,6E0,9E0,2.6E1,2.8E1,5.6E1,2.7E1,1E0,3.18E2,1.1E1,1.8E1,3.4E1,1.53E2,1E0,6E1,6E0],"tree_param":{"num_deleted":"0","num_feature":"7","num_nodes":"57","size_leaf_vector":"1"}},{"base_weights":[1.9898003E-1,-3.7565122E0,6.519541E0,-6.4585176E0,-2.503767E0,4.55838E0,1.4223358E1,-8.803958E0,-5.723292E0,-2.9141335E0,6.7722154E-1,1.9945839E1,3.9957643E0,1.1426336E1,2.2837582E1,-1.0746302E1,-5.296537E0,-6.1912956E0,-2.677437E0,-1.4384015E0,-3.6319282E0,-8.954992E-1,4.7461467E0,3.0761397E0,8.0776024E1,4.8860145E0,-1.6400337E-2,1.7584232E1,9.040877E0,2.7588013E1,9.888216E0,-5.5459E-1,-1.5666942E-1,5.335702E-1,-3.2537082E-1,-2.6509228E-1,-4.0273818E-1,6.634004E-2,-2.172736E-1,-8.759918E-2,4.3792367E-1,-1.9963695E-1,5.598699E-2,3.9041948E-1,-6.272309E-2,4.8659712E-1,7.211269E-2,3.3013764E-1,-1.5908343E-1,5.6607184E0,3.9748335E-1,2.271266E-1,6.661761E-1,-6.727744E-2,6.258957E-1,4.2585546E-1,1.3353179E0,-3.2638207E-2,4.8788688E-1,9.906948E-1,1.6928577E0,6.5280265E-1,-3.0716616E-1],"categories":[],"categories_nodes":[],"categories_segments":[],"categories_sizes":[],"default_left":[0,0,0,0,0,0,0,0,0,0,0,0,0,0,0,0,0,0,0,0,0,0,0,0,0,0,0,0,0,0,0,0,0,0,0,0,0,0,0,0,0,0,0,0,0,0,0,0,0,0,0,0,0,0,0,0,0,0,0,0,0,0,0],"id":14,"left_children":[1,3,5,7,9,11,13,15,17,19,21,23,25,27,29,31,33,35,37,39,41,43,45,47,49,51,53,55,57,59,61,-1,-1,-1,-1,-1,-1,-1,-1,-1,-1,-1,-1,-1,-1,-1,-1,-1,-1,-1,-1,-1,-1,-1,-1,-1,-1,-1,-1,-1,-1,-1,-1],"loss_changes":[3.2800707E4,2.7154639E3,7.564918E3,3.8934082E2,7.238435E2,3.4178213E3,2.1966523E3,3.4502637E2,2.642412E2,5.1381934E2,4.1380426E2,1.4118139E4,1.3966665E3,1.0014883E3,1.2035664E3,6.256494E1,5.141539E2,2.3906348E2,1.927834E2,5.33349E2,5.685259E2,1.5664073E2,2.824697E2,2.8583417E2,6.187084E3,8.6688135E2,1.2163607E3,1.5094785E3,4.1635938E2,1.5768848E2,4.8649005E2,0E0,0E0,0E0,0E0,0E0,0E0,0E0,0E0,0E0,0E0,0E0,0E0,0E0,0E0,0E0,0E0,0E0,0E0,0E0,0E0,0E0,0E0,0E0,0E0,0E0,0E0,0E0,0E0,0E0,0E0,0E0,0E0],"parents":[2147483647,0,0,1,1,2,2,3,3,4,4,5,5,6,6,7,7,8,8,9,9,10,10,11,11,12,12,13,13,14,14,15,15,16,16,17,17,18,18,19,19,20,20,21,21,22,22,23,23,24,24,25,25,26,26,27,27,28,28,29,29,30,30],"right_children":[2,4,6,8,10,12,14,16,18,20,22,24,26,28,30,32,34,36,38,40,42,44,46,48,50,52,54,56,58,60,62,-1,-1,-1,-1,-1,-1,-1,-1,-1,-1,-1,-1,-1,-1,-1,-1,-1,-1,-1,-1,-1,-1,-1,-1,-1,-1,-1,-1,-1,-1,-1,-1],"split_conditions":[2.8E1,1.5E1,5.1E1,9E0,1.98E1,1.3E1,6.7E1,1.8E1,3.3E1,1.71E1,2.01E1,1.45E1,4.5E1,3.7E1,2.17E1,1.59E1,1.06E1,1.8E1,3.8E1,1.68E1,2.7E1,9.6E0,2.07E1,2.05E1,4.2E1,2.63E1,3.01E1,2.2E1,2.1E1,8.8E0,8.1E1,-5.5459E-1,-1.5666942E-1,5.335702E-1,-3.2537082E-1,-2.6509228E-1,-4.0273818E-1,6.634004E-2,-2.172736E-1,-8.759918E-2,4.3792367E-1,-1.9963695E-1,5.598699E-2,3.9041948E-1,-6.272309E-2,4.8659712E-1,7.211269E-2,3.3013764E-1,-1.5908343E-1,5.6607184E0,3.9748335E-1,2.271266E-1,6.661761E-1,-6.727744E-2,6.258957E-1,4.2585546E-1,1.3353179E0,-3.2638207E-2,4.8788688E-1,9.906948E-1,1.6928577E0,6.5280265E-1,-3.0716616E-1],"split_indices":[0,0,0,0,6,1,0,2,2,3,3,6,1,1,3,6,3,1,2,3,0,3,6,3,0,6,3,2,2,6,1,0,0,0,0,0,0,0,0,0,0,0,0,0,0,0,0,0,0,0,0,0,0,0,0,0,0,0,0,0,0,0,0],"split_type":[0,0,0,0,0,0,0,0,0,0,0,0,0,0,0,0,0,0,0,0,0,0,0,0,0,0,0,0,0,0,0,0,0,0,0,0,0,0,0,0,0,0,0,0,0,0,0,0,0,0,0,0,0,0,0,0,0,0,0,0,0,0,0],"sum_hessian":[1.31E3,8.06E2,5.04E2,2.54E2,5.52E2,4.03E2,1.01E2,5.8E1,1.96E2,4.89E2,6.3E1,1.3E1,3.9E2,7.8E1,2.3E1,3.6E1,2.2E1,1.69E2,2.7E1,1.61E2,3.28E2,4.6E1,1.7E1,1.1E1,2E0,3.19E2,7.1E1,2E1,5.8E1,1.6E1,7E0,3.4E1,2E0,1E0,2.1E1,1.17E2,5.2E1,8E0,1.9E1,1.57E2,4E0,3.05E2,2.3E1,1E0,4.5E1,6E0,1.1E1,7E0,4E0,1E0,1E0,3.08E2,1.1E1,6.5E1,6E0,1.1E1,9E0,4E0,5.4E1,9E0,7E0,6E0,1E0],"tree_param":{"num_deleted":"0","num_feature":"7","num_nodes":"63","size_leaf_vector":"1"}},{"base_weights":[-2.7244445E-2,-2.6559608E0,9.058679E0,-4.396565E0,4.3466872E-1,6.520947E0,1.7231277E1,-6.4040194E0,-2.9867535E0,8.797342E-1,-4.1640267E0,3.9450363E1,5.609798E0,1.8615473E1,2.1141639E0,-8.485241E0,-5.6650624E0,-2.4523471E-1,-3.5564322E0,-3.7456593E-1,2.0506423E0,-4.6929154E0,3.1901047E-1,3.1868312E0,5.519201E0,7.066971E0,1.4148735E0,2.8080822E1,1.5144838E1,4.4538203E-1,-2.603927E-1,-4.8551136E-1,-1.7139721E-1,-2.5841954E-1,-3.6018118E-1,2.6319513E-1,-8.215508E-2,-2.0555888E-1,-6.9293836E-3,-2.6543347E-2,6.3146996E-1,2.916353E-1,2.5176594E-2,-2.6172817E-1,3.0245396E-1,-1.0416454E-1,3.697338E-1,7.176966E-1,3.2539228E-1,1.0713571E-2,8.9347917E-1,5.915928E-1,1.7195548E0,9.6182394E-1,4.1250688E-1],"categories":[],"categories_nodes":[],"categories_segments":[],"categories_sizes":[],"default_left":[0,0,0,0,0,0,0,0,0,0,0,0,0,0,0,0,0,0,0,0,0,0,0,0,0,0,0,0,0,0,0,0,0,0,0,0,0,0,0,0,0,0,0,0,0,0,0,0,0,0,0,0,0,0,0],"id":15,"left_children":[1,3,5,7,9,11,13,15,17,19,21,23,25,27,29,31,33,35,37,39,41,43,-1,45,-1,47,49,51,53,-1,-1,-1,-1,-1,-1,-1,-1,-1,-1,-1,-1,-1,-1,-1,-1,-1,-1,-1,-1,-1,-1,-1,-1,-1,-1],"loss_changes":[3.1718547E4,5.5428604E3,6.068115E3,1.8459316E3,7.6504333E2,6.6495205E3,1.4253965E3,3.6870996E2,6.066621E2,5.0011588E2,2.1397382E2,1.5082052E4,1.3592529E3,1.677168E3,3.945834E2,3.9417725E2,1.1789307E2,5.323198E2,6.0995264E2,3.4207242E2,1.0268865E3,2.178523E2,0E0,1.26284546E2,0E0,5.829248E2,1.161749E3,1.2336562E3,1.2236172E3,0E0,0E0,0E0,0E0,0E0,0E0,0E0,0E0,0E0,0E0,0E0,0E0,0E0,0E0,0E0,0E0,0E0,0E0,0E0,0E0,0E0,0E0,0E0,0E0,0E0,0E0],"parents":[2147483647,0,0,1,1,2,2,3,3,4,4,5,5,6,6,7,7,8,8,9,9,10,10,11,11,12,12,13,13,14,14,15,15,16,16,17,17,18,18,19,19,20,20,21,21,23,23,25,25,26,26,27,27,28,28],"right_children":[2,4,6,8,10,12,14,16,18,20,22,24,26,28,30,32,34,36,38,40,42,44,-1,46,-1,48,50,52,54,-1,-1,-1,-1,-1,-1,-1,-1,-1,-1,-1,-1,-1,-1,-1,-1,-1,-1,-1,-1,-1,-1,-1,-1,-1,-1],"split_conditions":[3.6E1,2.3E1,5.5E1,1.5E1,6.23E1,1.3E1,5.76E1,9E0,3.6E0,2.8E1,5.1E1,2.2E1,4.6E1,3.8E1,6.2E0,2.6E1,1.61E1,2.41E1,1.89E1,5.1E1,2E1,9.07E1,3.1901047E-1,9E0,5.519201E0,1.98E1,6.77E1,2.2E1,1.12E1,4.4538203E-1,-2.603927E-1,-4.8551136E-1,-1.7139721E-1,-2.5841954E-1,-3.6018118E-1,2.6319513E-1,-8.215508E-2,-2.0555888E-1,-6.9293836E-3,-2.6543347E-2,6.3146996E-1,2.916353E-1,2.5176594E-2,-2.6172817E-1,3.0245396E-1,-1.0416454E-1,3.697338E-1,7.176966E-1,3.2539228E-1,1.0713571E-2,8.9347917E-1,5.915928E-1,1.7195548E0,9.6182394E-1,4.1250688E-1],"split_indices":[0,0,0,0,4,1,4,0,6,0,1,2,1,1,6,2,6,4,6,1,2,4,0,1,0,4,4,2,6,0,0,0,0,0,0,0,0,0,0,0,0,0,0,0,0,0,0,0,0,0,0,0,0,0,0],"split_type":[0,0,0,0,0,0,0,0,0,0,0,0,0,0,0,0,0,0,0,0,0,0,0,0,0,0,0,0,0,0,0,0,0,0,0,0,0,0,0,0,0,0,0,0,0,0,0,0,0,0,0,0,0,0,0],"sum_hessian":[1.326E3,1.029E3,2.97E2,6.58E2,3.71E2,2.28E2,6.9E1,2.7E2,3.88E2,3.39E2,3.2E1,5E0,2.23E2,6.3E1,6E0,6.8E1,2.02E2,6.7E1,3.21E2,1.64E2,1.75E2,3.1E1,1E0,4E0,1E0,1.65E2,5.8E1,1.5E1,4.8E1,3E0,3E0,5.4E1,1.4E1,1.56E2,4.6E1,1.3E1,5.4E1,2.76E2,4.5E1,1.63E2,1E0,5E1,1.25E2,3E1,1E0,2E0,2E0,1E1,1.55E2,5.5E1,3E0,5E0,1E1,2.9E1,1.9E1],"tree_param":{"num_deleted":"0","num_feature":"7","num_nodes":"55","size_leaf_vector":"1"}},{"base_weights":[1.7600486E-1,-2.401914E0,8.543242E0,-4.6935062E0,-1.14658155E-1,3.857452E1,7.9224176E0,-6.967194E0,-3.8443472E0,4.5030183E-1,-3.9969666E0,3.2396603E0,5.3812203E0,4.4676733E0,1.3482971E1,-7.0968366E0,2.601224E-1,-3.0070217E0,-5.035631E0,-8.37406E-1,2.1808326E0,-1.8633883E0,-7.475289E0,3.706641E-1,-1.0069241E-1,3.5620305E-1,6.569896E0,1.6603056E1,6.8970866E0,-1.3780396E-1,-3.7702104E-1,-2.166946E-1,-2.0966895E-2,-2.711205E-1,1.7239457E-2,-5.3333975E-2,6.8507683E-1,1.6856185E-1,-4.5746874E-2,1.2925668E-1,-1.6908935E-1,-2.08962E-1,-4.7655463E-1,5.9729195E-1,-5.124379E-2,7.025673E-1,2.3725723E-1,1.190183E0,6.7662966E-1,3.9164123E-1,-3.4713548E-1],"categories":[],"categories_nodes":[],"categories_segments":[],"categories_sizes":[],"default_left":[0,0,0,0,0,0,0,0,0,0,0,0,0,0,0,0,0,0,0,0,0,0,0,0,0,0,0,0,0,0,0,0,0,0,0,0,0,0,0,0,0,0,0,0,0,0,0,0,0,0,0],"id":16,"left_children":[1,3,5,7,9,11,13,15,17,19,21,23,-1,25,27,29,-1,31,33,35,37,39,41,-1,-1,43,45,47,49,-1,-1,-1,-1,-1,-1,-1,-1,-1,-1,-1,-1,-1,-1,-1,-1,-1,-1,-1,-1,-1,-1],"loss_changes":[2.829887E4,5.2566436E3,5.4554473E3,9.4050684E2,1.1050543E3,1.4290541E4,5.7796914E3,2.4991113E2,3.509375E2,9.8233014E2,4.6103217E2,1.2455999E2,0E0,1.6312292E3,2.2691133E3,2.3723389E2,0E0,7.466898E2,3.1402417E2,8.579637E2,6.959054E2,2.8568213E2,1.2279187E2,0E0,0E0,1.0526461E3,1.6397983E3,1.4023926E3,5.5944775E2,0E0,0E0,0E0,0E0,0E0,0E0,0E0,0E0,0E0,0E0,0E0,0E0,0E0,0E0,0E0,0E0,0E0,0E0,0E0,0E0,0E0,0E0],"parents":[2147483647,0,0,1,1,2,2,3,3,4,4,5,5,6,6,7,7,8,8,9,9,10,10,11,11,13,13,14,14,15,15,17,17,18,18,19,19,20,20,21,21,22,22,25,25,26,26,27,27,28,28],"right_children":[2,4,6,8,10,12,14,16,18,20,22,24,-1,26,28,30,-1,32,34,36,38,40,42,-1,-1,44,46,48,50,-1,-1,-1,-1,-1,-1,-1,-1,-1,-1,-1,-1,-1,-1,-1,-1,-1,-1,-1,-1,-1,-1],"split_conditions":[3.4E1,2E1,1.3E1,1.2E1,2.79E2,1.1E1,4.8E1,8.78E1,2.28E2,2.7E1,3.85E1,3.7E1,5.3812203E0,1.57E2,2.18E2,2.52E1,2.601224E-1,1.75E2,7.09E1,5.1E1,2.3E2,2.2E1,2.4E1,3.706641E-1,-1.0069241E-1,1.98E1,1.84E2,3.7E1,8.1E1,-1.3780396E-1,-3.7702104E-1,-2.166946E-1,-2.0966895E-2,-2.711205E-1,1.7239457E-2,-5.3333975E-2,6.8507683E-1,1.6856185E-1,-4.5746874E-2,1.2925668E-1,-1.6908935E-1,-2.08962E-1,-4.7655463E-1,5.9729195E-1,-5.124379E-2,7.025673E-1,2.3725723E-1,1.190183E0,6.7662966E-1,3.9164123E-1,-3.4713548E-1],"split_indices":[0,0,1,0,5,1,0,4,5,0,4,0,0,5,5,4,0,5,4,1,5,1,0,0,0,4,5,1,1,0,0,0,0,0,0,0,0,0,0,0,0,0,0,0,0,0,0,0,0,0,0],"split_type":[0,0,0,0,0,0,0,0,0,0,0,0,0,0,0,0,0,0,0,0,0,0,0,0,0,0,0,0,0,0,0,0,0,0,0,0,0,0,0,0,0,0,0,0,0,0,0,0,0,0,0],"sum_hessian":[1.31E3,1.002E3,3.08E2,5E2,5.02E2,5E0,3.03E2,1.34E2,3.66E2,4.39E2,6.3E1,4E0,1E0,1.88E2,1.15E2,1.33E2,1E0,2.17E2,1.49E2,2.52E2,1.87E2,4E1,2.3E1,2E0,2E0,6.4E1,1.24E2,7.7E1,3.8E1,1.3E1,1.2E2,1.43E2,7.4E1,1.39E2,1E1,2.49E2,3E0,1.35E2,5.2E1,1E1,3E1,1E1,1.3E1,6E0,5.8E1,2.3E1,1.01E2,2.1E1,5.6E1,3.6E1,2E0],"tree_param":{"num_deleted":"0","num_feature":"7","num_nodes":"51","size_leaf_vector":"1"}},{"base_weights":[4.230417E-2,-2.9765286E0,6.0318465E0,-5.6367273E0,-1.8014882E0,3.9933956E0,1.3594741E1,4.787644E0,-5.813477E0,-2.2896502E0,5.5419767E-1,2.5738676E0,7.640073E0,1.5135523E1,1.9331698E0,3.2128704E-1,7.768329E-2,-8.035209E0,-5.131529E0,-2.7622964E0,3.210801E-1,7.986807E0,1.0269913E-1,-2.753284E0,4.006492E0,7.1916214E1,5.5298777E0,1.6239601E1,-5.1152124E0,8.132447E0,-3.656664E0,-4.171672E-1,2.5361934E-1,-2.6764143E-1,-5.723328E-2,-2.4169265E-1,-1.1043276E-1,7.4043676E-2,-5.0061107E-1,6.3957196E-1,-5.4081917E-2,-5.2673228E-2,1.7169182E-1,2.4398636E-2,-2.0654325E-1,5.582201E-2,2.99044E-1,5.2466903E0,1.4702626E-1,3.655414E-1,-1.2473931E-1,3.1309602E-1,8.6452264E-1,-6.710749E-2,-2.8614703E-1,1.33072855E-2,4.8262396E-1,2.2483337E-1,-3.908665E-1],"categories":[],"categories_nodes":[],"categories_segments":[],"categories_sizes":[],"default_left":[0,0,0,0,0,0,0,0,0,0,0,0,0,0,0,0,0,0,0,0,0,0,0,0,0,0,0,0,0,0,0,0,0,0,0,0,0,0,0,0,0,0,0,0,0,0,0,0,0,0,0,0,0,0,0,0,0,0,0],"id":17,"left_children":[1,3,5,7,9,11,13,15,17,19,21,23,25,27,29,-1,-1,31,33,35,37,39,41,43,45,47,49,51,53,55,57,-1,-1,-1,-1,-1,-1,-1,-1,-1,-1,-1,-1,-1,-1,-1,-1,-1,-1,-1,-1,-1,-1,-1,-1,-1,-1,-1,-1],"loss_changes":[2.3740787E4,2.7187046E3,6.7290127E3,5.1978125E2,6.992926E2,1.7817788E3,1.6417578E3,1.6504395E1,3.5724023E2,6.215647E2,3.5154004E2,1.9342468E3,1.2758926E4,1.916457E3,4.455728E2,0E0,0E0,2.8465527E2,1.7385986E2,4.7790308E2,9.496174E2,2.7525897E2,3.8875143E2,2.4313077E2,1.1288333E3,6.523671E3,1.3759336E3,7.095625E2,3.7839508E0,6.917319E1,2.7261493E2,0E0,0E0,0E0,0E0,0E0,0E0,0E0,0E0,0E0,0E0,0E0,0E0,0E0,0E0,0E0,0E0,0E0,0E0,0E0,0E0,0E0,0E0,0E0,0E0,0E0,0E0,0E0,0E0],"parents":[2147483647,0,0,1,1,2,2,3,3,4,4,5,5,6,6,7,7,8,8,9,9,10,10,11,11,12,12,13,13,14,14,17,17,18,18,19,19,20,20,21,21,22,22,23,23,24,24,25,25,26,26,27,27,28,28,29,29,30,30],"right_children":[2,4,6,8,10,12,14,16,18,20,22,24,26,28,30,-1,-1,32,34,36,38,40,42,44,46,48,50,52,54,56,58,-1,-1,-1,-1,-1,-1,-1,-1,-1,-1,-1,-1,-1,-1,-1,-1,-1,-1,-1,-1,-1,-1,-1,-1,-1,-1,-1,-1],"split_conditions":[3E1,1.5E1,5.1E1,1.84E1,1.86E1,1.74E1,5.76E1,1.1E1,9E0,2.7E1,1.87E1,1.26E2,1.75E1,2.72E2,2.23E2,3.2128704E-1,7.768329E-2,8.78E1,5E1,9.3E1,3.14E2,2.28E2,4.14E1,2.7E1,3.6E1,4.2E1,4.1E1,7.9E1,3.3E1,1.6E1,6.2E0,-4.171672E-1,2.5361934E-1,-2.6764143E-1,-5.723328E-2,-2.4169265E-1,-1.1043276E-1,7.4043676E-2,-5.0061107E-1,6.3957196E-1,-5.4081917E-2,-5.2673228E-2,1.7169182E-1,2.4398636E-2,-2.0654325E-1,5.582201E-2,2.99044E-1,5.2466903E0,1.4702626E-1,3.655414E-1,-1.2473931E-1,3.1309602E-1,8.6452264E-1,-6.710749E-2,-2.8614703E-1,1.33072855E-2,4.8262396E-1,2.2483337E-1,-3.908665E-1],"split_indices":[0,0,0,4,6,6,4,0,0,0,6,5,6,5,5,0,0,4,2,5,5,5,4,4,0,0,2,5,2,2,6,0,0,0,0,0,0,0,0,0,0,0,0,0,0,0,0,0,0,0,0,0,0,0,0,0,0,0,0],"split_type":[0,0,0,0,0,0,0,0,0,0,0,0,0,0,0,0,0,0,0,0,0,0,0,0,0,0,0,0,0,0,0,0,0,0,0,0,0,0,0,0,0,0,0,0,0,0,0,0,0,0,0,0,0,0,0,0,0,0,0],"sum_hessian":[1.311E3,8.72E2,4.39E2,2.66E2,6.06E2,3.47E2,9.2E1,4E0,2.62E2,5.02E2,1.04E2,2.51E2,9.6E1,8.1E1,1.1E1,2E0,2E0,5.9E1,2.03E2,4.25E2,7.7E1,5E0,9.9E1,5.3E1,1.98E2,2E0,9.4E1,7.7E1,4E0,5E0,6E0,5.8E1,1E0,1.92E2,1.1E1,8.8E1,3.37E2,7E1,7E0,3E0,2E0,7.4E1,2.5E1,1.6E1,3.7E1,8.1E1,1.17E2,1E0,1E0,7.7E1,1.7E1,8E0,6.9E1,1E0,3E0,1E0,4E0,2E0,4E0],"tree_param":{"num_deleted":"0","num_feature":"7","num_nodes":"59","size_leaf_vector":"1"}},{"base_weights":[9.1464795E-2,-2.8942282E0,5.930538E0,-4.31301E0,-9.56967E-1,4.439395E0,1.3611413E1,-7.5414977E0,-3.841117E0,-5.735006E-1,-4.2459726E0,3.044996E1,3.8696258E0,1.0633254E1,2.0479553E1,-1.7003903E0,-8.228995E0,-2.2674026E0,-4.500469E0,-1.0206133E0,4.813911E0,-9.645867E0,-1.78009E0,5.568397E0,5.115523E0,3.282537E0,9.818951E0,1.8210217E1,7.446391E0,3.3086514E1,1.1812752E1,-2.8805456E-1,3.4939042E-1,2.7890334E-2,-4.279329E-1,2.8542334E-2,-1.7192939E-1,-2.3775482E-1,2.695787E-2,2.6108144E-2,-1.472258E-1,1.4859165E0,1.3670365E-2,-1.7002082E-1,-5.67493E-1,-2.4877262E-1,1.8052559E-1,-6.5267995E-2,3.4657916E-1,1.8814449E-1,-1.6094545E-1,2.698295E-1,6.60222E-1,4.1374454E-1,1.2934631E0,-3.3723918E-1,3.9986688E-1,5.740175E-1,1.9187587E0,7.9773873E-1,5.8307856E-2],"categories":[],"categories_nodes":[],"categories_segments":[],"categories_sizes":[],"default_left":[0,0,0,0,0,0,0,0,0,0,0,0,0,0,0,0,0,0,0,0,0,0,0,0,0,0,0,0,0,0,0,0,0,0,0,0,0,0,0,0,0,0,0,0,0,0,0,0,0,0,0,0,0,0,0,0,0,0,0,0,0],"id":18,"left_children":[1,3,5,7,9,11,13,15,17,19,21,23,25,27,29,31,33,35,37,39,41,43,45,47,-1,49,51,53,55,57,59,-1,-1,-1,-1,-1,-1,-1,-1,-1,-1,-1,-1,-1,-1,-1,-1,-1,-1,-1,-1,-1,-1,-1,-1,-1,-1,-1,-1,-1,-1],"loss_changes":[2.3291129E4,2.4255923E3,5.116457E3,7.480176E2,4.7052362E2,5.5137773E3,1.2754082E3,2.4301538E2,4.536172E2,8.166722E2,5.0213416E2,1.3734307E4,1.2705771E3,1.1441763E3,1.9036602E3,3.224988E2,1.6988452E2,4.473943E2,4.0549658E2,9.276006E2,2.9319185E3,8.9112305E1,5.0026184E2,7.463968E1,0E0,1.077051E3,4.2281226E2,9.273613E2,3.5886475E2,4.7358105E2,5.9877234E2,0E0,0E0,0E0,0E0,0E0,0E0,0E0,0E0,0E0,0E0,0E0,0E0,0E0,0E0,0E0,0E0,0E0,0E0,0E0,0E0,0E0,0E0,0E0,0E0,0E0,0E0,0E0,0E0,0E0,0E0],"parents":[2147483647,0,0,1,1,2,2,3,3,4,4,5,5,6,6,7,7,8,8,9,9,10,10,11,11,12,12,13,13,14,14,15,15,16,16,17,17,18,18,19,19,20,20,21,21,22,22,23,23,25,25,26,26,27,27,28,28,29,29,30,30],"right_children":[2,4,6,8,10,12,14,16,18,20,22,24,26,28,30,32,34,36,38,40,42,44,46,48,-1,50,52,54,56,58,60,-1,-1,-1,-1,-1,-1,-1,-1,-1,-1,-1,-1,-1,-1,-1,-1,-1,-1,-1,-1,-1,-1,-1,-1,-1,-1,-1,-1,-1,-1],"split_conditions":[3E1,2E1,5.4E1,9E0,3.16E1,1.3E1,6.7E1,1.25E1,1.63E1,2.79E1,5.2E0,2.2E1,2.38E1,3.8E1,1.63E1,1.5E1,-8E-1,3.3E0,1.98E1,2.4E1,2.84E1,1.6E0,2.2E1,9E0,5.115523E0,5.7E1,1.4E1,2.2E1,2.3E0,8.3E0,1E1,-2.8805456E-1,3.4939042E-1,2.7890334E-2,-4.279329E-1,2.8542334E-2,-1.7192939E-1,-2.3775482E-1,2.695787E-2,2.6108144E-2,-1.472258E-1,1.4859165E0,1.3670365E-2,-1.7002082E-1,-5.67493E-1,-2.4877262E-1,1.8052559E-1,-6.5267995E-2,3.4657916E-1,1.8814449E-1,-1.6094545E-1,2.698295E-1,6.60222E-1,4.1374454E-1,1.2934631E0,-3.3723918E-1,3.9986688E-1,5.740175E-1,1.9187587E0,7.9773873E-1,5.8307856E-2],"split_indices":[0,0,0,0,3,1,0,3,3,3,6,2,6,1,3,2,6,6,6,1,3,6,2,1,0,1,3,2,6,6,6,0,0,0,0,0,0,0,0,0,0,0,0,0,0,0,0,0,0,0,0,0,0,0,0,0,0,0,0,0,0],"split_type":[0,0,0,0,0,0,0,0,0,0,0,0,0,0,0,0,0,0,0,0,0,0,0,0,0,0,0,0,0,0,0,0,0,0,0,0,0,0,0,0,0,0,0,0,0,0,0,0,0,0,0,0,0,0,0,0,0,0,0,0,0],"sum_hessian":[1.334E3,8.83E2,4.51E2,5.09E2,3.74E2,3.79E2,7.2E1,6.3E1,4.46E2,3.36E2,3.8E1,7E0,3.72E2,5.2E1,2E1,7E0,5.6E1,1.33E2,3.13E2,3.11E2,2.5E1,1.1E1,2.7E1,6E0,1E0,3.4E2,3.2E1,1.4E1,3.8E1,7E0,1.3E1,5E0,2E0,2E0,5.4E1,3.9E1,9.4E1,2.98E2,1.5E1,1.73E2,1.38E2,3E0,2.2E1,3E0,8E0,1.7E1,1E1,1E0,5E0,3.17E2,2.3E1,1.5E1,1.7E1,7E0,7E0,1E0,3.7E1,2E0,5E0,9E0,4E0],"tree_param":{"num_deleted":"0","num_feature":"7","num_nodes":"61","size_leaf_vector":"1"}},{"base_weights":[1.5860201E-1,-2.0818312E0,7.621348E0,-3.924775E0,-3.6983094E-1,3.1849901E1,7.034523E0,-7.3016634E0,-3.4676027E0,-5.9086525E-1,9.27598E0,2.8810296E0,6.9514725E1,4.550957E0,1.2398177E1,-7.6107993E0,2.5797716E-1,-8.636636E-1,-3.848067E0,-4.463652E0,-1.7115547E-1,1.3795614E1,1.893692E-1,3.452143E-1,-1.0512852E-1,4.9876347E0,2.2596942E-1,6.0194535E0,6.493387E-1,1.3956332E1,3.1575942E0,-4.3310866E-1,-2.4257956E-1,8.4838174E-2,-1.8857129E-1,-2.934551E-1,-1.658427E-1,2.9096493E-1,-2.501063E-1,7.0207186E-2,-7.9983406E-2,3.4493816E-1,9.483887E-1,1.681951E-1,-1.5241432E-1,1.3939315E-1,4.150649E-1,-1.3106374E-1,3.497284E-1,9.019438E-1,4.867951E-1,2.6359352E-1,-3.5284016E-1],"categories":[],"categories_nodes":[],"categories_segments":[],"categories_sizes":[],"default_left":[0,0,0,0,0,0,0,0,0,0,0,0,0,0,0,0,0,0,0,0,0,0,0,0,0,0,0,0,0,0,0,0,0,0,0,0,0,0,0,0,0,0,0,0,0,0,0,0,0,0,0,0,0],"id":19,"left_children":[1,3,5,7,9,11,13,15,17,19,21,23,25,27,29,31,-1,33,35,37,39,41,43,-1,-1,-1,-1,45,47,49,51,-1,-1,-1,-1,-1,-1,-1,-1,-1,-1,-1,-1,-1,-1,-1,-1,-1,-1,-1,-1,-1,-1],"loss_changes":[2.2303338E4,3.2357017E3,4.1550723E3,7.373281E2,1.1418662E3,7.437478E3,3.9665146E3,2.6269604E2,4.2961426E2,8.477192E2,4.9020544E2,1.1476824E2,5.445159E3,1.1878296E3,1.3237666E3,1.23329346E2,0E0,4.3077066E2,3.895747E2,3.1150073E2,1.0644042E3,1.545188E2,6.1644352E1,0E0,0E0,0E0,0E0,1.0903286E3,1.2219966E3,1.2200127E3,3.6114343E2,0E0,0E0,0E0,0E0,0E0,0E0,0E0,0E0,0E0,0E0,0E0,0E0,0E0,0E0,0E0,0E0,0E0,0E0,0E0,0E0,0E0,0E0],"parents":[2147483647,0,0,1,1,2,2,3,3,4,4,5,5,6,6,7,7,8,8,9,9,10,10,11,11,12,12,13,13,14,14,15,15,17,17,18,18,19,19,20,20,21,21,22,22,27,27,28,28,29,29,30,30],"right_children":[2,4,6,8,10,12,14,16,18,20,22,24,26,28,30,32,-1,34,36,38,40,42,44,-1,-1,-1,-1,46,48,50,52,-1,-1,-1,-1,-1,-1,-1,-1,-1,-1,-1,-1,-1,-1,-1,-1,-1,-1,-1,-1,-1,-1],"split_conditions":[3.5E1,2E1,1.3E1,9E0,2.51E1,1.1E1,5.1E1,4.59E1,1.31E1,5.4E1,2.7E1,3.7E1,4.2E1,2.37E1,2.41E2,9.3E0,2.5797716E-1,9.5E0,9.2E1,1.1E1,2.17E2,1.75E1,3.2E1,3.452143E-1,-1.0512852E-1,4.9876347E0,2.2596942E-1,1.57E2,3.01E1,1.81E1,8.1E1,-4.3310866E-1,-2.4257956E-1,8.4838174E-2,-1.8857129E-1,-2.934551E-1,-1.658427E-1,2.9096493E-1,-2.501063E-1,7.0207186E-2,-7.9983406E-2,3.4493816E-1,9.483887E-1,1.681951E-1,-1.5241432E-1,1.3939315E-1,4.150649E-1,-1.3106374E-1,3.497284E-1,9.019438E-1,4.867951E-1,2.6359352E-1,-3.5284016E-1],"split_indices":[0,0,1,0,6,1,0,3,3,5,1,0,0,3,5,6,0,6,5,1,5,3,0,0,0,0,0,5,3,3,1,0,0,0,0,0,0,0,0,0,0,0,0,0,0,0,0,0,0,0,0,0,0],"split_type":[0,0,0,0,0,0,0,0,0,0,0,0,0,0,0,0,0,0,0,0,0,0,0,0,0,0,0,0,0,0,0,0,0,0,0,0,0,0,0,0,0,0,0,0,0,0,0,0,0,0,0,0,0],"sum_hessian":[1.332E3,1.025E3,3.07E2,4.93E2,5.32E2,6E0,3.01E2,5.7E1,4.36E2,5.21E2,1.1E1,4E0,2E0,2.07E2,9.4E1,5.6E1,1E0,5.6E1,3.8E2,5E1,4.71E2,7E0,4E0,2E0,2E0,1E0,1E0,1.5E2,5.7E1,8E1,1.4E1,3.9E1,1.7E1,3E1,2.6E1,7.7E1,3.03E2,2E0,4.8E1,2.24E2,2.47E2,4E0,3E0,2E0,2E0,6.3E1,8.7E1,3.8E1,1.9E1,3.9E1,4.1E1,1.2E1,2E0],"tree_param":{"num_deleted":"0","num_feature":"7","num_nodes":"53","size_leaf_vector":"1"}},{"base_weights":[-4.836457E-2,-1.8953297E0,1.4895824E0,-3.8140898E0,-6.2141985E-1,8.980691E-1,5.613985E0,8.154636E-1,-4.2765474E0,4.5967686E-1,-3.2383265E0,6.791205E-1,1.3435829E1,8.908009E0,3.2360415E0,9.277077E0,-1.454196E0,-6.0462694E0,-3.4890609E0,1.622995E-1,8.801252E0,-1.9506273E0,-5.656597E0,1.9597563E0,-5.9962374E-1,3.4282685E-3,1.4765698E1,6.703278E0,2.2118574E1,4.734264E0,-1.4897707E0,4.3321576E-2,7.297682E-1,4.1349384E-1,-1.5423338E-1,-3.245861E-1,-9.747978E-2,-1.9869368E-1,3.54377E-2,-2.8054485E-2,1.2553047E-1,-1.3750324E-2,8.05863E-1,-3.4675536E-1,-1.419385E-2,-3.5531273E-1,1.5088373E-1,7.165455E-2,1.1061531E0,3.7434988E-2,-1.1818659E-1,3.521089E-1,9.370508E-1,2.6184577E-1,8.1958866E-1,1.7674683E0,4.9867678E-1,5.123214E-2,4.81175E-1,2.310065E-1,-3.3248565E-1],"categories":[],"categories_nodes":[],"categories_segments":[],"categories_sizes":[],"default_left":[0,0,0,0,0,0,0,0,0,0,0,0,0,0,0,0,0,0,0,0,0,0,0,0,0,0,0,0,0,0,0,0,0,0,0,0,0,0,0,0,0,0,0,0,0,0,0,0,0,0,0,0,0,0,0,0,0,0,0,0,0],"id":20,"left_children":[1,3,5,7,9,11,13,15,17,19,21,23,25,27,29,31,33,35,37,39,41,43,45,47,49,-1,51,53,55,57,59,-1,-1,-1,-1,-1,-1,-1,-1,-1,-1,-1,-1,-1,-1,-1,-1,-1,-1,-1,-1,-1,-1,-1,-1,-1,-1,-1,-1,-1,-1],"loss_changes":[3.8261826E3,1.4935581E3,1.7880934E3,5.25885E2,1.0454373E3,1.7587361E3,6.918091E2,4.5520526E2,2.8829028E2,6.484877E2,3.252787E2,1.0394171E3,1.9453162E2,9.585112E2,3.9647034E2,2.1100525E2,3.2675153E2,1.0961035E2,3.2030066E2,4.3288916E2,6.020502E2,5.96199E2,4.867091E2,3.3346172E3,7.581609E2,0E0,1.7505713E2,3.9719043E2,4.5088428E2,7.5190234E2,4.7209674E2,0E0,0E0,0E0,0E0,0E0,0E0,0E0,0E0,0E0,0E0,0E0,0E0,0E0,0E0,0E0,0E0,0E0,0E0,0E0,0E0,0E0,0E0,0E0,0E0,0E0,0E0,0E0,0E0,0E0,0E0],"parents":[2147483647,0,0,1,1,2,2,3,3,4,4,5,5,6,6,7,7,8,8,9,9,10,10,11,11,12,12,13,13,14,14,15,15,16,16,17,17,18,18,19,19,20,20,21,21,22,22,23,23,24,24,26,26,27,27,28,28,29,29,30,30],"right_children":[2,4,6,8,10,12,14,16,18,20,22,24,26,28,30,32,34,36,38,40,42,44,46,48,50,-1,52,54,56,58,60,-1,-1,-1,-1,-1,-1,-1,-1,-1,-1,-1,-1,-1,-1,-1,-1,-1,-1,-1,-1,-1,-1,-1,-1,-1,-1,-1,-1,-1,-1],"split_conditions":[2.2E1,1.6E1,5.1E1,2.48E1,4.9E1,2.68E1,3.64E1,5E-1,1.1E1,2.42E1,1.07E1,1.93E1,2.5E1,3.42E1,1.45E1,1.12E1,1.84E1,1.4E1,1.86E1,1.81E1,2.5E1,4.9E0,1.78E1,1.92E1,1.15E1,3.4282685E-3,2.73E1,1.7E1,1.52E1,8E0,2.25E1,4.3321576E-2,7.297682E-1,4.1349384E-1,-1.5423338E-1,-3.245861E-1,-9.747978E-2,-1.9869368E-1,3.54377E-2,-2.8054485E-2,1.2553047E-1,-1.3750324E-2,8.05863E-1,-3.4675536E-1,-1.419385E-2,-3.5531273E-1,1.5088373E-1,7.165455E-2,1.1061531E0,3.7434988E-2,-1.1818659E-1,3.521089E-1,9.370508E-1,2.6184577E-1,8.1958866E-1,1.7674683E0,4.9867678E-1,5.123214E-2,4.81175E-1,2.310065E-1,-3.3248565E-1],"split_indices":[2,1,1,4,4,6,4,6,2,3,6,3,2,4,6,3,4,1,6,6,1,6,6,3,6,0,6,3,3,6,3,0,0,0,0,0,0,0,0,0,0,0,0,0,0,0,0,0,0,0,0,0,0,0,0,0,0,0,0,0,0],"split_type":[0,0,0,0,0,0,0,0,0,0,0,0,0,0,0,0,0,0,0,0,0,0,0,0,0,0,0,0,0,0,0,0,0,0,0,0,0,0,0,0,0,0,0,0,0,0,0,0,0,0,0,0,0,0,0,0,0,0,0,0,0],"sum_hessian":[1.345E3,6.11E2,7.34E2,2.43E2,3.68E2,6.43E2,9.1E1,2.2E1,2.21E2,2.61E2,1.07E2,6.33E2,1E1,3.7E1,5.4E1,4E0,1.8E1,6.6E1,1.55E2,2.53E2,8E0,7.1E1,3.6E1,3.16E2,3.17E2,1E0,9E0,3.3E1,4E0,4.1E1,1.3E1,2E0,2E0,2E0,1.6E1,5.9E1,7E0,1.39E2,1.6E1,1.94E2,5.9E1,4E0,4E0,1.7E1,5.4E1,3.1E1,5E0,3.09E2,7E0,1.8E2,1.37E2,4E0,5E0,3E1,3E0,1E0,3E0,2.4E1,1.7E1,6E0,7E0],"tree_param":{"num_deleted":"0","num_feature":"7","num_nodes":"61","size_leaf_vector":"1"}},{"base_weights":[5.0601017E-2,-2.319505E0,5.5472293E0,-4.7716584E0,-1.2985972E0,3.8432884E0,1.302487E1,-5.848225E0,-3.676117E0,1.3268226E0,-1.7938508E0,3.454419E0,1.3000176E1,1.5130153E1,2.9215057E0,-7.045537E0,-4.547302E0,-2.5628402E0,-5.309556E0,2.7823524E0,-2.5836127E0,-1.3378731E0,-5.991091E0,4.228638E0,-1.3771124E-1,1.4852072E0,9.1328335E0,2.1184523E1,1.1660106E1,6.0385075E0,-3.896799E0,2.1790743E-1,-3.6386645E-1,5.339285E-1,-2.4669676E-1,-3.6087742E-1,-1.0561265E-1,-1.501608E-1,-3.3780548E-1,4.155258E-2,3.2889706E-1,-2.425371E-1,1.4967118E-1,-2.4594028E-1,-3.6758192E-2,-8.150751E-2,-3.738333E-1,8.437512E-2,3.0404437E-1,1.9661771E-1,-2.4028245E-1,2.7925417E-1,6.491334E-1,-1.1995087E-1,1.1241826E0,-3.3230916E-1,6.141959E-1,1.0686698E-1,7.214393E-1,1.1389351E-1,-3.004967E-1],"categories":[],"categories_nodes":[],"categories_segments":[],"categories_sizes":[],"default_left":[0,0,0,0,0,0,0,0,0,0,0,0,0,0,0,0,0,0,0,0,0,0,0,0,0,0,0,0,0,0,0,0,0,0,0,0,0,0,0,0,0,0,0,0,0,0,0,0,0,0,0,0,0,0,0,0,0,0,0,0,0],"id":21,"left_children":[1,3,5,7,9,11,13,15,17,19,21,23,25,27,29,31,33,35,37,39,41,43,45,47,49,-1,51,53,55,57,59,-1,-1,-1,-1,-1,-1,-1,-1,-1,-1,-1,-1,-1,-1,-1,-1,-1,-1,-1,-1,-1,-1,-1,-1,-1,-1,-1,-1,-1,-1],"loss_changes":[1.7339562E4,2.3219873E3,5.0592666E3,3.004829E2,8.579436E2,1.1230464E3,1.5298096E3,1.7979736E2,2.3734131E2,6.048229E2,1.0522563E3,8.794087E2,5.685166E2,1.0345312E3,3.2106818E2,2.141018E2,4.5299194E2,1.6093231E2,1.6320337E2,5.648211E2,3.8119232E2,1.0776727E3,3.3765125E2,1.2135107E3,1.1018298E3,0E0,9.138977E1,6.973379E2,5.4984766E2,2.9647964E2,7.892938E1,0E0,0E0,0E0,0E0,0E0,0E0,0E0,0E0,0E0,0E0,0E0,0E0,0E0,0E0,0E0,0E0,0E0,0E0,0E0,0E0,0E0,0E0,0E0,0E0,0E0,0E0,0E0,0E0,0E0,0E0],"parents":[2147483647,0,0,1,1,2,2,3,3,4,4,5,5,6,6,7,7,8,8,9,9,10,10,11,11,12,12,13,13,14,14,15,15,16,16,17,17,18,18,19,19,20,20,21,21,22,22,23,23,24,24,26,26,27,27,28,28,29,29,30,30],"right_children":[2,4,6,8,10,12,14,16,18,20,22,24,26,28,30,32,34,36,38,40,42,44,46,48,50,-1,52,54,56,58,60,-1,-1,-1,-1,-1,-1,-1,-1,-1,-1,-1,-1,-1,-1,-1,-1,-1,-1,-1,-1,-1,-1,-1,-1,-1,-1,-1,-1,-1,-1],"split_conditions":[3.1E1,1.5E1,5.5E1,1.2E1,2.77E1,2.63E1,2.41E2,1.92E2,1.4E1,1.47E1,2.92E2,2.58E2,3.2E1,1.63E1,2.74E2,3E0,1.06E1,3.8E1,1.93E1,1.82E2,2.14E1,8.5E1,3.28E1,1.54E2,1.87E1,1.4852072E0,4.3E1,3E1,2.3E0,2.57E2,5.7E1,2.1790743E-1,-3.6386645E-1,5.339285E-1,-2.4669676E-1,-3.6087742E-1,-1.0561265E-1,-1.501608E-1,-3.3780548E-1,4.155258E-2,3.2889706E-1,-2.425371E-1,1.4967118E-1,-2.4594028E-1,-3.6758192E-2,-8.150751E-2,-3.738333E-1,8.437512E-2,3.0404437E-1,1.9661771E-1,-2.4028245E-1,2.7925417E-1,6.491334E-1,-1.1995087E-1,1.1241826E0,-3.3230916E-1,6.141959E-1,1.0686698E-1,7.214393E-1,1.1389351E-1,-3.004967E-1],"split_indices":[0,0,0,0,4,6,5,5,0,6,5,5,0,3,5,5,3,5,3,5,6,5,4,5,3,0,0,5,6,5,0,0,0,0,0,0,0,0,0,0,0,0,0,0,0,0,0,0,0,0,0,0,0,0,0,0,0,0,0,0,0],"split_type":[0,0,0,0,0,0,0,0,0,0,0,0,0,0,0,0,0,0,0,0,0,0,0,0,0,0,0,0,0,0,0,0,0,0,0,0,0,0,0,0,0,0,0,0,0,0,0,0,0,0,0,0,0,0,0,0,0,0,0,0,0],"sum_hessian":[1.329E3,9.29E2,4E2,2.72E2,6.57E2,3.27E2,7.3E1,1.35E2,1.37E2,1.04E2,5.53E2,3.15E2,1.2E1,6E1,1.3E1,6.8E1,6.7E1,8.3E1,5.4E1,7.6E1,2.8E1,5E2,5.3E1,2.59E2,5.6E1,1E0,1.1E1,2E1,4E1,9E0,4E0,1E0,6.7E1,1E0,6.6E1,6E0,7.7E1,2.2E1,3.2E1,5.1E1,2.5E1,2E1,8E0,7.1E1,4.29E2,1.4E1,3.9E1,1.1E2,1.49E2,3E1,2.6E1,7E0,4E0,1E0,1.9E1,1E0,3.9E1,7E0,2E0,1E0,3E0],"tree_param":{"num_deleted":"0","num_feature":"7","num_nodes":"61","size_leaf_vector":"1"}},{"base_weights":[-3.9771773E-2,-2.7857883E0,4.322581E0,-4.5210576E0,-1.9048874E0,3.1221645E0,1.1914763E1,-6.133958E0,-3.7119362E0,-4.265886E0,-1.3211589E0,1.951933E1,2.7733297E0,1.4002035E1,1.8463595E0,-2.8285441E0,-6.990734E0,1.3737671E-1,-4.379044E0,-2.0999162E0,-6.162289E0,6.827604E-2,-2.4226127E0,-1.9863466E0,6.3192795E1,2.258227E0,6.847103E0,9.021807E0,2.0015856E1,-2.0030127E0,8.405957E0,-1.994549E-3,-2.8066042E-1,-3.699393E-1,7.959075E-2,3.4939855E-1,-4.8210673E-2,-1.0982411E-1,-2.789657E-1,4.5368705E-2,-2.3012984E-1,-3.2630044E-1,1.2193807E-1,2.3955873E-1,-3.1747133E-2,-1.4662796E-1,1.15517154E-1,1.4462483E-1,-4.727818E-1,4.8276887E0,-8.822899E-2,1.7050318E-1,2.350743E-2,-3.2375377E-2,4.296616E-1,5.7400465E-1,-4.767585E-3,1.0901657E0,-1.7997043E-2,1.4884362E-1,-3.2911476E-1,-5.713771E-2,7.5763416E-1],"categories":[],"categories_nodes":[],"categories_segments":[],"categories_sizes":[],"default_left":[0,0,0,0,0,0,0,0,0,0,0,0,0,0,0,0,0,0,0,0,0,0,0,0,0,0,0,0,0,0,0,0,0,0,0,0,0,0,0,0,0,0,0,0,0,0,0,0,0,0,0,0,0,0,0,0,0,0,0,0,0,0,0],"id":22,"left_children":[1,3,5,7,9,11,13,15,17,19,21,23,25,27,29,31,33,35,37,39,41,43,45,47,49,51,53,55,57,59,61,-1,-1,-1,-1,-1,-1,-1,-1,-1,-1,-1,-1,-1,-1,-1,-1,-1,-1,-1,-1,-1,-1,-1,-1,-1,-1,-1,-1,-1,-1,-1,-1],"loss_changes":[1.575257E4,1.2249678E3,4.5925996E3,3.3089502E2,7.344479E2,2.4626235E3,1.4242158E3,2.3227441E2,4.7052856E2,4.2245996E2,6.6129755E2,8.578569E3,8.91051E2,1.526583E3,3.4509155E2,1.5508533E2,2.5692603E2,2.1804121E2,3.964126E2,3.880169E2,1.9110449E2,6.407183E2,5.884418E2,2.8244083E2,6.6715E3,7.913329E2,6.337185E2,7.4070996E2,9.1836914E2,2.2483333E2,3.3942853E2,0E0,0E0,0E0,0E0,0E0,0E0,0E0,0E0,0E0,0E0,0E0,0E0,0E0,0E0,0E0,0E0,0E0,0E0,0E0,0E0,0E0,0E0,0E0,0E0,0E0,0E0,0E0,0E0,0E0,0E0,0E0,0E0],"parents":[2147483647,0,0,1,1,2,2,3,3,4,4,5,5,6,6,7,7,8,8,9,9,10,10,11,11,12,12,13,13,14,14,15,15,16,16,17,17,18,18,19,19,20,20,21,21,22,22,23,23,24,24,25,25,26,26,27,27,28,28,29,29,30,30],"right_children":[2,4,6,8,10,12,14,16,18,20,22,24,26,28,30,32,34,36,38,40,42,44,46,48,50,52,54,56,58,60,62,-1,-1,-1,-1,-1,-1,-1,-1,-1,-1,-1,-1,-1,-1,-1,-1,-1,-1,-1,-1,-1,-1,-1,-1,-1,-1,-1,-1,-1,-1,-1,-1],"split_conditions":[2.7E1,1.5E1,5.5E1,1.16E2,1.01E2,1.3E1,2.37E2,7E-1,4.8E0,3.1E1,2.18E2,3.8E1,4.8E1,1.8E2,4.86E1,3.46E1,1.87E1,1.25E2,2.27E2,2.6E0,2.36E1,3.6E0,1.93E1,3.9E0,4.2E1,2.25E2,1.19E2,1.7E2,6.8E1,2.57E2,3.3E1,-1.994549E-3,-2.8066042E-1,-3.699393E-1,7.959075E-2,3.4939855E-1,-4.8210673E-2,-1.0982411E-1,-2.789657E-1,4.5368705E-2,-2.3012984E-1,-3.2630044E-1,1.2193807E-1,2.3955873E-1,-3.1747133E-2,-1.4662796E-1,1.15517154E-1,1.4462483E-1,-4.727818E-1,4.8276887E0,-8.822899E-2,1.7050318E-1,2.350743E-2,-3.2375377E-2,4.296616E-1,5.7400465E-1,-4.767585E-3,1.0901657E0,-1.7997043E-2,1.4884362E-1,-3.2911476E-1,-5.713771E-2,7.5763416E-1],"split_indices":[0,0,0,5,5,1,5,6,6,4,5,0,0,5,4,4,6,5,5,6,6,6,6,6,0,5,5,5,4,5,1,0,0,0,0,0,0,0,0,0,0,0,0,0,0,0,0,0,0,0,0,0,0,0,0,0,0,0,0,0,0,0,0],"split_type":[0,0,0,0,0,0,0,0,0,0,0,0,0,0,0,0,0,0,0,0,0,0,0,0,0,0,0,0,0,0,0,0,0,0,0,0,0,0,0,0,0,0,0,0,0,0,0,0,0,0,0,0,0,0,0,0,0,0,0,0,0,0,0],"sum_hessian":[1.313E3,8.06E2,5.07E2,2.7E2,5.36E2,4.39E2,6.8E1,8.8E1,1.82E2,1.05E2,4.31E2,8E0,4.31E2,5.6E1,1.2E1,1.9E1,6.9E1,2.7E1,1.55E2,5E1,5.5E1,1.91E2,2.4E2,6E0,2E0,3.84E2,4.7E1,3.2E1,2.4E1,8E0,4E0,1E1,9E0,6.6E1,3E0,3E0,2.4E1,5.6E1,9.9E1,2.3E1,2.7E1,5.3E1,2E0,2.4E1,1.67E2,2.17E2,2.3E1,4E0,2E0,1E0,1E0,2.33E2,1.51E2,9E0,3.8E1,2.5E1,7E0,2.2E1,2E0,4E0,4E0,2E0,2E0],"tree_param":{"num_deleted":"0","num_feature":"7","num_nodes":"63","size_leaf_vector":"1"}},{"base_weights":[-1.5491875E-1,-2.3997421E0,4.3200417E0,-4.20292E0,-1.5989833E0,1.9596742E0,6.8461785E0,1.1703342E0,-4.3898244E0,8.851743E-3,-2.514861E0,3.6484828E0,-2.450552E-1,1.9493793E1,5.873107E0,-1.2983217E0,3.8986545E0,-5.865009E0,-3.6232636E0,-2.958575E-1,6.620157E0,-6.0132513E0,-1.9432296E0,-3.050329E0,4.469107E0,2.871031E0,-2.1400914E0,3.1780157E1,9.1221344E-1,3.345161E0,9.176195E0,8.470018E-2,-2.4276574E-1,3.2007036E-1,4.8175175E-3,-3.2340094E-1,1.7773147E-1,-7.640907E-2,-2.4127577E-1,7.603352E-2,-7.385557E-2,4.4828746E-1,4.3016553E-2,-3.507879E-1,-1.7813896E-1,-7.613876E-2,-3.1255904E-1,4.504353E-2,-3.847341E-1,3.2129535E-1,9.7400755E-2,-1.9797523E-1,3.0267367E-1,-1.2858121E-1,6.261621E-1,6.108848E-1,4.7069964E0,2.175868E-1,-4.9312305E-1,5.546641E-1,1.2547764E-1,7.269919E-1,2.8145784E-1],"categories":[],"categories_nodes":[],"categories_segments":[],"categories_sizes":[],"default_left":[0,0,0,0,0,0,0,0,0,0,0,0,0,0,0,0,0,0,0,0,0,0,0,0,0,0,0,0,0,0,0,0,0,0,0,0,0,0,0,0,0,0,0,0,0,0,0,0,0,0,0,0,0,0,0,0,0,0,0,0,0,0,0],"id":23,"left_children":[1,3,5,7,9,11,13,15,17,19,21,23,25,27,29,31,33,35,37,39,41,43,45,47,49,51,53,55,57,59,61,-1,-1,-1,-1,-1,-1,-1,-1,-1,-1,-1,-1,-1,-1,-1,-1,-1,-1,-1,-1,-1,-1,-1,-1,-1,-1,-1,-1,-1,-1,-1,-1],"loss_changes":[1.3471331E4,1.2826914E3,2.657834E3,2.8031152E2,9.130222E2,8.6843835E2,2.543829E3,7.241455E1,2.784165E2,4.572414E2,7.782322E2,7.392638E2,6.0846405E2,3.3955107E3,1.6560098E3,7.2087006E1,4.6964355E1,5.285232E2,4.3845605E2,4.678806E2,1.2738852E2,1.1011804E2,6.081332E2,2.8219336E2,5.696084E2,8.717423E2,4.3717856E2,9.829022E3,3.02337E2,7.2319055E2,1.573332E3,0E0,0E0,0E0,0E0,0E0,0E0,0E0,0E0,0E0,0E0,0E0,0E0,0E0,0E0,0E0,0E0,0E0,0E0,0E0,0E0,0E0,0E0,0E0,0E0,0E0,0E0,0E0,0E0,0E0,0E0,0E0,0E0],"parents":[2147483647,0,0,1,1,2,2,3,3,4,4,5,5,6,6,7,7,8,8,9,9,10,10,11,11,12,12,13,13,14,14,15,15,16,16,17,17,18,18,19,19,20,20,21,21,22,22,23,23,24,24,25,25,26,26,27,27,28,28,29,29,30,30],"right_children":[2,4,6,8,10,12,14,16,18,20,22,24,26,28,30,32,34,36,38,40,42,44,46,48,50,52,54,56,58,60,62,-1,-1,-1,-1,-1,-1,-1,-1,-1,-1,-1,-1,-1,-1,-1,-1,-1,-1,-1,-1,-1,-1,-1,-1,-1,-1,-1,-1,-1,-1,-1,-1],"split_conditions":[3E1,1.5E1,4.1E1,2.12E1,1.71E1,1.91E1,4.2E1,1.06E1,1.16E2,1.68E1,1.01E2,4.9E1,2.01E2,1.75E1,5.2E1,9.6E0,1.12E1,1.87E1,2.27E2,7.6E0,3.53E1,1.36E1,2.88E2,1.23E1,3.5E1,6.9E0,4.34E1,1.5E1,1.73E1,2.2E1,3.24E1,8.470018E-2,-2.4276574E-1,3.2007036E-1,4.8175175E-3,-3.2340094E-1,1.7773147E-1,-7.640907E-2,-2.4127577E-1,7.603352E-2,-7.385557E-2,4.4828746E-1,4.3016553E-2,-3.507879E-1,-1.7813896E-1,-7.613876E-2,-3.1255904E-1,4.504353E-2,-3.847341E-1,3.2129535E-1,9.7400755E-2,-1.9797523E-1,3.0267367E-1,-1.2858121E-1,6.261621E-1,6.108848E-1,4.7069964E0,2.175868E-1,-4.9312305E-1,5.546641E-1,1.2547764E-1,7.269919E-1,2.8145784E-1],"split_indices":[0,0,0,4,3,3,0,3,5,3,5,5,5,6,0,3,3,6,5,6,4,6,5,3,0,6,3,6,3,4,4,0,0,0,0,0,0,0,0,0,0,0,0,0,0,0,0,0,0,0,0,0,0,0,0,0,0,0,0,0,0,0,0],"split_type":[0,0,0,0,0,0,0,0,0,0,0,0,0,0,0,0,0,0,0,0,0,0,0,0,0,0,0,0,0,0,0,0,0,0,0,0,0,0,0,0,0,0,0,0,0,0,0,0,0,0,0,0,0,0,0,0,0,0,0,0,0,0,0],"sum_hessian":[1.339E3,8.92E2,4.47E2,2.73E2,6.19E2,2.32E2,2.15E2,9E0,2.64E2,2.25E2,3.94E2,1.31E2,1.01E2,1.4E1,2.01E2,5E0,4E0,8.8E1,1.76E2,2.16E2,9E0,5.4E1,3.4E2,1.4E1,1.17E2,3.8E1,6.3E1,8E0,6E0,1.15E2,8.6E1,3E0,2E0,2E0,2E0,8.3E1,5E0,6.5E1,1.11E2,8.5E1,1.31E2,6E0,3E0,3.7E1,1.7E1,3.11E2,2.9E1,8E0,6E0,6.5E1,5.2E1,1.2E1,2.6E1,6.2E1,1E0,7E0,1E0,5E0,1E0,1E1,1.05E2,3.3E1,5.3E1],"tree_param":{"num_deleted":"0","num_feature":"7","num_nodes":"63","size_leaf_vector":"1"}},{"base_weights":[-1.4897506E-1,-1.8790241E0,1.277927E0,-3.2904288E-1,-2.9789283E0,9.466914E-1,9.252047E0,-3.071547E0,1.2771329E0,-3.084466E0,8.5161966E-1,-2.1297648E0,1.6233637E0,1.25065565E1,3.5992768E0,1.2835056E0,-3.8595755E0,-3.2309506E0,1.9865582E0,-6.34559E0,-2.4306235E0,-2.7317176E0,6.066029E0,3.8230321E0,-8.1504107E-1,5.7271466E0,2.0264927E1,-1.6545244E0,3.7941763E-1,-6.43632E-2,1.8469183E-1,-2.1810411E-1,2.2249667E-1,2.7602547E-1,-2.4516566E-1,-1.3898353E-2,1.7682266E-1,-3.52087E-1,-1.365488E-1,2.6478127E-2,-1.8185304E-1,-1.6736074E-1,1.517699E-1,-3.775609E-2,9.98002E-1,2.3297837E-1,-1.6849571E-3,2.0798111E-1,-7.450182E-2,1.0467167E-1,3.7522462E-1,1.3076407E0,8.6708836E-2,1.2961505E-1,-3.382725E-1],"categories":[],"categories_nodes":[],"categories_segments":[],"categories_sizes":[],"default_left":[0,0,0,0,0,0,0,0,0,0,0,0,0,0,0,0,0,0,0,0,0,0,0,0,0,0,0,0,0,0,0,0,0,0,0,0,0,0,0,0,0,0,0,0,0,0,0,0,0,0,0,0,0,0,0],"id":24,"left_children":[1,3,5,7,9,11,13,15,17,19,-1,21,23,25,27,29,31,33,35,37,39,41,43,45,47,49,51,53,-1,-1,-1,-1,-1,-1,-1,-1,-1,-1,-1,-1,-1,-1,-1,-1,-1,-1,-1,-1,-1,-1,-1,-1,-1,-1,-1],"loss_changes":[3.288122E3,1.0253276E3,1.9193992E3,1.1095637E3,7.959419E2,1.4648479E3,4.884983E2,3.2412103E2,5.149242E2,7.3299976E2,0E0,6.4312274E2,3.0925972E3,8.306887E2,2.640489E2,9.770103E1,3.4928174E2,3.4905225E2,4.8533215E2,1.2671509E2,1.0518821E3,4.3256763E2,8.680304E2,9.7772266E2,9.262555E2,5.533188E1,8.2750195E2,1.4776933E2,0E0,0E0,0E0,0E0,0E0,0E0,0E0,0E0,0E0,0E0,0E0,0E0,0E0,0E0,0E0,0E0,0E0,0E0,0E0,0E0,0E0,0E0,0E0,0E0,0E0,0E0,0E0],"parents":[2147483647,0,0,1,1,2,2,3,3,4,4,5,5,6,6,7,7,8,8,9,9,11,11,12,12,13,13,14,14,15,15,16,16,17,17,18,18,19,19,20,20,21,21,22,22,23,23,24,24,25,25,26,26,27,27],"right_children":[2,4,6,8,10,12,14,16,18,20,-1,22,24,26,28,30,32,34,36,38,40,42,44,46,48,50,52,54,-1,-1,-1,-1,-1,-1,-1,-1,-1,-1,-1,-1,-1,-1,-1,-1,-1,-1,-1,-1,-1,-1,-1,-1,-1,-1,-1],"split_conditions":[2.2E1,1.82E1,2.51E1,1.4E1,3.53E2,1.05E2,3.7E1,1E0,1.3E1,9.3E1,8.5161966E-1,2.65E1,2.27E2,1.55E1,9.5E1,1.8E1,1.8E1,7E-1,1.52E2,1.38E1,2.04E2,6.1E1,8.2E1,2.62E1,1.25E1,2.6E1,1.85E1,4.2E1,3.7941763E-1,-6.43632E-2,1.8469183E-1,-2.1810411E-1,2.2249667E-1,2.7602547E-1,-2.4516566E-1,-1.3898353E-2,1.7682266E-1,-3.52087E-1,-1.365488E-1,2.6478127E-2,-1.8185304E-1,-1.6736074E-1,1.517699E-1,-3.775609E-2,9.98002E-1,2.3297837E-1,-1.6849571E-3,2.0798111E-1,-7.450182E-2,1.0467167E-1,3.7522462E-1,1.3076407E0,8.6708836E-2,1.2961505E-1,-3.382725E-1],"split_indices":[2,3,6,2,5,5,2,6,1,5,0,3,5,3,5,1,3,6,5,6,5,2,5,3,3,2,3,1,0,0,0,0,0,0,0,0,0,0,0,0,0,0,0,0,0,0,0,0,0,0,0,0,0,0,0],"split_type":[0,0,0,0,0,0,0,0,0,0,0,0,0,0,0,0,0,0,0,0,0,0,0,0,0,0,0,0,0,0,0,0,0,0,0,0,0,0,0,0,0,0,0,0,0,0,0,0,0,0,0,0,0,0,0],"sum_hessian":[1.33E3,6.01E2,7.29E2,2.5E2,3.51E2,7.01E2,2.8E1,9.2E1,1.58E2,3.5E2,1E0,1.26E2,5.75E2,1.7E1,1.1E1,1.4E1,7.8E1,2.1E1,1.37E2,5.7E1,2.93E2,1.18E2,8E0,3.02E2,2.73E2,1E1,7E0,5E0,6E0,7E0,7E0,7.4E1,4E0,3E0,1.8E1,5.6E1,8.1E1,4.7E1,1E1,8.5E1,2.08E2,1.07E2,1.1E1,6E0,2E0,2.48E2,5.4E1,3.2E1,2.41E2,4E0,6E0,5E0,2E0,3E0,2E0],"tree_param":{"num_deleted":"0","num_feature":"7","num_nodes":"55","size_leaf_vector":"1"}},{"base_weights":[1.4024864E-1,-2.2697186E0,4.0754766E0,-3.7973876E0,-1.5287839E0,3.505298E0,1.7321331E1,-6.102046E0,-3.377352E0,-1.2186544E0,-3.9953985E0,1.8924233E0,6.019265E0,1.8763533E1,-2.8806725E-1,-4.416993E0,-3.6782736E-1,-3.5654385E0,1.1923304E0,-2.825771E0,-4.8758537E-1,-9.108899E-1,-6.0007095E0,4.908772E0,8.2493895E-1,4.719597E1,5.120707E0,2.0191092E1,-2.0900278E-1,-3.0709535E-1,-5.3094197E-2,1.6339889E-1,-1.8362513E-1,4.1780263E-1,-2.4880798E-1,1.0592802E-1,-1.5693204E-1,1.855038E-2,-9.956771E-2,-1.5059786E-1,1.696227E-1,-2.1454313E-1,-4.3126932E-1,3.2351577E-1,-5.8343768E-2,9.968027E-2,-6.1870676E-2,4.5834975E0,9.073315E-2,2.9246944E-1,-1.8852709E-1,1.1056138E0,1.2870078E-1],"categories":[],"categories_nodes":[],"categories_segments":[],"categories_sizes":[],"default_left":[0,0,0,0,0,0,0,0,0,0,0,0,0,0,0,0,0,0,0,0,0,0,0,0,0,0,0,0,0,0,0,0,0,0,0,0,0,0,0,0,0,0,0,0,0,0,0,0,0,0,0,0,0],"id":25,"left_children":[1,3,5,7,9,11,13,15,17,19,21,23,25,27,-1,29,-1,31,33,35,37,39,41,43,45,47,49,51,-1,-1,-1,-1,-1,-1,-1,-1,-1,-1,-1,-1,-1,-1,-1,-1,-1,-1,-1,-1,-1,-1,-1,-1,-1],"loss_changes":[1.285976E4,9.46125E2,3.8288223E3,2.4463403E2,4.2963367E2,1.9956929E3,8.0718945E2,5.4176147E1,2.0537305E2,5.931284E2,3.8421417E2,9.715818E2,6.8992593E3,7.394668E2,0E0,1.0922348E2,0E0,1.7661499E2,4.8347455E2,2.5106421E2,4.5134155E2,2.452999E2,1.3352576E2,7.570537E2,5.447623E2,7.906799E3,1.2530449E3,5.861509E2,0E0,0E0,0E0,0E0,0E0,0E0,0E0,0E0,0E0,0E0,0E0,0E0,0E0,0E0,0E0,0E0,0E0,0E0,0E0,0E0,0E0,0E0,0E0,0E0,0E0],"parents":[2147483647,0,0,1,1,2,2,3,3,4,4,5,5,6,6,7,7,8,8,9,9,10,10,11,11,12,12,13,13,15,15,17,17,18,18,19,19,20,20,21,21,22,22,23,23,24,24,25,25,26,26,27,27],"right_children":[2,4,6,8,10,12,14,16,18,20,22,24,26,28,-1,30,-1,32,34,36,38,40,42,44,46,48,50,52,-1,-1,-1,-1,-1,-1,-1,-1,-1,-1,-1,-1,-1,-1,-1,-1,-1,-1,-1,-1,-1,-1,-1,-1,-1],"split_conditions":[2.8E1,1.5E1,6.7E1,8E0,2.92E2,4.1E1,2.72E2,3.56E1,5E1,1.47E2,3.35E1,2E1,1.3E1,6.8E1,-2.8806725E-1,1.8E1,-3.6782736E-1,1.84E1,5.3E1,1.94E1,4.82E1,2.6E1,3.22E2,4.86E1,4E1,4.2E1,2.75E2,1.25E2,-2.0900278E-1,-3.0709535E-1,-5.3094197E-2,1.6339889E-1,-1.8362513E-1,4.1780263E-1,-2.4880798E-1,1.0592802E-1,-1.5693204E-1,1.855038E-2,-9.956771E-2,-1.5059786E-1,1.696227E-1,-2.1454313E-1,-4.3126932E-1,3.2351577E-1,-5.8343768E-2,9.968027E-2,-6.1870676E-2,4.5834975E0,9.073315E-2,2.9246944E-1,-1.8852709E-1,1.1056138E0,1.2870078E-1],"split_indices":[0,0,0,0,5,0,5,4,2,5,4,2,1,4,0,2,0,4,2,4,4,1,5,4,4,0,5,0,0,0,0,0,0,0,0,0,0,0,0,0,0,0,0,0,0,0,0,0,0,0,0,0,0],"split_type":[0,0,0,0,0,0,0,0,0,0,0,0,0,0,0,0,0,0,0,0,0,0,0,0,0,0,0,0,0,0,0,0,0,0,0,0,0,0,0,0,0,0,0,0,0,0,0,0,0,0,0,0,0],"sum_hessian":[1.354E3,8.4E2,5.14E2,2.73E2,5.67E2,4.94E2,2E1,4E1,2.33E2,5.05E2,6.2E1,3.02E2,1.92E2,1.9E1,1E0,1.9E1,2.1E1,2.24E2,9E0,1.57E2,3.48E2,2.5E1,3.7E1,7.8E1,2.24E2,3E0,1.89E2,1.8E1,1E0,1.2E1,7E0,3E0,2.21E2,4E0,5E0,9E0,1.48E2,2.22E2,1.26E2,1.7E1,8E0,2.4E1,1.3E1,6.2E1,1.6E1,1.43E2,8.1E1,1E0,2E0,1.75E2,1.4E1,1.6E1,2E0],"tree_param":{"num_deleted":"0","num_feature":"7","num_nodes":"53","size_leaf_vector":"1"}},{"base_weights":[1.3146168E-1,-1.0981652E0,1.8144562E0,-1.7738672E0,9.134648E-1,1.5936564E0,1.4983504E1,-2.1075344E0,7.9090166E-1,9.606285E0,4.8095742E-1,1.0737802E1,1.3323461E0,1.400599E0,4.9267235E-1,2.260891E-1,-2.563685E0,1.4435816E0,-4.9164834E0,1.5525446E0,1.3374398E1,-2.0076673E-2,7.034486E0,-1.8423111E0,6.1672356E1,4.9450846E0,8.44212E-1,-2.7842363E-2,6.275633E-1,-2.0071314E-1,-1.1384954E-1,5.770865E-1,4.481871E-2,-2.648682E-1,-6.5780066E-2,9.758928E-2,8.870554E-3,1.7301846E-1,7.332565E-1,-5.3451996E-2,9.206556E-2,2.0200935E-1,1.0741519E0,4.7908798E-1,-2.395242E-1,1.5651675E-1,4.4689097E0,3.89889E-2,3.8324487E-1,-7.354603E-2,6.802534E-2],"categories":[],"categories_nodes":[],"categories_segments":[],"categories_sizes":[],"default_left":[0,0,0,0,0,0,0,0,0,0,0,0,0,0,0,0,0,0,0,0,0,0,0,0,0,0,0,0,0,0,0,0,0,0,0,0,0,0,0,0,0,0,0,0,0,0,0,0,0,0,0],"id":26,"left_children":[1,3,5,7,9,11,13,15,17,19,21,23,25,-1,-1,27,29,31,33,35,37,39,41,43,45,47,49,-1,-1,-1,-1,-1,-1,-1,-1,-1,-1,-1,-1,-1,-1,-1,-1,-1,-1,-1,-1,-1,-1,-1,-1],"loss_changes":[2.7109094E3,1.0305823E3,1.5840924E3,4.8689368E2,7.134842E2,1.2879493E3,3.2551685E2,5.349502E2,2.5295366E2,2.523623E2,6.010293E2,9.725055E3,9.322441E2,0E0,0E0,8.079249E2,1.6552563E2,3.212011E2,2.6313019E0,1.8497696E0,2.6031494E1,3.3585062E2,4.7562714E2,4.83743E2,4.586084E3,7.0774097E2,5.6259265E2,0E0,0E0,0E0,0E0,0E0,0E0,0E0,0E0,0E0,0E0,0E0,0E0,0E0,0E0,0E0,0E0,0E0,0E0,0E0,0E0,0E0,0E0,0E0,0E0],"parents":[2147483647,0,0,1,1,2,2,3,3,4,4,5,5,6,6,7,7,8,8,9,9,10,10,11,11,12,12,15,15,16,16,17,17,18,18,19,19,20,20,21,21,22,22,23,23,24,24,25,25,26,26],"right_children":[2,4,6,8,10,12,14,16,18,20,22,24,26,-1,-1,28,30,32,34,36,38,40,42,44,46,48,50,-1,-1,-1,-1,-1,-1,-1,-1,-1,-1,-1,-1,-1,-1,-1,-1,-1,-1,-1,-1,-1,-1,-1,-1],"split_conditions":[2.6E1,2.5E1,2.63E1,1.86E1,1.91E1,1.3E1,2.68E1,2.88E1,2.4E1,9E0,2.28E1,1.36E1,1.23E1,1.400599E0,4.9267235E-1,1.49E1,3.31E1,1.87E1,2.28E1,3.7E1,1.4E1,4.36E1,2.5E1,2.81E1,1.1E1,6.3E0,5.1E0,-2.7842363E-2,6.275633E-1,-2.0071314E-1,-1.1384954E-1,5.770865E-1,4.481871E-2,-2.648682E-1,-6.5780066E-2,9.758928E-2,8.870554E-3,1.7301846E-1,7.332565E-1,-5.3451996E-2,9.206556E-2,2.0200935E-1,1.0741519E0,4.7908798E-1,-2.395242E-1,1.5651675E-1,4.4689097E0,3.89889E-2,3.8324487E-1,-7.354603E-2,6.802534E-2],"split_indices":[2,1,6,6,4,1,6,4,1,3,6,6,3,0,0,3,4,6,6,1,2,4,2,4,1,6,6,0,0,0,0,0,0,0,0,0,0,0,0,0,0,0,0,0,0,0,0,0,0,0,0],"split_type":[0,0,0,0,0,0,0,0,0,0,0,0,0,0,0,0,0,0,0,0,0,0,0,0,0,0,0,0,0,0,0,0,0,0,0,0,0,0,0,0,0,0,0,0,0,0,0,0,0,0,0],"sum_hessian":[1.308E3,7.56E2,5.52E2,5.66E2,1.9E2,5.44E2,8E0,5.01E2,6.5E1,8E0,1.82E2,1.4E1,5.3E2,1E0,7E0,8.2E1,4.19E2,5.9E1,6E0,3E0,5E0,1.7E2,1.2E1,1.2E1,2E0,6.2E1,4.68E2,7.8E1,4E0,6.7E1,3.52E2,2E0,5.7E1,5E0,1E0,2E0,1E0,1E0,4E0,1.09E2,6.1E1,1.1E1,1E0,2E0,1E1,1E0,1E0,2.5E1,3.7E1,8.5E1,3.83E2],"tree_param":{"num_deleted":"0","num_feature":"7","num_nodes":"51","size_leaf_vector":"1"}},{"base_weights":[-1.9618817E-2,-1.1098189E0,1.7974199E0,-1.277463E0,9.782141E0,-2.0226154E0,2.5234E0,8.6831355E-1,-1.808813E0,1.3183715E1,1.7028793E0,-3.986196E0,3.513795E0,3.9912639E0,8.0681735E-1,2.0556178E0,-1.951091E0,-1.9263209E0,1.1555623E1,6.272882E0,1.7457806E1,-1.3057338E-1,1.7171665E-1,-5.142213E-1,-5.544608E0,8.584211E0,2.2614024E0,2.7644265E0,8.865188E0,-9.389509E-1,3.4705026E0,-5.4659475E-2,2.2765301E-1,2.4190398E-1,-1.4934216E-1,-6.691777E-2,-2.1275161E-1,1.0021315E0,-1.8061295E-1,3.8882205E-1,1.3391814E-1,4.083208E-1,1.365584E0,3.155297E-2,-3.6072493E-1,-3.2355464E-1,1.3027988E-1,1.0540181E-1,5.020129E-1,1.4787333E-1,-5.441029E-2,2.626879E-1,2.5382445E-3,2.9917288E-1,6.714556E-1,-9.620556E-2,4.084966E-1,2.596936E-1,-1.8199399E-1],"categories":[],"categories_nodes":[],"categories_segments":[],"categories_sizes":[],"default_left":[0,0,0,0,0,0,0,0,0,0,0,0,0,0,0,0,0,0,0,0,0,0,0,0,0,0,0,0,0,0,0,0,0,0,0,0,0,0,0,0,0,0,0,0,0,0,0,0,0,0,0,0,0,0,0,0,0,0,0],"id":27,"left_children":[1,3,5,7,9,11,13,15,17,19,21,23,25,27,29,31,33,35,37,39,41,-1,-1,43,45,47,49,51,53,55,57,-1,-1,-1,-1,-1,-1,-1,-1,-1,-1,-1,-1,-1,-1,-1,-1,-1,-1,-1,-1,-1,-1,-1,-1,-1,-1,-1,-1],"loss_changes":[2.6940867E3,1.5645721E3,1.4194714E3,9.5702356E2,3.3481836E2,9.054441E2,1.0777351E3,5.6304175E2,1.0775872E3,1.563269E2,4.6319103E1,3.272057E2,1.20290985E2,1.3567605E3,9.286439E2,9.3292505E2,3.6604553E2,9.07563E2,8.4477856E2,6.1947327E0,2.3474243E2,0E0,0E0,1.5802673E2,3.3400476E2,1.6553223E1,4.7517654E1,1.2562008E3,5.246399E2,1.1015387E3,9.869563E2,0E0,0E0,0E0,0E0,0E0,0E0,0E0,0E0,0E0,0E0,0E0,0E0,0E0,0E0,0E0,0E0,0E0,0E0,0E0,0E0,0E0,0E0,0E0,0E0,0E0,0E0,0E0,0E0],"parents":[2147483647,0,0,1,1,2,2,3,3,4,4,5,5,6,6,7,7,8,8,9,9,10,10,11,11,12,12,13,13,14,14,15,15,16,16,17,17,18,18,19,19,20,20,23,23,24,24,25,25,26,26,27,27,28,28,29,29,30,30],"right_children":[2,4,6,8,10,12,14,16,18,20,22,24,26,28,30,32,34,36,38,40,42,-1,-1,44,46,48,50,52,54,56,58,-1,-1,-1,-1,-1,-1,-1,-1,-1,-1,-1,-1,-1,-1,-1,-1,-1,-1,-1,-1,-1,-1,-1,-1,-1,-1,-1,-1],"split_conditions":[2.8E1,2.51E1,9.1E1,2.92E1,1.86E2,1.72E1,2.18E2,1.38E1,5.2E1,9.8E1,1.8E1,2.74E1,2.56E1,5.1E1,3.7E1,1.14E2,1.98E1,2.66E2,5.8E1,2.3E1,2.5E1,-1.3057338E-1,1.7171665E-1,8.5E1,6.6E1,3.8E1,5.2E1,3.7E1,1.8E2,2.05E1,2.81E2,-5.4659475E-2,2.2765301E-1,2.4190398E-1,-1.4934216E-1,-6.691777E-2,-2.1275161E-1,1.0021315E0,-1.8061295E-1,3.8882205E-1,1.3391814E-1,4.083208E-1,1.365584E0,3.155297E-2,-3.6072493E-1,-3.2355464E-1,1.3027988E-1,1.0540181E-1,5.020129E-1,1.4787333E-1,-5.441029E-2,2.626879E-1,2.5382445E-3,2.9917288E-1,6.714556E-1,-9.620556E-2,4.084966E-1,2.596936E-1,-1.8199399E-1],"split_indices":[1,6,5,4,5,6,5,6,2,5,1,4,4,1,2,5,4,5,2,1,2,0,0,5,1,1,1,1,5,6,5,0,0,0,0,0,0,0,0,0,0,0,0,0,0,0,0,0,0,0,0,0,0,0,0,0,0,0,0],"split_type":[0,0,0,0,0,0,0,0,0,0,0,0,0,0,0,0,0,0,0,0,0,0,0,0,0,0,0,0,0,0,0,0,0,0,0,0,0,0,0,0,0,0,0,0,0,0,0,0,0,0,0,0,0,0,0,0,0,0,0],"sum_hessian":[1.358E3,8.49E2,5.09E2,8.37E2,1.2E1,8.1E1,4.28E2,1.66E2,6.71E2,8E0,4E0,6E1,2.1E1,2.3E2,1.98E2,1.17E2,4.9E1,6.66E2,5E0,4E0,4E0,1E0,3E0,1.9E1,4.1E1,3E0,1.8E1,1.85E2,4.5E1,1.2E2,7.8E1,5.2E1,6.5E1,6E0,4.3E1,5.33E2,1.33E2,3E0,2E0,2E0,2E0,3E0,1E0,1.7E1,2E0,3.7E1,4E0,1E0,2E0,1.5E1,3E0,9.6E1,8.9E1,2.9E1,1.6E1,1.09E2,1.1E1,6.3E1,1.5E1],"tree_param":{"num_deleted":"0","num_feature":"7","num_nodes":"59","size_leaf_vector":"1"}},{"base_weights":[1.8036798E-1,-7.304248E-1,2.204654E0,-8.1915677E-1,1.2730676E1,1.5496576E1,1.83175E0,-2.6235232E-1,-2.4448533E0,8.9403534E-1,1.6204071E0,5.5847412E1,3.2445633E-1,1.5710037E0,1.1791608E1,-7.0696414E-1,2.9507275E0,-2.7033153E0,9.726595E0,1.4991379E-1,-2.8383255E-2,4.3588605E0,-1.7030464E-1,-3.2968566E0,1.8300966E0,2.0180318E0,-1.4312223E0,1.3314444E0,7.184256E0,-4.2831324E-2,1.7016093E-1,4.1809583E-1,-4.320972E-2,-1.5630578E-1,1.3392639E-1,6.613245E-2,5.7484597E-1,-2.6958355E-1,2.2319317E-2,1.5876475E-1,-1.5602732E-1,5.6231666E-2,2.6577157E-1,-1.28737E-1,4.8020443E-1,-1.1406431E-1,4.326305E-1],"categories":[],"categories_nodes":[],"categories_segments":[],"categories_sizes":[],"default_left":[0,0,0,0,0,0,0,0,0,0,0,0,0,0,0,0,0,0,0,0,0,0,0,0,0,0,0,0,0,0,0,0,0,0,0,0,0,0,0,0,0,0,0,0,0,0,0],"id":28,"left_children":[1,3,5,7,9,11,13,15,17,-1,19,21,23,25,27,29,31,33,35,-1,-1,-1,-1,37,39,41,43,-1,45,-1,-1,-1,-1,-1,-1,-1,-1,-1,-1,-1,-1,-1,-1,-1,-1,-1,-1],"loss_changes":[2.424239E3,1.0937756E3,1.9939114E3,8.158446E2,3.143354E2,6.7161646E3,1.01507996E3,9.635158E2,7.4984094E2,0E0,1.0746645E1,5.866135E3,5.5105118E1,5.249572E2,4.92297E2,3.6707794E2,1.6999739E3,5.226239E2,5.918213E1,0E0,0E0,0E0,0E0,2.5930965E1,5.6525826E1,9.926793E2,6.683008E2,0E0,1.4482794E2,0E0,0E0,0E0,0E0,0E0,0E0,0E0,0E0,0E0,0E0,0E0,0E0,0E0,0E0,0E0,0E0,0E0,0E0],"parents":[2147483647,0,0,1,1,2,2,3,3,4,4,5,5,6,6,7,7,8,8,10,10,11,11,12,12,13,13,14,14,15,15,16,16,17,17,18,18,23,23,24,24,25,25,26,26,28,28],"right_children":[2,4,6,8,10,12,14,16,18,-1,20,22,24,26,28,30,32,34,36,-1,-1,-1,-1,38,40,42,44,-1,46,-1,-1,-1,-1,-1,-1,-1,-1,-1,-1,-1,-1,-1,-1,-1,-1,-1,-1],"split_conditions":[3.1E1,2.68E1,1.3E1,4.9E1,3.3E1,3.3E1,2.63E1,3.3E1,9.36E1,8.9403534E-1,3.7E1,1.93E1,3.1E0,5.8E1,3.2E1,2.38E1,3.7E1,1.79E1,2.1E1,1.4991379E-1,-2.8383255E-2,4.3588605E0,-1.7030464E-1,1.1E1,1.2E1,4.8E1,8.9E1,1.3314444E0,2.68E1,-4.2831324E-2,1.7016093E-1,4.1809583E-1,-4.320972E-2,-1.5630578E-1,1.3392639E-1,6.613245E-2,5.7484597E-1,-2.6958355E-1,2.2319317E-2,1.5876475E-1,-1.5602732E-1,5.6231666E-2,2.6577157E-1,-1.28737E-1,4.8020443E-1,-1.1406431E-1,4.326305E-1],"split_indices":[2,6,1,4,1,2,6,1,4,0,1,3,6,2,2,6,1,6,1,0,0,0,0,1,1,2,2,0,6,0,0,0,0,0,0,0,0,0,0,0,0,0,0,0,0,0,0],"split_type":[0,0,0,0,0,0,0,0,0,0,0,0,0,0,0,0,0,0,0,0,0,0,0,0,0,0,0,0,0,0,0,0,0,0,0,0,0,0,0,0,0,0,0,0,0,0,0],"sum_hessian":[1.313E3,9.06E2,4.07E2,9.01E2,5E0,1E1,3.97E2,6.72E2,2.29E2,3E0,2E0,2E0,8E0,3.88E2,9E0,5.91E2,8.1E1,2.25E2,4E0,1E0,1E0,1E0,1E0,2E0,6E0,3.38E2,5E1,1E0,8E0,5.71E2,2E1,3.3E1,4.8E1,2.09E2,1.6E1,1E0,3E0,1E0,1E0,5E0,1E0,2.67E2,7.1E1,4.6E1,4E0,1E0,7E0],"tree_param":{"num_deleted":"0","num_feature":"7","num_nodes":"47","size_leaf_vector":"1"}},{"base_weights":[7.0862345E-2,-1.5827092E0,5.051346E0,-2.430952E0,3.227136E-1,4.3899612E0,1.4605596E1,-4.3522844E0,-1.9771565E0,3.0150324E-2,8.219181E0,6.237841E0,2.2588787E0,2.1105707E1,5.344902E0,-4.800166E0,-1.915046E0,-2.4148697E-1,-2.3002443E0,4.5104584E-1,-3.2512455E0,3.7131777E0,1.8997465E1,5.044463E0,2.1132486E1,1.8553799E0,8.05962E-1,3.853394E-1,2.6841818E1,-1.4894682E0,1.2477166E1,-2.855301E-1,-1.8374304E-1,-2.108309E-2,-3.45411E-1,2.6144162E-2,-2.0236194E-1,-1.2741531E-1,-7.7817747E-3,2.061596E-3,9.067237E-1,-5.9183586E-1,-2.9349292E-2,2.6121232E-1,-2.0938425E-1,1.2981583E0,1.2665167E-1,3.044468E-1,1.48224775E-2,1.491039E-1,1.6835526E0,-4.038198E-2,1.8950926E-1,2.776086E-1,1.4545015E0,7.326913E-2,-2.46639E-1,9.1722184E-1,-2.7479798E-1],"categories":[],"categories_nodes":[],"categories_segments":[],"categories_sizes":[],"default_left":[0,0,0,0,0,0,0,0,0,0,0,0,0,0,0,0,0,0,0,0,0,0,0,0,0,0,0,0,0,0,0,0,0,0,0,0,0,0,0,0,0,0,0,0,0,0,0,0,0,0,0,0,0,0,0,0,0,0,0],"id":29,"left_children":[1,3,5,7,9,11,13,15,17,19,21,23,25,27,29,31,33,35,37,39,41,43,45,47,49,51,-1,-1,53,55,57,-1,-1,-1,-1,-1,-1,-1,-1,-1,-1,-1,-1,-1,-1,-1,-1,-1,-1,-1,-1,-1,-1,-1,-1,-1,-1,-1,-1],"loss_changes":[1.0936618E4,1.6121968E3,2.0274814E3,5.93001E2,7.112989E2,1.210623E3,1.1512983E3,1.338064E2,3.1347754E2,4.1304166E2,4.6369592E2,2.8440376E3,7.866178E2,7.154282E2,5.0602966E2,9.171118E1,1.6113507E2,2.6101755E2,2.5070557E2,1.9196847E3,7.707653E2,1.2932617E2,2.7829333E2,7.668662E2,2.6305518E3,7.3985767E2,0E0,0E0,2.21396E2,6.8275246E1,6.2808636E2,0E0,0E0,0E0,0E0,0E0,0E0,0E0,0E0,0E0,0E0,0E0,0E0,0E0,0E0,0E0,0E0,0E0,0E0,0E0,0E0,0E0,0E0,0E0,0E0,0E0,0E0,0E0,0E0],"parents":[2147483647,0,0,1,1,2,2,3,3,4,4,5,5,6,6,7,7,8,8,9,9,10,10,11,11,12,12,13,13,14,14,15,15,16,16,17,17,18,18,19,19,20,20,21,21,22,22,23,23,24,24,25,25,28,28,29,29,30,30],"right_children":[2,4,6,8,10,12,14,16,18,20,22,24,26,28,30,32,34,36,38,40,42,44,46,48,50,52,-1,-1,54,56,58,-1,-1,-1,-1,-1,-1,-1,-1,-1,-1,-1,-1,-1,-1,-1,-1,-1,-1,-1,-1,-1,-1,-1,-1,-1,-1,-1,-1],"split_conditions":[3.4E1,2.4E1,6.7E1,1.2E1,2.47E1,3.3E1,3.56E1,3.1E1,2.8E0,2.88E1,2.8E1,3.2E1,7.6E1,2.56E1,3.7E1,9E0,4.6E1,4.46E1,1.98E1,2.79E1,5.9E0,1.91E1,3.2E1,2.46E1,1.69E1,4.4E1,8.05962E-1,3.853394E-1,3.7E0,2.52E1,1E1,-2.855301E-1,-1.8374304E-1,-2.108309E-2,-3.45411E-1,2.6144162E-2,-2.0236194E-1,-1.2741531E-1,-7.7817747E-3,2.061596E-3,9.067237E-1,-5.9183586E-1,-2.9349292E-2,2.6121232E-1,-2.0938425E-1,1.2981583E0,1.2665167E-1,3.044468E-1,1.48224775E-2,1.491039E-1,1.6835526E0,-4.038198E-2,1.8950926E-1,2.776086E-1,1.4545015E0,7.326913E-2,-2.46639E-1,9.1722184E-1,-2.7479798E-1],"split_indices":[0,0,0,0,6,2,4,2,6,3,2,2,4,4,2,0,2,4,6,3,6,3,2,3,3,0,0,0,6,3,6,0,0,0,0,0,0,0,0,0,0,0,0,0,0,0,0,0,0,0,0,0,0,0,0,0,0,0,0],"split_type":[0,0,0,0,0,0,0,0,0,0,0,0,0,0,0,0,0,0,0,0,0,0,0,0,0,0,0,0,0,0,0,0,0,0,0,0,0,0,0,0,0,0,0,0,0,0,0,0,0,0,0,0,0,0,0,0,0,0,0],"sum_hessian":[1.326E3,9.96E2,3.3E2,6.89E2,3.07E2,3.1E2,2E1,1.3E2,5.59E2,2.97E2,1E1,1.65E2,1.45E2,1.1E1,9E0,1.09E2,2.1E1,8.8E1,4.71E2,2.64E2,3.3E1,8E0,2E0,1.54E2,1.1E1,1.42E2,3E0,4E0,7E0,5E0,4E0,5.8E1,5.1E1,1.7E1,4E0,7.4E1,1.4E1,4.22E2,4.9E1,2.59E2,5E0,7E0,2.6E1,7E0,1E0,1E0,1E0,1.26E2,2.8E1,5E0,6E0,6E1,8.2E1,1E0,6E0,3E0,2E0,3E0,1E0],"tree_param":{"num_deleted":"0","num_feature":"7","num_nodes":"59","size_leaf_vector":"1"}},{"base_weights":[1.3915768E-1,-1.8430463E0,4.072143E0,-3.4218037E0,-9.8593926E-1,2.0746126E0,6.3071074E0,-2.8741162E0,-5.199903E0,-5.624898E-1,-4.032789E0,2.9271667E0,-2.929475E0,1.4719537E1,5.5374246E0,-4.960718E0,-2.1818986E0,-5.3061953E0,